#############################################################################
## Copyright (c) 1996, Carnegie Mellon University, Cambridge University,
## Ronald Rosenfeld and Philip Clarkson
#############################################################################
=============================================================================
===============  This file was produced by the CMU-Cambridge  ===============
===============     Statistical Language Modeling Toolkit     ===============
=============================================================================
This is a 3-gram language model, based on a vocabulary of 7043 words,
  which begins "</s>", "<s>", "അ"...
This is an OPEN-vocabulary model (type 1)
  (OOVs were mapped to UNK, which is treated as any other vocabulary word)
Good-Turing discounting was applied.
1-gram frequency of frequency : 5337 
2-gram frequency of frequency : 13982 936 297 125 58 44 25 
3-gram frequency of frequency : 19397 838 268 112 55 39 24 
1-gram discounting ratios : 1.00 
2-gram discounting ratios : 0.12 0.47 0.56 0.58 0.91 0.66 0.87 
3-gram discounting ratios : 0.08 0.48 0.55 0.61 0.85 0.72 0.86 
This file is in the ARPA-standard format introduced by Doug Paul.

p(wd3|wd1,wd2)= if(trigram exists)           p_3(wd1,wd2,wd3)
                else if(bigram w1,w2 exists) bo_wt_2(w1,w2)*p(wd3|wd2)
                else                         p(wd3|w2)

p(wd2|wd1)= if(bigram exists) p_2(wd1,wd2)
            else              bo_wt_1(wd1)*p_1(wd2)

All probs and back-off weights (bo_wt) are given in log10 form.

Data formats:

Beginning of data mark: \data\
ngram 1=nr            # number of 1-grams
ngram 2=nr            # number of 2-grams
ngram 3=nr            # number of 3-grams

\1-grams:
p_1     wd_1 bo_wt_1
\2-grams:
p_2     wd_1 wd_2 bo_wt_2
\3-grams:
p_3     wd_1 wd_2 wd_3 

end of data mark: \end\

\data\
ngram 1=7044
ngram 2=15606
ngram 3=20868

\1-grams:
-4.4112 <UNK>	0.0000
-0.7128 </s>	-3.6048
-0.7127 <s>	-0.2329
-4.4112 അ	0.0358
-4.4112 അംഗവുമായ	-0.0576
-4.4112 അംഗീകരിക്കലല്ലേ	0.0358
-4.4112 അംഗീകരിച്ചതാണ്	-0.0576
-3.9340 അകത്തേക്ക്	-0.0567
-3.9340 അകത്ത്	-0.0573
-4.4112 അകന്നു	-0.0575
-4.4112 അകപ്പെട്ടു	-0.0577
-4.4112 അകപ്പെട്ടുകിടക്കുന്നു	0.0358
-4.1101 അകലം	-0.1824
-4.4112 അകലങ്ങളിൽ	-0.0571
-4.4112 അകലയാണ്	-0.0573
-4.4112 അകലയും	0.0358
-4.4112 അകലെ	0.0358
-4.4112 അകലെയാണ്	-0.0576
-4.4112 അകിടുള്ള	-0.0577
-4.4112 അക്കാദമി	-0.0577
-4.4112 അക്കാദമിയുടെ	-0.0577
-4.1101 അക്കൗണ്ട്‌	-0.2759
-4.4112 അക്കൗണ്ട്‌സ്	-0.0576
-4.4112 അങ്കിളിന്	-0.0577
-4.1101 അങ്കിളിന്‍റെ	-0.0576
-4.4112 അങ്കിൾ	-0.0576
-4.4112 അങ്ങകലെ	-0.0537
-3.0687 അങ്ങനെ	0.0353
-4.4112 അങ്ങനെതന്നെ	0.0358
-4.4112 അങ്ങനെത്തന്നെ	0.0358
-4.4112 അങ്ങനെയാണ്	0.0358
-4.4112 അങ്ങനെയായിരുന്നെങ്കില്‍	-0.0549
-4.4112 അങ്ങനെയുള്ള	-0.0574
-4.1101 അങ്ങനെയൊക്കെ	-0.0575
-4.1101 അങ്ങനെയൊന്നും	-0.0576
-4.4112 അങ്ങനെയൊന്നുമല്ലാ	-0.0569
-4.4112 അങ്ങനെയൊന്നുമില്ല	0.0358
-4.1101 അങ്ങനെയൊന്നുമില്ലാ	-0.1824
-4.4112 അങ്ങനെയൊന്ന്	-0.0577
-4.4112 അങ്ങനെയൊരു	-0.0577
-4.4112 അങ്ങേരത്	-0.0577
-3.8090 അങ്ങോട്ട്	-0.0573
-4.4112 അങ്ങോട്ട്‌	-0.0577
-4.1101 അച്ഛനമ്മമാരെ	-0.0576
-4.4112 അച്ഛനമ്മമാരെയെല്ലാം	-0.0576
-4.4112 അച്ഛനമ്മരാണെ	-0.0576
-4.4112 അച്ഛനിന്ന്	-0.0575
-3.6329 അച്ഛനും	-0.0250
-4.4112 അച്ഛനെ	-0.0577
-4.1101 അച്ഛനോടും	-0.2759
-3.9340 അച്ഛനോട്	-0.0572
-4.4112 അച്ഛന്	-0.0577
-3.7121 അച്ഛന്റെ	-0.1164
-3.0132 അച്ഛന്‍	-0.0318
-4.1101 അച്ഛാ	0.0363
-4.4112 അഞ്ചാംലോകത്തിനുള്ളില്‍	-0.0569
-4.4112 അഞ്ചാമത്തെ	-0.0577
-4.4112 അഞ്ചു	-0.0576
-4.4112 അഞ്ചുദിവസം	-0.0574
-4.4112 അഞ്ചുദിവസമായി	-0.0569
-4.4112 അഞ്ചുമിനുട്ടെ	-0.0577
-3.9340 അഞ്ച്	-0.0575
-4.4112 അഞ്ഞൂറ്	-0.0576
-4.4112 അടക്കാന്‍	0.0358
-4.4112 അടക്കിയിട്ടുണ്ട്	0.0358
-4.4112 അടക്കിയിരിക്കുന്നത്	0.0358
-4.4112 അടക്കുന്നു	0.0358
-4.4112 അടക്കുന്നുണ്ട്	0.0358
-4.4112 അടങ്ങ്‌	-0.0577
-4.4112 അടച്ചിടും	0.0358
-4.4112 അടച്ചിട്ടില്ലേ	0.0358
-4.4112 അടച്ചോ	0.0358
-4.4112 അടവുകളും	-0.0577
-4.1101 അടവുകള്‍	0.0359
-4.4112 അടിച്ചുപൊളിക്കാം	0.0358
-4.4112 അടിച്ചുപൊളിച്ച്	-0.0575
-4.4112 അടിച്ചോണ്ട്	-0.0572
-4.4112 അടിത്തറ	-0.0577
-4.4112 അടിപൊളി	0.0358
-4.4112 അടിയന്തിര	-0.0577
-4.4112 അടിയില്‍	-0.0575
-4.4112 അടിയുണ്ടാക്കുന്നു	0.0358
-4.4112 അടിസ്ഥാന	-0.0573
-4.4112 അടിസ്ഥാനം	0.0358
-4.4112 അടിസ്ഥാനത്തിന്റെ	-0.0576
-4.4112 അടിസ്ഥാനത്തിൽ	-0.0577
-4.4112 അടിസ്ഥാനപരമായ	0.0358
-4.4112 അടിസ്ഥാനപരമായി	-0.0557
-3.3697 അടുത്ത	-0.1242
-4.4112 അടുത്തയിരിക്കുമ്പോള്‍	0.0358
-4.4112 അടുത്തവട്ടം	-0.0577
-4.1101 അടുത്താണ്	-0.1824
-4.4112 അടുത്തു	-0.0574
-4.4112 അടുത്തുതന്നെയുണ്ട്	0.0358
-4.4112 അടുത്തുനിന്നും	-0.0577
-4.4112 അടുത്തുവന്ന	-0.0557
-4.4112 അടുത്തെത്തി	-0.0573
-4.4112 അടുത്തെത്തിക്കു	0.0358
-4.1101 അടുത്തെത്തിക്കൊണ്ടിരിക്കുന്നു	-0.1824
-4.4112 അടുത്തേക്കെങ്കിലും	-0.0576
-4.4112 അടുത്തേയ്ക്	-0.0577
-4.4112 അടുത്തൊരു	-0.0575
-4.1101 അടുത്ത്	-0.0572
-4.4112 അടുപ്പമായിരുന്നോ	0.0358
-4.4112 അഡ്രസ്‌	0.0358
-4.4112 അഡ്രെസ്സാണുള്ളത്	0.0358
-4.4112 അഡ്രെസ്സാണെന്നാണ്‌	-0.0575
-4.4112 അഡ്രെസ്സാണോ	0.0358
-4.4112 അഡ്രെസ്സാണ്	0.0358
-3.9340 അഡ്രെസ്സ്	-0.0576
-4.4112 അതങ്ങനെയല്ലായിരുന്നു	0.0358
-4.4112 അതത്യാവശ്യമാണ്	0.0358
-4.4112 അതത്ര	-0.0577
-4.4112 അതദ്ദേഹത്തിനും	-0.0576
-4.4112 അതയയ്കുന്നുണ്ട്	0.0358
-4.4112 അതര്‍ഥമാക്കുന്നത്	-0.0577
-4.4112 അതറിയലല്ല	-0.0568
-4.4112 അതറിയാം	0.0358
-4.1101 അതല്ല	-0.0576
-4.4112 അതല്ലമമ്മ	-0.0573
-4.4112 അതല്ലാ	-0.0577
-4.4112 അതല്ലേ	0.0358
-4.4112 അതവള്‍ക്ക്	-0.0577
-4.1101 അതവിടെ	-0.0576
-4.4112 അതവിടെയാണ്	0.0358
-3.9340 അതാ	-0.1903
-4.4112 അതാകും	-0.0576
-4.4112 അതാണെന്റെ	-0.0573
-4.4112 അതാണോ	-0.0576
-3.2972 അതാണ്	0.0452
-4.4112 അതാദ്യം	-0.0569
-4.4112 അതായതു	-0.0566
-4.4112 അതായത്	0.0358
-4.4112 അതാരാണെന്ന്	0.0358
-4.4112 അതാരാണ്	-0.0576
-4.4112 അതിക്രമം	-0.0576
-4.4112 അതിക്രമിച്ച്	-0.0577
-4.4112 അതിഗംഭീര	-0.0575
-4.4112 അതിഗംഭീരം	0.0358
-4.4112 അതിജീവനത്തിനുവേണ്ടി	-0.0577
-4.4112 അതിജീവിക്കാം	0.0358
-4.4112 അതിജീവിച്ചത്	0.0358
-4.1101 അതിഥികളെ	0.0359
-4.4112 അതിഥിയാണോ	0.0358
-4.4112 അതിനകത്ത്	-0.0577
-4.4112 അതിനടിയിലേയ്ക്	-0.0577
-4.4112 അതിനനുവാദമുണ്ടല്ലോ	0.0358
-4.4112 അതിനനുസരിച്ച്	-0.0555
-4.4112 അതിനപ്പുറം	-0.0576
-4.1101 അതിനര്‍ത്ഥം	0.0436
-4.4112 അതിനല്ലേ	-0.0514
-4.4112 അതിനായി	-0.0569
-4.4112 അതിനാലാണ്	-0.0514
-4.4112 അതിനാൽ	-0.0576
-4.4112 അതിനിയും	-0.0577
-3.5660 അതിനു	-0.0128
-4.4112 അതിനും	-0.0577
-4.4112 അതിനുമാത്രമുള്ള	-0.0577
-4.4112 അതിനുമുമ്പ്	-0.0576
-4.1101 അതിനുള്ള	-0.0576
-4.4112 അതിനുള്ളിലെ	-0.0577
-4.1101 അതിനുള്ളിലേക്ക്	-0.0576
-3.4569 അതിനെ	-0.0574
-4.4112 അതിനെക്കുറിച്ച്	-0.0572
-4.4112 അതിനെപ്പറ്റി	-0.0575
-4.4112 അതിനെയാണ്	-0.0569
-4.4112 അതിനെയാർക്കും	-0.0577
-4.4112 അതിനേക്കാളും	-0.0576
-4.4112 അതിനൊന്നുമുള്ള	-0.0574
-4.4112 അതിനൊപ്പം	0.0358
-4.4112 അതിനൊരു	-0.0577
-4.1101 അതിനോട്	-0.0576
-3.1558 അതിന്	0.0468
-3.5080 അതിന്റെ	0.0372
-4.4112 അതിന്‌	-0.0575
-3.7121 അതിന്‍റെ	-0.0535
-4.4112 അതിപ്പോൾ	-0.0576
-4.4112 അതിലധികമോ	0.0358
-4.4112 അതിലും	-0.0577
-4.4112 അതിലുണ്ടായിരുന്നവ	-0.0577
-4.4112 അതിലൂടെയാണോ	-0.0577
-4.4112 അതിലെ	0.0358
-4.4112 അതിലെവിടെയാണ്	-0.0577
-4.4112 അതിലേക്കുള്ള	-0.0576
-4.4112 അതിലൊന്നും	-0.0577
-4.1101 അതില്‍	-0.0537
-4.4112 അതിവിടെ	-0.0576
-4.4112 അതിശയിപ്പിക്കുന്ന	-0.0577
-4.4112 അതിശയൊക്തിയല്ല	0.0358
-3.6329 അതിൽ	-0.1143
-4.4112 അതീതമായി	0.0358
-3.3319 അതു	0.0405
-3.6329 അതും	-0.0249
-4.4112 അതുകഴിഞ്ഞ്	-0.0576
-3.9340 അതുകൊണ്ടാണ്	-0.0967
-4.1101 അതുകൊണ്ടാ	0.0364
-4.4112 അതുകൊണ്ടാണിത്	-0.0577
-4.4112 അതുകൊണ്ടാണോ	-0.0576
-3.7121 അതുകൊണ്ടാണ്	0.0367
-4.4112 അതുകൊണ്ടെന്താണ്	0.0358
-4.4112 അതുകൊണ്ടൊന്നും	-0.0576
-3.2650 അതുകൊണ്ട്	-0.0335
-3.8090 അതുതന്നെ	0.0391
-4.4112 അതുതന്നെയല്ലേ	-0.0576
-4.4112 അതുതന്നെയാണ്	-0.0573
-4.4112 അതുപോലും	-0.0577
-4.4112 അതുപോലെ	-0.0569
-4.4112 അതുപോലെയൊക്കെ	-0.0577
-4.4112 അതുപോലെയൊന്നുമില്ലാ	0.0358
-2.8548 അതെ	0.0388
-4.4112 അതെഇതൊരു	-0.0577
-4.4112 അതെങ്ങനെ	0.0358
-4.4112 അതെചിലപ്പോൾ	-0.0577
-4.4112 അതെടുത്തോളു	0.0358
-4.4112 അതെത്ര	-0.0577
-4.4112 അതെനിക്കറിയില്ല	0.0358
-3.8090 അതെനിക്ക്	-0.1530
-4.4112 അതെന്താ	0.0358
-4.4112 അതെന്താണ്	0.0358
-4.4112 അതെന്തുകൊണ്ടായിരുന്നുവെന്ന്	-0.0549
-4.4112 അതെന്നോട്	-0.0575
-4.1101 അതെന്‍റെ	-0.0576
-4.1101 അതെപ്പോഴും	0.0359
-4.4112 അതെഭക്ഷണത്തിന്	-0.0572
-4.1101 അതെയോ	0.0359
-4.1101 അതെല്ലാം	-0.0576
-4.4112 അതെവിടെയാണ്	0.0358
-3.9340 അതേ	-0.0573
-4.4112 അതേക്കുറിച്ച്	-0.0577
-4.4112 അതേസമയം	0.0358
-4.4112 അതൊക്കെ	-0.0568
-4.4112 അതൊന്നു	-0.0577
-4.4112 അതൊന്നും	-0.0576
-4.4112 അതൊന്നുമല്ലാ	0.0358
-4.4112 അതൊരിക്കലും	-0.0577
-3.4111 അതൊരു	0.0016
-3.4111 അതോ	-0.0590
-2.0951 അത്	0.0216
-4.4112 അത്തുണ്ട്	0.0358
-4.4112 അത്ഭുതം	-0.0575
-4.4112 അത്ഭുതകരമാണ്	0.0358
-4.4112 അത്ഭുതങ്ങൾ	-0.0576
-4.4112 അത്ഭുതത്തിന്റെ	-0.0577
-4.4112 അത്ഭുതപ്പെടാറുണ്ടായിരുന്നു	0.0358
-4.4112 അത്ഭുതപ്പെടുത്താം	-0.0537
-4.4112 അത്ഭുതപ്പെടുത്താൻ	0.0358
-4.4112 അത്ഭുതമെന്ന്	-0.0576
-4.4112 അത്യന്തം	-0.0577
-4.4112 അത്യാവശ്യം	-0.0576
-4.4112 അത്യാഹിതം	-0.0577
-4.4112 അത്യാഹിതങ്ങളാണ്	-0.0577
-3.6329 അത്ര	0.0359
-4.4112 അത്രക്ക്	-0.0576
-4.1101 അത്രയും	-0.0576
-4.4112 അത്രയേയുള്ളൂ	-0.0577
-4.4112 അത്രയ്ക്കൊന്നും	0.0358
-4.4112 അത്രെ	-0.0575
-4.4112 അത്രേ	-0.0577
-2.8796 അദ്ദേഹം	0.0426
-4.4112 അദ്ദേഹത്തിനത്	-0.0576
-4.4112 അദ്ദേഹത്തിനറിയാമായിരുന്നു	0.0358
-4.4112 അദ്ദേഹത്തിനു	-0.0577
-4.4112 അദ്ദേഹത്തിനേയും	-0.0577
-3.7121 അദ്ദേഹത്തിന്	0.0410
-3.2650 അദ്ദേഹത്തിന്‍റെ	-0.0404
-4.4112 അദ്ദേഹത്തിന്‍റേത്	-0.0576
-4.4112 അദ്ദേഹത്തില്‍	-0.0574
-3.5080 അദ്ദേഹത്തെ	-0.1015
-4.4112 അദ്ദേഹത്തോട്	-0.0577
-4.1101 അദ്ദേഹമത്	-0.0576
-4.4112 അദ്ദേഹമാണ്	-0.0574
-4.1101 അദ്ദേഹമായിരുന്നു	-0.1824
-4.4112 അദ്ദേഹമെന്താ	-0.0577
-4.4112 അദ്ദേഹമെന്താണ്	-0.0574
-4.4112 അദ്ദേഹമെന്തിനാ	-0.0575
-4.4112 അദ്ദേഹമെന്‍റെ	-0.0577
-4.4112 അദ്ദേഹവും	-0.0577
-4.4112 അദ്ധ്യയന	-0.0577
-4.4112 അധിക	-0.0576
-3.6329 അധികം	-0.0576
-4.4112 അധികകാലം	-0.0577
-4.4112 അധികനേരം	-0.0577
-4.4112 അധികപ്രസംഗിയായ	0.0358
-4.4112 അധികമില്ല	-0.0566
-4.4112 അധികമില്ലല്ലോ	0.0358
-4.4112 അധികമൊന്നും	-0.0577
-4.4112 അധികസമയം	-0.0566
-4.4112 അനങ്ങരുത്	0.0358
-4.4112 അനങ്ങല്ലേ	0.0358
-4.4112 അനന്തമായ	-0.0577
-4.4112 അനാഥനായതെന്നോ	-0.0576
-4.4112 അനാഥന്‍	-0.0574
-3.9340 അനാഥാലയത്തിലേക്ക്	-0.0969
-4.4112 അനുഗ്രഹിക്കുകയാണെങ്കിൽ	0.0358
-4.4112 അനുഭവവേദ്യമാകും	0.0358
-4.4112 അനുഭവവേദ്യമാണ്	-0.0576
-4.4112 അനുഭവിക്കുന്നത്	0.0358
-4.4112 അനുഭവിച്ചിട്ടില്ല	0.0358
-4.4112 അനുമതിയുണ്ട്	0.0358
-4.4112 അനുയോജ്യമായതെന്ന്	-0.0549
-4.4112 അനുവദിക്കുന്നു	0.0358
-4.4112 അനുവാദമില്ല	0.0358
-4.4112 അനുവാദമില്ലാ	0.0358
-4.4112 അനുവാദമുണ്ട്	0.0358
-4.4112 അനുസരിക്കണം	0.0358
-4.4112 അനുസരിക്കേണ്ട	-0.0577
-3.9340 അനുസരിചിട്ടുണ്ട്	-0.2594
-4.4112 അന്തരിച്ചു	0.0358
-4.4112 അന്തരീക്ഷം	-0.0577
-4.4112 അന്തരീക്ഷത്തിന്റെ	-0.0577
-4.1101 അന്തരീക്ഷത്തിൽ	-0.0572
-4.4112 അന്തരീഷത്തിൽ	-0.0575
-4.4112 അന്തസ്സ്‌	-0.0576
-4.4112 അന്തസ്സ്‌‌	-0.0576
-4.4112 അന്ധകാരത്തിലേയ്ക്	-0.0577
-4.4112 അന്നത്തെ	-0.0574
-4.4112 അന്നത്തെക്കാലത്ത്	-0.0576
-3.9340 അന്ന്	-0.0574
-4.4112 അന്വേഷകർ	0.0358
-4.1101 അന്വേഷണം	-0.0576
-4.4112 അന്വേഷിക്കലല്ലല്ലോ	0.0358
-4.1101 അന്വേഷിക്കുകയാണ്	-0.1824
-4.4112 അന്വേഷിക്കുന്ന	-0.0557
-4.4112 അന്വേഷിക്കുന്നതാണ്	-0.0576
-4.4112 അന്വേഷിക്കുന്നതില്‍	-0.0549
-4.1101 അന്വേഷിച്ച്	0.0359
-4.4112 അപകടം	-0.0576
-4.4112 അപകടകരമായ	-0.0537
-4.4112 അപകടത്തിലാണെന്ന്	0.0358
-4.4112 അപഗ്രഥിച്ച്	0.0358
-4.4112 അപരിചിതനല്ല	0.0358
-4.4112 അപരിചിതമായ	-0.0575
-4.4112 അപരിചിതമായി	-0.0577
-4.4112 അപരിചിതമായൊരു	-0.0577
-4.4112 അപരിചിതരുമായി	0.0358
-4.4112 അപൂര്‍ണ്ണമായ	-0.0577
-4.4112 അപൂര്‍ണ്ണമായി	0.0358
-4.4112 അപ്പം	-0.0577
-4.4112 അപ്പക്കള്ളന്‍	0.0358
-4.4112 അപ്പുറത്തു	-0.0577
-4.4112 അപ്പുറത്തേയ്ക്	-0.0576
-4.4112 അപ്പുറമുള്ള	0.0358
-4.4112 അപ്പൂപ്പന്‍	-0.0576
-4.4112 അപ്പൂപ്പന്‍റെ	-0.0576
-4.1101 അപ്പൂപ്പാ	0.0365
-4.1101 അപ്പൊ	-0.0568
-3.9340 അപ്പോ	-0.0559
-4.1101 അപ്പോളോ	0.0359
-4.4112 അപ്പോഴും	-0.0577
-4.4112 അപ്പോഴേയ്കും	-0.0577
-2.8548 അപ്പോൾ	0.0364
-4.4112 അപ്പ്	-0.0577
-4.1101 അപ്‌ലോഡ്‌	-0.0575
-4.4112 അബദ്ധമാണ്	0.0358
-4.1101 അഭിനന്ദനങ്ങള്‍	0.0359
-4.4112 അഭിനയിക്കുന്നത്	0.0358
-4.4112 അഭിനയിക്ക്	0.0358
-4.4112 അഭിനയിച്ചു	0.0358
-4.4112 അഭിനിവേശമായിരുന്നു	0.0358
-3.9340 അഭിനേതാക്കള്‍	-0.0575
-4.4112 അഭിനേത്രിയായിരുന്നോ	0.0358
-4.4112 അഭിപ്രായ	-0.0577
-4.4112 അഭിമാനമുണ്ട്	-0.0573
-4.4112 അഭിമുഖീകരിക്കേണ്ടതായി	-0.0574
-4.4112 അമാനുഷികമാണെന്ന്	-0.0576
-4.4112 അമൂല്യ	-0.0577
-3.7121 അമേലിയ	-0.0373
-4.4112 അമേലിയയോട്	-0.0577
-4.1101 അമോണിയ	0.0371
-4.4112 അമോണിയയ്കു	-0.0576
-4.4112 അമ്പരപ്പുണ്ടോ	0.0358
-3.3697 അമ്മ	-0.0549
-4.4112 അമ്മക്കും	0.0358
-4.4112 അമ്മക്കൊരു	-0.0577
-4.4112 അമ്മക്ക്	-0.0576
-3.9340 അമ്മയും	-0.0562
-4.4112 അമ്മയുടെ	-0.0577
-4.1101 അമ്മയുടെയും	0.0359
-4.4112 അമ്മയുണ്ടായിരുന്നെങ്കിൽ	0.0358
-4.4112 അമ്മയുമെവിടെ	0.0358
-4.4112 അമ്മയെ	-0.0549
-4.4112 അമ്മയെക്കുറിച്ച്	0.0358
-4.1101 അമ്മയോടും	-0.0576
-4.4112 അമ്മയോട്	-0.0576
-3.5080 അമ്മാ	-0.0923
-4.1101 അമ്മാവന്‍	0.0359
-4.4112 അമ്മേ	0.0358
-4.4112 അമ്മോണിയ	0.0358
-4.4112 അയക്കണമായിരുന്നു	0.0358
-4.4112 അയക്കാൻ	-0.0575
-4.4112 അയക്കും	0.0358
-4.4112 അയക്കുക	0.0358
-4.4112 അയക്കുന്നു	0.0358
-4.4112 അയക്കുമ്പോൾ	0.0358
-4.1101 അയച്ചതാണ്	-0.1824
-4.4112 അയച്ചത്	0.0358
-4.4112 അയച്ചാൽ	-0.0574
-4.4112 അയച്ചിട്ടുണ്ടോ	0.0358
-3.8090 അയച്ചിട്ടുണ്ട്	-0.2785
-4.4112 അയച്ചില്ല	0.0358
-3.9340 അയച്ചു	0.0359
-4.4112 അയച്ചുകൊടുത്താലും	0.0358
-4.4112 അയച്ചുതരാനും	-0.0577
-4.4112 അയച്ചുതരാനുള്ള	0.0358
-4.4112 അയച്ചുതരൂ	0.0358
-4.4112 അയച്ചുതാ	0.0358
-4.4112 അയച്ചോ	0.0358
-4.4112 അയയ്കാതിരുന്നതിന്റെ	-0.0573
-4.4112 അയയ്കാനായാല്‍	0.0358
-4.1101 അയയ്കുന്നു	-0.1824
-4.4112 അയാളത്	-0.0577
-4.4112 അയാളിത്	-0.0572
-4.4112 അയാളിവിടത്തെ	-0.0577
-3.5660 അയാളുടെ	0.0360
-4.1101 അയാളെ	-0.0576
-4.1101 അയാളൊരു	-0.2758
-4.1101 അയാളോട്	-0.0576
-3.4569 അയാള്‍	-0.0559
-4.4112 അയാള്‍ക്കങ്ങനെ	-0.0577
-4.4112 അയാള്‍ക്കിനി	-0.0576
-4.4112 അയാള്‍ക്കെന്ത്	-0.0576
-4.4112 അയാള്‍ക്ക്	-0.0576
-3.8090 അയ്യോ	-0.0595
-4.4112 അയർലണ്ടിലെ	-0.0576
-4.4112 അരമണിക്കൂറിന്	-0.0576
-4.4112 അരമണിക്കൂറൊന്നും	-0.0571
-4.4112 അരികിലായി	-0.0577
-4.4112 അരിവാങ്ങാൻ	0.0358
-4.4112 അരുത്	0.0358
-4.4112 അര്‍ത്ഥം	-0.0576
-4.4112 അര്‍ത്ഥങ്ങളുമുണ്ട്	0.0358
-4.4112 അര്‍ത്ഥമില്ല	0.0358
-4.4112 അര്‍ത്ഥമെന്ന്	-0.0576
-4.4112 അര്‍ത്ഥവത്താണ്	-0.0576
-4.4112 അര്‍ത്ഥവുമില്ല	0.0358
-4.4112 അര്‍ത്ഥശൂന്യമാണ്	0.0358
-4.4112 അര്‍ഥം	0.0358
-4.4112 അര്‍പ്പിച്ചു	0.0358
-4.4112 അറയില്ലേ	-0.0569
-4.4112 അറിഞ്ഞപ്പോള്‍	0.0358
-4.4112 അറിഞ്ഞിരിക്കണം	0.0358
-4.4112 അറിഞ്ഞുകൂടാ	0.0358
-4.4112 അറിയണമല്ലോ	0.0358
-4.4112 അറിയണോ	0.0358
-4.4112 അറിയപ്പെടാതിരിക്കാനുള്ളതാണ്	0.0358
-4.4112 അറിയരുത്	0.0358
-3.5080 അറിയാം	-0.2294
-4.4112 അറിയാതിരിക്കാന്‍	0.0358
-4.4112 അറിയാതെയാണോ	-0.0553
-4.4112 അറിയാത്തതിനെ	-0.0577
-4.4112 അറിയാമല്ലോ	0.0358
-3.9340 അറിയാമായിരുന്നു	-0.2594
-3.7121 അറിയാമോ	-0.1948
-4.4112 അറിയാറായിട്ടില്ല	0.0358
-4.1101 അറിയാൻ	-0.0576
-4.4112 അറിയിക്കും	-0.0576
-4.4112 അറിയിക്കുന്നു	0.0358
-4.4112 അറിയിയാം	-0.0576
-3.3319 അറിയില്ല	-0.6009
-4.4112 അറിയില്ലല്ലോ	0.0358
-4.1101 അറിയില്ലാ	-0.1824
-4.4112 അറിയില്ലായിരുന്നു	-0.0553
-3.9340 അറിയില്ലേ	-0.2594
-4.4112 അറിയുമായിരുന്നു	0.0358
-4.4112 അറിയുമെങ്കില്‍	0.0358
-3.7121 അറിയുമോ	-0.9492
-4.4112 അറിയൂ	0.0358
-4.4112 അറിയേണ്ടതെല്ലാം	0.0358
-4.4112 അറിയേണ്ടൂ	0.0358
-4.4112 അറ്റാക്ക്‌	-0.0577
-4.4112 അലക്സാണ്ടർ	0.0358
-4.4112 അലങ്കരിച്ചിരിക്കുന്നത്	0.0358
-4.4112 അലങ്കാരപണികൾ	0.0358
-4.4112 അലട്ടിയിട്ടുണ്ട്	0.0358
-4.4112 അലപ്പസമയത്തിന്	0.0358
-4.4112 അലമാരിയില്‍	-0.0575
-4.4112 അലറുന്നു	0.0358
-4.4112 അലിഖാൻ	-0.0577
-4.4112 അലുമിനിയം	0.0358
-3.8090 അല്പം	-0.0576
-3.0687 അല്ല	-0.0212
-4.4112 അല്ലല്ലോ	0.0358
-3.2650 അല്ലാ	-0.0253
-3.8090 അല്ലാതെ	0.0380
-4.4112 അല്ലാതെന്താണ്	-0.0576
-4.4112 അല്ലാതെന്ത്	-0.0576
-4.1101 അല്ലായിരുന്നു	-0.1824
-4.4112 അല്ലായിരുന്നോ	0.0358
-3.9340 അല്ലെ	-0.2594
-3.4111 അല്ലെങ്കില്‍	-0.0560
-4.4112 അല്ലെന്ന്	0.0358
-3.1101 അല്ലേ	-1.2489
-4.4112 അല്ലേടോ	0.0358
-4.1101 അല്‍പം	-0.0576
-4.4112 അളക്കാന്‍	-0.0575
-4.4112 അളക്കാവുന്നതാണ്	-0.0575
-4.4112 അളവ്	-0.0577
-4.4112 അഴിഞ്ഞു	-0.0577
-4.4112 അഴിമതി	-0.0573
-3.5660 അവ	-0.0544
-4.4112 അവകാശമില്ലേ	0.0358
-4.4112 അവധിയിൽ	0.0358
-4.4112 അവനതറിയണം	0.0358
-4.4112 അവനത്	-0.0577
-4.4112 അവനറിയില്ല	0.0358
-4.4112 അവനിതിന്റെ	-0.0577
-4.4112 അവനില്‍	-0.0577
-4.4112 അവനു	-0.0576
-4.4112 അവനും	-0.0577
-3.4569 അവനെ	-0.0571
-4.1101 അവനെന്താണ്	-0.0571
-4.4112 അവനെന്നെ	-0.0574
-4.4112 അവനെന്നെയും	-0.0576
-4.4112 അവനെന്റെ	-0.0577
-4.4112 അവനെയും	-0.0573
-4.4112 അവനെയൊന്ന്	-0.0577
-4.4112 അവനെവിടെ	0.0358
-4.4112 അവനൊന്നും	-0.0577
-4.4112 അവനൊന്ന്	-0.0577
-3.7121 അവനൊരു	-0.0576
-3.5080 അവനോട്	-0.1019
-3.5080 അവന്	-0.0970
-3.6329 അവന്റെ	-0.0575
-3.0494 അവന്‍	-0.0515
-3.4569 അവന്‍റെ	-0.0574
-4.4112 അവയുടെ	-0.0577
-4.4112 അവയെ	-0.0569
-4.4112 അവയെക്കുറിച്ച്	-0.0577
-4.4112 അവയ്ക്കു	-0.0571
-4.4112 അവരത്	-0.0577
-4.4112 അവരല്ല	-0.0573
-4.4112 അവരവനെ	-0.0577
-4.4112 അവരാ	-0.0577
-4.4112 അവരാണെല്ലാം	-0.0576
-3.9340 അവരാണ്	0.0360
-4.4112 അവരാനെന്നു	0.0358
-4.4112 അവരിതെല്ലാം	-0.0577
-4.4112 അവരിപ്പോളും	-0.0576
-4.4112 അവരിപ്പോഴും	-0.0577
-4.4112 അവരിലേക്ക്	-0.0576
-4.4112 അവരിവിടെയെത്തും	0.0358
-4.1101 അവരിൽ	-0.0576
-4.4112 അവരും	-0.0577
-3.2070 അവരുടെ	0.0367
-4.4112 അവരുദ്ദേശിക്കുന്നത്	-0.0575
-4.4112 അവരുമായി	0.0358
-4.4112 അവരുമായിട്ടുള്ള	-0.0576
-3.5080 അവരെ	-0.0943
-4.4112 അവരെക്കൊണ്ട്	-0.0577
-4.4112 അവരെന്തിനാണ്	-0.0573
-4.4112 അവരെപ്പോഴും	-0.0577
-4.4112 അവരെയല്ലം	-0.0514
-4.4112 അവരെയൊക്കെ	-0.0577
-4.4112 അവരെല്ലാം	-0.0576
-4.4112 അവരെവിടെ	0.0358
-4.4112 അവരൊക്കെ	-0.0567
-4.4112 അവരോടെല്ലാം	-0.0575
-3.9340 അവരോട്	-0.0571
-4.4112 അവര്	-0.0577
-4.4112 അവര്ക്ക്	-0.0575
-2.9340 അവര്‍	0.0238
-4.4112 അവര്‍ക്കിത്	-0.0577
-4.4112 അവര്‍ക്കിവിടെ	-0.0577
-4.4112 അവര്‍ക്കുവേണ്ടി	0.0358
-4.4112 അവര്‍ക്കെന്തു	-0.0576
-4.4112 അവര്‍ക്കൊരു	-0.0575
-3.4111 അവര്‍ക്ക്	0.0386
-4.4112 അവളതിന്റെ	-0.0577
-4.4112 അവളത്	-0.0576
-4.4112 അവളായിരുന്നേനെ	-0.0554
-4.4112 അവളിപ്പോളും	-0.0576
-4.4112 അവളിപ്പോഴും	-0.0576
-4.1101 അവളില്‍	-0.0575
-3.3319 അവളുടെ	-0.0572
-3.5080 അവളെ	-0.0561
-4.4112 അവളെന്താണ്	-0.0577
-4.4112 അവളെയാണ്	-0.0576
-4.4112 അവളേം	-0.0577
-4.4112 അവളൊന്നും	-0.0577
-4.4112 അവളൊരിക്കലും	-0.0577
-4.4112 അവളൊരു	-0.0567
-4.4112 അവളോടെങ്ങനെ	-0.0577
-4.4112 അവളോടൊരു	-0.0576
-4.4112 അവളോട്‌	-0.0576
-3.2070 അവള്‍	-0.0064
-4.4112 അവള്‍ക്ക്	-0.0577
-4.4112 അവശിഷ്ട്ടം	0.0358
-4.4112 അവശേഷിച്ചിരുന്നെങ്കിൽ	0.0358
-4.4112 അവശ്വസനിയമാണ്	0.0358
-4.4112 അവസരം	0.0358
-4.4112 അവസരമുണ്ട്	0.0358
-4.4112 അവസരവുമാകും	0.0358
-3.9340 അവസാന	-0.0576
-3.9340 അവസാനം	-0.0505
-4.4112 അവസാനത്തിൽ	-0.0572
-4.1101 അവസാനത്തെ	-0.0576
-4.4112 അവസാനമായി	-0.0577
-4.4112 അവസാനമാവും	0.0358
-4.4112 അവസാനിക്കും	0.0358
-4.4112 അവസാനിക്കുകയായിരുന്നു	0.0358
-4.4112 അവസാനിക്കുന്നതിനോടുള്ള	-0.0577
-4.4112 അവസാനിക്കുന്നത്	0.0358
-4.4112 അവസാനിച്ചത്	-0.0577
-4.4112 അവസാനിച്ചല്ലോ	0.0358
-4.4112 അവസാനിച്ചിരിക്കുന്നു	0.0358
-4.4112 അവസാനിച്ചെന്നു	-0.0575
-4.4112 അവസാനിപ്പിക്കരുത്	0.0358
-4.4112 അവസാനിപ്പിക്കുന്നു	0.0358
-4.4112 അവസാനിപ്പിച്ചു	0.0358
-3.9340 അവസ്ഥ	-0.0566
-4.4112 അവിചാരിത	-0.0576
-4.1101 അവിടം	-0.0576
-4.4112 അവിടുത്തെ	0.0358
-4.4112 അവിടുന്ന്	-0.0575
-2.7483 അവിടെ	0.0370
-4.4112 അവിടെത്തെ	-0.0577
-4.4112 അവിടെന്ന്	-0.0553
-4.4112 അവിടെയല്ലാ	0.0358
-3.8090 അവിടെയാണ്	-0.1605
-4.4112 അവിടെയായിരിക്കും	-0.0575
-4.4112 അവിടെയില്ലാത്തത്	-0.0576
-4.4112 അവിടെയുണ്ടെന്ന്	-0.0574
-3.9340 അവിടെയുണ്ട്	-0.2594
-4.4112 അവിടെയുമല്ലാ	0.0358
-4.4112 അവിടെയുള്ളവരെല്ലാം	-0.0577
-4.4112 അവിടെയെവിടെയെങ്കിലും	-0.0577
-3.8090 അവിടെയൊരു	-0.0574
-4.4112 അവിടേക്ക്	0.0358
-4.4112 അവ്യക്ത	-0.0577
-3.4569 അവൻ	-0.0571
-2.9961 അവർ	0.0390
-4.4112 അവർക്കറിയാം	0.0358
-4.4112 അവർക്കറിയില്ലാ	0.0358
-4.4112 അവർക്കെല്ലാം	-0.0577
-3.4111 അവർക്ക്	0.0395
-3.1323 അവൾ	0.0281
-4.4112 അവൾക്കു	-0.0576
-3.8090 അവൾക്ക്‌	-0.0522
-4.4112 അവൾക്ക്‌‌	-0.0577
-4.1101 അശു	-0.0576
-4.4112 അശ്രദ്ധമായ	-0.0577
-4.4112 അസംബന്ധം	0.0358
-4.4112 അസംബന്ധംങ്ങളെക്കുറിച്ച്	0.0358
-4.4112 അസാധാരണമായ	-0.0577
-4.4112 അസാധാരണമായി	-0.0577
-4.4112 അസാമാന്യകഴിവാണയാള്‍ക്ക്	0.0358
-4.4112 അസിസ്റ്റന്റ്	-0.0576
-4.4112 അസ്തമയത്തിനുമുമ്പുള്ള	-0.0577
-4.4112 അസ്ഥികൂടങ്ങള്‍	-0.0577
-4.4112 അസ്വഭാവികതയിൽ	-0.0575
-4.4112 അസ്വാഭാവികത	-0.0542
-4.4112 അസ്വാഭാവികതകള്‍	-0.0576
-4.4112 അഹങ്കാരം	-0.0573
-3.9340 അഹ്	0.0359
-4.4112 അർഥം	-0.0577
-4.4112 അർഥമെന്താണ്	0.0358
-2.3466 ആ	0.0129
-3.9340 ആം	-0.0968
-3.8090 ആംസ്റ്റർഡാം	-0.0572
-4.1101 ആംസ്റ്റർഡാമാണ്	-0.1824
-4.4112 ആംസ്റ്റർഡാമിലും	0.0358
-4.4112 ആംസ്റ്റർഡാമിലെത്തിയാൽ	-0.0576
-4.4112 ആംസ്റ്റർഡാമിലെവിടെയാണ്	-0.0576
-4.4112 ആംസ്റ്റർഡാമിലേക്കുള്ള	-0.0576
-4.4112 ആംസ്റ്റർഡാമിലേക്ക്	-0.0576
-4.4112 ആംസ്റ്റർഡാമിൽ	-0.0575
-4.4112 ആംസ്റ്റർഡാമൊക്കെ	-0.0577
-4.4112 ആകട്ടെ	-0.0571
-4.4112 ആകണം	0.0358
-4.4112 ആകര്‍ഷിക്കുന്നത്	0.0358
-4.4112 ആകാംഷ	-0.0577
-4.4112 ആകാശത്ത്	-0.0575
-4.4112 ആകാൻ	-0.0576
-4.4112 ആകും	0.0358
-4.4112 ആകുമായിരിക്കാം	0.0358
-4.4112 ആകുമായിരുന്നു	0.0358
-4.4112 ആകുമെന്ന്	-0.0555
-4.4112 ആകുവാൻ	0.0358
-3.9340 ആകെ	0.0359
-4.4112 ആക്കണോ	0.0358
-4.4112 ആക്കി	-0.0577
-4.4112 ആക്കിയ	-0.0576
-4.4112 ആക്കും	0.0358
-4.4112 ആക്രമിക്കാന്‍	-0.0573
-4.4112 ആക്രമിക്ക്	0.0358
-4.4112 ആക്ഷന്‍	0.0358
-4.4112 ആക്സലേറ്റർ	-0.0577
-4.1101 ആഗ്രഹം	0.0360
-4.4112 ആഗ്രഹമുണ്ട്	0.0358
-3.9340 ആഗ്രഹിക്കുന്നു	-0.2594
-4.4112 ആഗ്രഹിച്ചിരുന്നത്	0.0358
-4.4112 ആഘോഷത്തിലേക്	0.0358
-4.4112 ആജ്ഞകള്‍	-0.0577
-4.4112 ആണന്നറിയില്ലേ	0.0358
-3.9340 ആണുങ്ങളുടെ	-0.0576
-4.4112 ആണുങ്ങൾക്കും	-0.0576
-4.4112 ആണെന്നാണോ	0.0358
-4.4112 ആണെന്നാണ്	0.0358
-4.4112 ആണെന്നുള്ള	-0.0576
-4.4112 ആണെന്നെയൊള്ളൂ	0.0358
-3.9340 ആണെന്ന്	-0.0527
-3.8090 ആണോ	-0.1619
-2.9797 ആണ്	-0.4090
-4.4112 ആണ്‍കുട്ടി	0.0358
-4.1101 ആത്മവിശ്വാസം	0.0363
-4.4112 ആത്മാര്‍ത്ഥത	-0.0575
-4.4112 ആത്മാവും	-0.0577
-3.6329 ആദ്യ	-0.0576
-3.5080 ആദ്യം	-0.1530
-4.4112 ആദ്യംതന്നെ	-0.0564
-4.4112 ആദ്യകാല	-0.0577
-4.4112 ആദ്യതെ	-0.0576
-4.4112 ആദ്യത്തേത്	0.0358
-4.1101 ആദ്യമായി	0.0359
-4.4112 ആനുകൂല്യങ്ങളും	-0.0577
-4.1101 ആന്‍റിയെ	-0.0572
-4.1101 ആപേക്ഷികതയെ	-0.0576
-4.4112 ആഭരങ്ങളെടുക്കാൻ	-0.0575
-4.4112 ആയത്	0.0358
-3.9340 ആയി	-0.0576
-4.4112 ആയിക്കൊണ്ടിരിക്കുകയാണ്	-0.0577
-4.4112 ആയിട്ടുണ്ട്	0.0358
-4.4112 ആയിരം	-0.0577
-4.4112 ആയിരിക്കണം	0.0358
-4.4112 ആയിരിക്കാം	-0.0571
-3.9340 ആയിരിക്കും	-0.0968
-4.4112 ആയിരിക്കുമ്പോൾ	-0.0575
-3.7121 ആയിരുന്നു	-0.1905
-4.4112 ആയിരുന്നെങ്കില്‍	0.0358
-4.1101 ആയിരുന്നോ	-0.1824
-4.4112 ആയിരുന്നോന്ന്	0.0358
-4.4112 ആയുധം	-0.0553
-4.4112 ആയുധമൊന്നും	-0.0570
-4.4112 ആയുഷ്മാൻ	-0.0577
-4.4112 ആരംഭമാണ്	0.0358
-4.4112 ആരംഭിക്കുന്നു	0.0358
-4.4112 ആരംഭിച്ചത്	0.0358
-4.4112 ആരംഭിച്ചു	0.0358
-3.9340 ആരാ	0.0364
-4.1101 ആരാണത്	0.0360
-4.1101 ആരാണീ	-0.0572
-4.4112 ആരാണെന്നു	-0.0565
-4.4112 ആരാണെന്ന്	0.0358
-3.4569 ആരാണ്	-0.0868
-4.4112 ആരാധികയായത്	0.0358
-4.4112 ആരായാലും	0.0358
-3.6329 ആരും	0.0376
-4.4112 ആരുടെയെങ്കില്‍	-0.0575
-4.4112 ആരുമില്ല	0.0358
-3.9340 ആരെങ്കിലും	0.0359
-4.1101 ആരെയും	-0.0576
-3.9340 ആരോ	0.0365
-4.1101 ആരോടും	-0.0535
-4.4112 ആരോട്	-0.0575
-3.9340 ആര്	0.0359
-3.8090 ആര്‍ക്കും	-0.0572
-4.4112 ആര്‍ക്കുമിവനെ	-0.0577
-4.4112 ആര്‍ജ്ജിച്ചു	0.0358
-4.4112 ആറ്	0.0358
-4.4112 ആലോചിക്കും	0.0358
-4.4112 ആലോചിച്ചു	-0.0577
-4.4112 ആളല്ലേ	0.0358
-4.4112 ആളാണ്‌	0.0358
-4.4112 ആളായിരിക്കും	-0.0575
-4.4112 ആളുകളാണോ	-0.0568
-4.4112 ആളുകളാണ്	0.0358
-4.4112 ആളുകളും	-0.0576
-4.1101 ആളുകളെ	-0.0569
-4.4112 ആളുകളെല്ലാം	-0.0577
-3.9340 ആളുകള്‍	0.0359
-4.4112 ആളുപോലും	-0.0542
-4.4112 ആള്‍	0.0358
-4.4112 ആള്‍ക്കാരെ	-0.0577
-4.4112 ആഴത്തില്‍	-0.0576
-4.4112 ആഴ്ചകള്‍ക്കു	-0.0575
-4.4112 ആഴ്ചയായിരുന്നു	0.0358
-4.4112 ആഴ്ച്ച	-0.0575
-4.4112 ആവര്‍ത്തിക്കാം	0.0358
-4.4112 ആവര്‍ത്തിക്കാതിരിക്കണമെങ്കില്‍	0.0358
-4.4112 ആവര്‍ത്തിക്കുന്നു	-0.0542
-4.4112 ആവശ്യ	0.0358
-3.5660 ആവശ്യം	-0.0133
-4.4112 ആവശ്യത്തിനനുസരിച്ച്	0.0358
-4.4112 ആവശ്യത്തിന്	-0.0577
-4.4112 ആവശ്യപ്പെടുന്നത്	-0.0573
-4.4112 ആവശ്യപ്പെടുമ്പോള്‍	-0.0577
-4.4112 ആവശ്യപ്പെടേണ്ടതില്ല	0.0358
-4.4112 ആവശ്യപ്പെട്ടതും	0.0358
-4.4112 ആവശ്യപ്പെട്ടു	0.0358
-4.4112 ആവശ്യമല്ലേ	0.0358
-4.4112 ആവശ്യമാണ്	0.0358
-4.4112 ആവശ്യമായ	-0.0576
-4.1101 ആവശ്യമില്ല	-0.1824
-4.4112 ആവശ്യമുണ്ടോ	0.0358
-4.4112 ആവശ്യമുണ്ട്	0.0358
-3.9340 ആവില്ല	-0.2594
-4.4112 ആവുന്നത്ര	-0.0576
-4.4112 ആവേശമാണ്	0.0358
-4.4112 ആവർത്തിച്ച്‌	-0.0575
-4.1101 ആശംസിക്കുന്നു	-0.1824
-4.4112 ആശയം	-0.0576
-4.4112 ആശയക്കുഴപ്പങ്ങൾ	0.0358
-4.4112 ആശയമോ	0.0358
-3.8090 ആശയവിനിമയം	0.0364
-4.4112 ആശാവഹമല്ല	0.0358
-4.4112 ആശീര്‍വദിക്കാൻ	-0.0576
-4.4112 ആശീര്‍വ്വാദം	-0.0577
-4.4112 ആശ്ചര്യപ്പെടുകയാണ്	0.0358
-4.4112 ആശ്വാസം	-0.0576
-4.4112 ആസന്നമാവുന്നു	-0.0577
-4.4112 ആസമയം	0.0358
-4.4112 ആസാമികളുടെ	-0.0576
-4.4112 ആസുത്രണം	-0.0573
-4.4112 ആസ്വദിച്ചോ	0.0358
-4.1101 ആസ്വദിച്ചോളു	-0.1824
-4.4112 ആഹാരം	-0.0577
-3.4569 ആഹ്	-0.0765
-4.1101 ആൻഡ്‌	-0.0576
-4.4112 ആർക്കറിയാം	-0.0569
-4.4112 ആർക്കാണ്	-0.0574
-4.1101 ആർക്കും	-0.0575
-4.4112 ആർക്കൊക്കെ	-0.0573
-4.4112 ഇ	-0.0575
-3.9340 ഇംഗ്ലീഷിലെന്താണ്	-0.3529
-4.4112 ഇംഗ്ലീഷിൽ	-0.0576
-4.1101 ഇംഗ്ലീഷ്	0.0408
-4.4112 ഇക്കാര്യം	-0.0575
-4.4112 ഇക്കൊല്ലം	-0.0542
-3.4569 ഇങ്ങനെ	-0.0566
-4.4112 ഇങ്ങനെത്തെ	-0.0577
-4.1101 ഇങ്ങനെയാണ്	-0.0575
-4.4112 ഇങ്ങനെയായാൽ	-0.0576
-4.4112 ഇങ്ങനെയുള്ള	-0.0577
-4.4112 ഇങ്ങനെയെല്ലാം	-0.0577
-4.1101 ഇങ്ങനെയൊക്കെ	-0.0573
-3.9340 ഇങ്ങനെയൊന്നും	-0.0576
-4.1101 ഇങ്ങനെയൊരു	-0.0576
-4.4112 ഇങ്ങുതരൂ	0.0358
-4.4112 ഇങ്ങോട്ടയച്ചതാണ്	0.0358
-4.4112 ഇങ്ങോട്ടും	-0.0574
-3.4569 ഇങ്ങോട്ട്	0.0366
-4.4112 ഇഞ്ചിയും	-0.0577
-4.4112 ഇടക്കൊക്കെ	-0.0577
-4.4112 ഇടതു	-0.0576
-4.4112 ഇടതുഭാഗത്ത്	-0.0577
-4.4112 ഇടതുവശം	-0.0577
-4.4112 ഇടത്തും	-0.0576
-4.4112 ഇടത്തേക്ക്	0.0358
-4.4112 ഇടത്തോട്ട്	-0.0576
-4.4112 ഇടയിൽ	-0.0576
-4.4112 ഇടാറുണ്ട്	0.0358
-4.4112 ഇടാൻ	-0.0576
-4.4112 ഇടു	0.0358
-4.4112 ഇടുപ്പളവ്‌	-0.0577
-4.1101 ഇട്	-0.1824
-4.4112 ഇട്ടത്	0.0358
-4.4112 ഇട്ടിട്ടില്ലല്ലോ	0.0358
-4.4112 ഇട്ടിട്ട്	-0.0577
-4.4112 ഇട്ടോ	0.0358
-4.4112 ഇട്ട്	-0.0577
-4.4112 ഇണങ്ങിച്ചെരുന്നത്	-0.0577
-4.4112 ഇതദ്ദേഹത്തിന്	-0.0576
-4.4112 ഇതധികം	-0.0577
-4.4112 ഇതറിയാന്‍	-0.0577
-4.1101 ഇതല്ല	0.0383
-4.4112 ഇതല്ലേ	-0.0566
-4.4112 ഇതവസാന	-0.0577
-3.2650 ഇതാ	0.0220
-4.4112 ഇതാണത്	0.0358
-4.4112 ഇതാണവളുടെ	-0.0577
-4.4112 ഇതാണോ	-0.0566
-3.3319 ഇതാണ്	-0.0141
-4.4112 ഇതാരാണ്	0.0358
-4.1101 ഇതാരുടെ	-0.0576
-4.4112 ഇതി	-0.0576
-4.4112 ഇതിനപ്പറ്റി	-0.0577
-3.8090 ഇതിനു	-0.0568
-4.1101 ഇതിനുമുമ്പ്	-0.0565
-4.4112 ഇതിനുള്ളില്‍	-0.0572
-3.9340 ഇതിനെ	-0.0576
-4.4112 ഇതിനെന്റെ	0.0358
-4.4112 ഇതിനൊരു	-0.0577
-3.5660 ഇതിന്	0.0404
-3.6329 ഇതിന്‍റെ	-0.0253
-4.4112 ഇതിപ്പോ	-0.0575
-4.4112 ഇതിലിടുന്നത്	0.0358
-4.4112 ഇതിലുണ്ടാവൂ	0.0358
-4.4112 ഇതിലുണ്ട്	0.0358
-3.8090 ഇതില്‍	-0.0576
-4.4112 ഇതിവിടെ	-0.0577
-4.4112 ഇതു	-0.0576
-4.1101 ഇതും	-0.0573
-4.4112 ഇതുകൊണ്ട്	-0.0574
-4.4112 ഇതുനോക്ക്	-0.0576
-4.4112 ഇതുപയോഗിച്ചിരുന്നു	0.0358
-4.4112 ഇതുപോലെ	-0.0577
-4.4112 ഇതുപോലെയുള്ള	-0.0577
-4.4112 ഇതുപോലൊരു	-0.0577
-4.4112 ഇതുമായി	-0.0574
-3.7121 ഇതുവരെ	-0.0572
-4.4112 ഇതുവരെയില്ല	0.0358
-4.1101 ഇതുവരെയും	-0.0573
-4.4112 ഇതുവഴി	-0.0574
-4.4112 ഇതെങ്ങനെയാണ്	-0.0576
-4.4112 ഇതെങ്ങനെയുണ്ട്	0.0358
-4.4112 ഇതെടുത്തോളു	-0.0577
-4.4112 ഇതെനിക്കുള്ള	-0.0576
-4.4112 ഇതെനിക്ക്	-0.0577
-4.4112 ഇതെന്താ	-0.0577
-3.9340 ഇതെന്താണ്	-0.0968
-3.3697 ഇതെന്‍റെ	-0.0690
-4.4112 ഇതെല്ലം	-0.0555
-3.6329 ഇതെല്ലാം	-0.0533
-3.8090 ഇതൊക്കെ	-0.0576
-4.1101 ഇതൊന്നും	0.0366
-3.6329 ഇതൊരു	-0.0576
-4.4112 ഇതോടെ	-0.0577
-2.2840 ഇത്	0.0048
-4.4112 ഇത്തരം	-0.0576
-4.1101 ഇത്തവണ	-0.0536
-4.4112 ഇത്തവണയും	-0.0576
-3.9340 ഇത്തിരി	-0.0574
-3.9340 ഇത്ര	-0.0574
-3.9340 ഇത്രയും	-0.0575
-4.4112 ഇത്രയ്ക്	-0.0577
-3.7121 ഇത്രെയും	-0.2096
-4.4112 ഇത്രേ	-0.0577
-4.4112 ഇദ്ദേഹം	-0.0576
-3.1323 ഇനി	0.0490
-4.4112 ഇനിയവ	-0.0577
-4.4112 ഇനിയാരാണെന്നെ	-0.0574
-4.4112 ഇനിയിങ്ങോട്ട്	-0.0576
-3.7121 ഇനിയും	0.0387
-4.4112 ഇനിയെനിക്ക്	-0.0577
-4.4112 ഇനിയെന്താണ്	-0.0576
-4.4112 ഇനിയെന്തെങ്കിലും	0.0358
-4.4112 ഇനിയെന്നാണ്	-0.0573
-4.4112 ഇനിയെന്‍റെ	-0.0573
-4.4112 ഇനിയെല്ലാം	-0.0564
-4.4112 ഇനിയൊന്നുമില്ല	0.0358
-4.4112 ഇനിയൊരിക്കലും	-0.0574
-4.4112 ഇനിഷ്യൽ	0.0358
-4.4112 ഇന്ക്യുബറ്റ്	-0.0577
-3.6329 ഇന്ത്യ	-0.1467
-4.4112 ഇന്ത്യകാരുടേതാണോ	-0.0575
-4.4112 ഇന്ത്യക്കാരനാണോ	0.0358
-4.4112 ഇന്ത്യക്കാരനും	0.0358
-4.4112 ഇന്ത്യക്കാരാണ്	0.0358
-4.4112 ഇന്ത്യക്കാർ	-0.0576
-4.4112 ഇന്ത്യക്ക്	-0.0573
-4.4112 ഇന്ത്യഗേറ്റാണല്ലേ	-0.0576
-4.1101 ഇന്ത്യനാണ്	-0.0576
-4.4112 ഇന്ത്യയിലും	-0.0577
-4.4112 ഇന്ത്യയിലുമുണ്ടോ	0.0358
-4.4112 ഇന്ത്യയിലുമുണ്ട്	0.0358
-4.4112 ഇന്ത്യയിലേക്കുള്ള	-0.0575
-3.8090 ഇന്ത്യയിലേക്ക്	0.0363
-3.4569 ഇന്ത്യയിൽ	-0.1830
-4.1101 ഇന്ത്യയുടെ	-0.0576
-3.8090 ഇന്ത്യൻ	0.0365
-4.4112 ഇന്ധന	-0.0577
-3.6329 ഇന്ധനം	-0.0253
-4.4112 ഇന്ധനമോ	0.0358
-4.1101 ഇന്നത്തെ	-0.0574
-4.4112 ഇന്നലെ	-0.0553
-4.4112 ഇന്നിത്ര	-0.0576
-4.4112 ഇന്നും	-0.0567
-4.4112 ഇന്നുമാത്രമാണ്	0.0358
-4.4112 ഇന്നുമുതൽ	-0.0514
-4.4112 ഇന്നെന്റെ	-0.0577
-3.1806 ഇന്ന്	-0.0857
-4.4112 ഇന്‍സ്പെക്ടറുടെ	-0.0577
-4.4112 ഇന്‍സ്പെക്ടറെ	-0.0577
-3.8090 ഇന്‍സ്പെക്റ്റര്‍	-0.1509
-2.7579 ഇപ്പോൾ	0.0036
-4.1101 ഇപ്പൊ	-0.0575
-4.4112 ഇപ്പോളദ്ദേഹത്തിന്റെ	-0.0576
-4.4112 ഇപ്പോളാകും	0.0358
-4.1101 ഇപ്പോളും	-0.0567
-4.4112 ഇപ്പോളെന്തിനാണ്	-0.0573
-4.4112 ഇപ്പോഴിവിടെ	-0.0577
-3.5660 ഇപ്പോഴും	0.0427
-4.4112 ഇമെയിൽ	-0.0575
-4.4112 ഇമ്രാൻഹാഷ്മിയുടെ	-0.0577
-4.4112 ഇരിക്കു	0.0358
-4.1101 ഇരിക്കുകയാണ്	-0.1824
-4.1101 ഇരിക്കുന്നത്	0.0359
-4.4112 ഇരിക്കുന്നു	-0.0576
-4.4112 ഇരിക്കുമ്പോള്‍	-0.0575
-4.4112 ഇരിക്കൂ	0.0358
-3.6329 ഇരിക്ക്	-0.1387
-4.4112 ഇരുട്ടത്ത്	-0.0576
-4.1101 ഇരുട്ടാണ്‌	0.0359
-4.1101 ഇരുട്ടില്‍	-0.0576
-4.4112 ഇരുട്ടും	0.0358
-4.4112 ഇരുട്ടുമുറിയില്‍	0.0358
-4.4112 ഇരുട്ട്	0.0358
-4.4112 ഇരുനൂറു	-0.0576
-4.4112 ഇരുന്നിരുന്നു	0.0358
-4.4112 ഇരുന്ന്	-0.0575
-4.4112 ഇരുപതടി	-0.0576
-4.4112 ഇരുപതാം	-0.0577
-4.4112 ഇറക്കം	-0.0576
-4.4112 ഇറക്കണം	0.0358
-4.4112 ഇറക്കാം	0.0358
-4.4112 ഇറക്കിട്ട്	0.0358
-4.4112 ഇറക്കും	-0.0576
-4.4112 ഇറക്കുന്ന	-0.0577
-4.4112 ഇറങ്ങാം	0.0358
-4.4112 ഇറങ്ങിപോയി	0.0358
-4.4112 ഇറങ്ങിയ	-0.0576
-4.4112 ഇറങ്ങുന്നത്	-0.0567
-4.4112 ഇറങ്ങേണ്ടത്	-0.0577
-4.4112 ഇറച്ചികൊണ്ടുളള	-0.0574
-4.4112 ഇറ്റാലിയനാണ്	0.0358
-3.7121 ഇറ്റാലിയൻ	-0.1320
-4.4112 ഇലക്ട്രിക്കൽ	-0.0577
-2.8313 ഇല്ല	-0.1206
-4.1101 ഇല്ലല്ലോ	0.0359
-3.5080 ഇല്ലാ	-0.1557
-4.4112 ഇല്ലാതാകും	0.0358
-4.4112 ഇല്ലാതാക്കിയാല്‍	-0.0577
-4.4112 ഇല്ലാതായി	0.0358
-4.4112 ഇല്ലാതിരിക്കുമ്പോള്‍	0.0358
-4.4112 ഇല്ലാതെ	-0.0576
-3.9340 ഇല്ലായിരുന്നു	-0.2594
-4.4112 ഇല്ലായിരുന്നെങ്കില്‍	-0.0553
-4.4112 ഇല്ലില്ല	0.0358
-4.4112 ഇല്ലെങ്കിലും	0.0358
-4.4112 ഇല്ലെന്നു	-0.0575
-4.4112 ഇല്ലെന്ന്	0.0358
-3.9340 ഇല്ലേ	-0.0959
-4.4112 ഇളകാതെ	-0.0576
-4.4112 ഇളക്കി	-0.0577
-4.4112 ഇളക്കുകയായിരുന്നു	0.0358
-4.1101 ഇവ	-0.0574
-4.4112 ഇവനാകെ	-0.0577
-4.4112 ഇവനാണവന്‍	0.0358
-4.4112 ഇവനിങ്ങ്	0.0358
-4.4112 ഇവനും	-0.0577
-4.1101 ഇവനെ	-0.0576
-4.4112 ഇവനെന്തായിരിക്കും	-0.0577
-4.4112 ഇവനെന്തൊക്കെ	-0.0575
-3.9340 ഇവന്‍	-0.1856
-4.4112 ഇവരുടെ	-0.0576
-4.4112 ഇവരൊക്കെ	-0.0575
-4.4112 ഇവരൊക്കെയാണോ	-0.0568
-4.1101 ഇവരോട്	-0.0576
-4.4112 ഇവര്‍	-0.0574
-4.4112 ഇവര്‍ക്കിവിടെ	-0.0574
-4.4112 ഇവളുടെ	-0.0576
-4.1101 ഇവള്‍	0.0371
-3.9340 ഇവിടം	-0.0575
-3.9340 ഇവിടത്തെ	-0.0572
-4.4112 ഇവിടന്നു	-0.0577
-4.4112 ഇവിടുത്തെ	-0.0564
-3.7121 ഇവിടുന്ന്	-0.1158
-2.5982 ഇവിടെ	-0.0068
-4.4112 ഇവിടെതന്നെയുണ്ടാവും	-0.0575
-3.8090 ഇവിടെത്തന്നെ	-0.0576
-4.4112 ഇവിടെത്തന്നെയുണ്ട്	0.0358
-4.1101 ഇവിടെനിന്നാണ്	0.0402
-4.4112 ഇവിടെനിന്നും	-0.0576
-4.4112 ഇവിടെനിന്ന്	-0.0577
-4.4112 ഇവിടെന്നൊരു	-0.0575
-4.1101 ഇവിടെയാണ്‌	0.0360
-3.8090 ഇവിടെയുണ്ട്	-0.1639
-4.4112 ഇവിടെയുള്ളത്	0.0358
-4.4112 ഇവിടെയെങ്ങും	-0.0577
-4.4112 ഇവിടെയെത്തിച്ചത്	0.0358
-4.4112 ഇഷ്ട	-0.0577
-4.4112 ഇഷ്ടം	-0.0574
-4.4112 ഇഷ്ടങ്ങള്‍	-0.0577
-4.4112 ഇഷ്ടത്തിലാണ്	0.0358
-4.4112 ഇഷ്ടത്തോടെ	0.0358
-4.4112 ഇഷ്ടപെടാത്ത	0.0358
-4.1101 ഇഷ്ടപെട്ട	0.0360
-4.4112 ഇഷ്ടപെട്ടില്ലാ	-0.0575
-4.4112 ഇഷ്ടപ്പെടാത്തത്	0.0358
-4.4112 ഇഷ്ടപ്പെടുന്ന	-0.0537
-4.4112 ഇഷ്ടപ്പെടുന്നതു	-0.0577
-4.4112 ഇഷ്ടപ്പെടുന്നില്ല	0.0358
-4.4112 ഇഷ്ടപ്പെടുന്നില്ലെന്ന്	-0.0575
-4.4112 ഇഷ്ടമല്ല	0.0358
-4.4112 ഇഷ്ടമല്ലല്ലോ	-0.0575
-4.4112 ഇഷ്ടമല്ലാ	0.0358
-4.4112 ഇഷ്ടമല്ലേ	0.0358
-4.4112 ഇഷ്ടമാണെങ്കിൽ	0.0358
-4.4112 ഇഷ്ടമാണെന്ന്	-0.0555
-4.4112 ഇഷ്ടമാണോ	0.0358
-3.2350 ഇഷ്ടമാണ്	-0.6897
-4.4112 ഇഷ്ടമായത്	0.0358
-4.4112 ഇഷ്ടമായന്നോ	-0.0576
-3.7121 ഇഷ്ടമായി	-0.1947
-3.8090 ഇഷ്ടമായിട്ടില്ലാ	-0.2785
-4.4112 ഇഷ്ടമായിരുന്നു	0.0358
-4.4112 ഇഷ്ടമായിരുന്നെന്ന്	0.0358
-4.4112 ഇഷ്ടമായില്ല	0.0358
-4.4112 ഇഷ്ടമായില്ലേ	0.0358
-4.4112 ഇഷ്ടമായെന്നറിഞ്ഞപ്പോള്‍	0.0358
-4.4112 ഇഷ്ടമായോ	0.0358
-4.4112 ഇഷ്ടമുള്ളത്	-0.0575
-3.4111 ഇസബെല്‍	-0.2197
-4.4112 ഇൻ	-0.0576
-4.4112 ഇൻവെർട്ടറിലാണ്	-0.0577
-2.3983 ഈ	-0.0847
-4.4112 ഈടാക്കിക്കോളു	0.0358
-3.6329 ഈഫൽ	-0.1806
-4.4112 ഈയാളുകൾ	-0.0569
-3.8090 ഈവനിങ്ങ്	-0.1523
-3.5080 ഉം	-0.0518
-4.4112 ഉച്ചയ്ക്	-0.0576
-4.4112 ഉച്ഛ്വാസവായുവും	-0.0577
-4.4112 ഉടനീളം	-0.0576
-4.1101 ഉടനെ	0.0368
-4.4112 ഉണരാനുള്ള	-0.0574
-4.4112 ഉണര്	0.0358
-4.1101 ഉണ്ടല്ലോ	-0.1824
-4.4112 ഉണ്ടവിടെ	0.0358
-4.4112 ഉണ്ടാകില്ല	0.0358
-4.4112 ഉണ്ടാകുന്നൊരു	-0.0577
-4.4112 ഉണ്ടാകുമെന്ന്	-0.0566
-4.4112 ഉണ്ടാകുമോ	0.0358
-4.1101 ഉണ്ടാക്കാനും	0.0359
-3.8090 ഉണ്ടാക്കാൻ	-0.1530
-4.1101 ഉണ്ടാക്കി	-0.1824
-4.4112 ഉണ്ടാക്കികൂടെ	0.0358
-4.1101 ഉണ്ടാക്കിയ	-0.0537
-4.4112 ഉണ്ടാക്കിയതാകണം	0.0358
-4.4112 ഉണ്ടാക്കിയതാണോ	0.0358
-4.1101 ഉണ്ടാക്കിയതാണ്	-0.1824
-4.4112 ഉണ്ടാക്കിയത്	0.0358
-4.4112 ഉണ്ടാക്കിയപ്പോള്‍	0.0358
-4.4112 ഉണ്ടാക്കുക	0.0358
-4.1101 ഉണ്ടാക്കുന്നത്	-0.1824
-4.4112 ഉണ്ടാക്കുന്നു	0.0358
-4.4112 ഉണ്ടായതല്ലേ	0.0358
-4.4112 ഉണ്ടായതാകണം	0.0358
-4.4112 ഉണ്ടായതാണ്	0.0358
-4.1101 ഉണ്ടായി	-0.1824
-4.4112 ഉണ്ടായിട്ടുള്ളൂ	0.0358
-4.4112 ഉണ്ടായിരുന്ന	0.0358
-4.4112 ഉണ്ടായിരുന്നത്	-0.0577
-3.5660 ഉണ്ടായിരുന്നു	-0.2861
-4.4112 ഉണ്ടായിരുന്നുഅവിടെ	-0.0514
-4.4112 ഉണ്ടായിരുന്നോ	0.0358
-4.4112 ഉണ്ടാവണമെന്നില്ല	0.0358
-4.4112 ഉണ്ടാവാൻ	-0.0577
-4.4112 ഉണ്ടാവില്ല	0.0358
-4.4112 ഉണ്ടാവില്ലായിരിക്കും	-0.0573
-4.4112 ഉണ്ടാവുക	0.0358
-4.4112 ഉണ്ടാവുമ്പോൾ	0.0358
-4.1101 ഉണ്ടെന്ന്	-0.0574
-4.1101 ഉണ്ടോ	-0.1824
-4.4112 ഉണ്ടോന്ന്	-0.0577
-3.1101 ഉണ്ട്	-0.4340
-3.7121 ഉത്തരം	-0.0575
-4.4112 ഉത്തരവാദിത്തങ്ങൾ	-0.0575
-4.4112 ഉത്തരവാദിത്തമുണ്ട്	0.0358
-4.4112 ഉത്തേജിപ്പിക്കും	0.0358
-4.4112 ഉത്സാഹിച്ചു	-0.0577
-4.4112 ഉദിക്കട്ടെ	0.0358
-4.4112 ഉദിച്ചു	0.0358
-4.4112 ഉദ്ദേശം	-0.0576
-4.1101 ഉദ്ദേശിക്കുന്നത്	-0.0571
-4.4112 ഉദ്ദേശിക്കുന്നില്ല	0.0358
-4.4112 ഉദ്ദേശിക്കുന്നു	0.0358
-3.7121 ഉദ്ദേശിച്ചത്	-0.1155
-4.1101 ഉദ്ദേശിച്ചില്ല	-0.1824
-4.4112 ഉപകരണം	-0.0576
-4.4112 ഉപകരണങ്ങൾ	-0.0577
-4.4112 ഉപകരണമോ	-0.0575
-4.4112 ഉപകാരപ്പെടില്ല	0.0358
-4.4112 ഉപകാരപ്പെടും	0.0358
-4.4112 ഉപകാരപ്രദമാണ്	0.0358
-4.4112 ഉപഗ്രഹങ്ങള്‍	-0.0576
-4.4112 ഉപദേഷ്ടാവ്	-0.0577
-4.4112 ഉപയോഗിക്കാം	0.0358
-4.4112 ഉപയോഗിക്കും	0.0358
-4.4112 ഉപയോഗിക്കുംബോളുള്ള	-0.0577
-4.4112 ഉപയോഗിച്ച്	0.0358
-4.4112 ഉപയോഗം	-0.0577
-4.4112 ഉപയോഗമുള്ളത്	-0.0574
-3.9340 ഉപയോഗശൂന്യമായ	-0.1903
-4.4112 ഉപയോഗിക്കട്ടേ	0.0358
-4.1101 ഉപയോഗിക്കാം	0.0365
-4.4112 ഉപയോഗിക്കാതിരുന്നത്	0.0358
-4.4112 ഉപയോഗിക്കാനും	-0.0577
-4.1101 ഉപയോഗിക്കുന്നത്	-0.1824
-4.4112 ഉപയോഗിച്ചതു	-0.0577
-4.4112 ഉപയോഗിച്ചത്	-0.0577
-4.4112 ഉപയോഗിച്ചാണത്	-0.0576
-4.4112 ഉപയോഗിച്ചാണ്	-0.0559
-4.1101 ഉപയോഗിച്ചു	-0.1824
-3.8090 ഉപയോഗിച്ച്	-0.0595
-4.1101 ഉപരി	0.0359
-4.4112 ഉപേക്ഷിക്കപ്പെട്ട	-0.0577
-4.4112 ഉപേക്ഷിക്കാം	0.0358
-4.1101 ഉപേക്ഷിക്കാൻ	0.0359
-4.4112 ഉപേക്ഷിക്കുക	-0.0576
-4.4112 ഉപേക്ഷിക്കേണ്ടി	-0.0574
-4.4112 ഉപേക്ഷിച്ചാൽ	-0.0576
-4.1101 ഉപേക്ഷിച്ചു	-0.0575
-4.4112 ഉപേക്ഷിച്ചുപോകുമോ	0.0358
-4.4112 ഉപേക്ഷിച്ച്	-0.0576
-4.4112 ഉപ്പിട്ട	-0.0577
-4.4112 ഉപ്പും	0.0358
-4.4112 ഉപ്പ്	-0.0577
-4.1101 ഉയരുന്നു	0.0361
-4.4112 ഉയിര്‍ത്തെഴുന്നേല്‍പ്പ്	0.0358
-4.4112 ഉയർത്തി	0.0358
-4.4112 ഉയർത്തുന്നു	0.0358
-4.4112 ഉയർന്ന	-0.0577
-4.4112 ഉരുക്കി	-0.0577
-4.1101 ഉരുളക്കിഴങ്ങ്	0.0359
-4.4112 ഉറക്കത്തിലായിരുന്നു	0.0358
-4.4112 ഉറക്കത്തിലേയ്ക്	-0.0576
-4.4112 ഉറക്കമായിരിക്കും	0.0358
-3.9340 ഉറക്കെ	0.0359
-4.4112 ഉറങ്ങാൻ	-0.0575
-4.4112 ഉറങ്ങിക്കോ	0.0358
-4.4112 ഉറങ്ങിപ്പോയി	0.0358
-4.4112 ഉറങ്ങിയില്ല	0.0358
-4.4112 ഉറങ്ങ്‌	0.0358
-3.8090 ഉറപ്പല്ലേ	-0.2785
-3.9340 ഉറപ്പാണോ	-0.0940
-4.1101 ഉറപ്പായിട്ടും	-0.0514
-4.4112 ഉറപ്പിക്കരുത്	-0.0575
-4.4112 ഉറപ്പിക്കാന്‍	-0.0567
-4.4112 ഉറപ്പുണ്ടോ	0.0358
-4.1101 ഉറപ്പുണ്ട്	-0.1824
-4.1101 ഉറപ്പുതരാം	-0.1824
-4.4112 ഉറപ്പുള്ളതാണ്	0.0358
-4.4112 ഉറപ്പുവരുത്തും	-0.0576
-4.4112 ഉറപ്പോ	0.0358
-3.8090 ഉറപ്പ്	-0.0587
-4.1101 ഉള്ള	-0.0576
-3.9340 ഉള്ളത്	-0.0955
-4.4112 ഉള്ളിലേയ്ക്	-0.0576
-4.1101 ഉള്ളില്‍	-0.0575
-4.4112 ഉള്ളു	0.0358
-3.9340 ഉവ്വ്	0.0360
-4.1101 ഉൾപ്പെടെ	-0.1824
-4.4112 ഊ	0.0358
-4.4112 ഊര്‍ജ്ജം	0.0358
-4.4112 ഊര്‍ജ്ജതന്ത്രജ്ഞനാണ്	0.0358
-4.4112 ഊഴമാണ്	0.0358
-4.4112 ഊഹ്	-0.0574
-4.1101 എ	0.0359
-4.4112 എക്കാലത്തേക്കാളും	-0.0575
-4.4112 എക്സ്മൈറ്റ്സ്	0.0358
-3.7121 എങ്കിലും	-0.0560
-3.8090 എങ്കില്‍	-0.0559
-4.4112 എങ്ങനിരുന്നു	0.0358
-2.9639 എങ്ങനെ	-0.0607
-4.4112 എങ്ങനെയാ	-0.0553
-3.9340 എങ്ങനെയാണ്	0.0369
-3.9340 എങ്ങനെയായിരിക്കും	-0.2594
-4.4112 എങ്ങനെയും	-0.0577
-4.4112 എങ്ങനെയെങ്കിലും	0.0358
-4.4112 എങ്ങനെയെന്നത്	0.0358
-4.4112 എങ്ങാണ്ടൊരിടത്ത്	0.0358
-4.4112 എങ്ങും	-0.0576
-4.4112 എങ്ങെനെ	-0.0577
-3.9340 എങ്ങോട്ടാണ്	0.0359
-4.4112 എങ്ങോട്ടും	-0.0577
-4.4112 എങ്ങോട്ടെങ്കിലും	-0.0576
-4.4112 എങ്ങോട്ട്	-0.0575
-4.4112 എച്ച്	-0.0577
-4.4112 എഞ്ചിനിൽ	-0.0576
-4.4112 എഞ്ചിനീയര്‍മാരെ	-0.0576
-4.4112 എഞ്ചിനീയറിംഗ്	-0.0572
-4.4112 എഞ്ചിനീയറും	-0.0577
-4.4112 എഞ്ചിനീയർ	-0.0577
-4.4112 എഞ്ചിൻ	-0.0577
-4.4112 എടാ	0.0358
-3.9340 എടീ	-0.0573
-4.4112 എടുക്കാംഡ്രാഗണിനെ	-0.0576
-4.4112 എടുക്കു	0.0358
-4.4112 എടുക്കും	0.0358
-4.4112 എടുക്കുക	0.0358
-4.4112 എടുക്കുകയും	-0.0574
-4.4112 എടുക്കുന്നതെന്തിനാണ്	0.0358
-4.1101 എടുക്കുന്നു	0.0359
-4.4112 എടുക്കുന്നുള്ളൂ	0.0358
-4.4112 എടുക്കുന്നോ	-0.0575
-4.4112 എടുക്കുമെന്നാണ്	0.0358
-4.4112 എടുക്കെടി	0.0358
-3.9340 എടുക്ക്	-0.2594
-4.4112 എടുത്ത	-0.0577
-4.4112 എടുത്തതാണ്	0.0358
-4.4112 എടുത്താലോ	-0.0577
-4.4112 എടുത്താല്‍	-0.0575
-4.4112 എടുത്തിട്ട്	-0.0576
-4.4112 എടുത്തില്ലേ	0.0358
-4.4112 എടുത്തുചാട്ടം	-0.0575
-4.1101 എടുത്തോ	0.0362
-4.4112 എടുത്തോണ്ട്	-0.0575
-4.4112 എടുത്തോളുഇത്	-0.0553
-4.1101 എടുത്ത്	0.0360
-4.1101 എടോ	-0.0576
-4.4112 എട്ടു	-0.0574
-4.1101 എട്ട്	0.0359
-4.4112 എഡമണ്ടിന്റെ	-0.0577
-4.4112 എഡമണ്ട്സിനെക്കുറിച്ച്	-0.0573
-4.1101 എഡമണ്ട്സ്	-0.0540
-4.4112 എഡ്മംഡ്സും	0.0358
-4.4112 എഡ്മംഡ്സ്	-0.0576
-3.7121 എഡ്മണ്ടിന്റെ	-0.2097
-4.4112 എഡ്മണ്ടിന്റേതാണ്	-0.0576
-4.4112 എഡ്മണ്ടുമായി	-0.0577
-4.1101 എണീക്ക്	0.0362
-4.1101 എണ്ണം	-0.0574
-4.4112 എണ്ണക്ക്	-0.0577
-4.4112 എണ്ണമുണ്ട്	-0.0576
-4.4112 എണ്ണി	0.0358
-4.4112 എതിർപ്പ്	-0.0573
-4.1101 എത്തണം	0.0359
-3.9340 എത്താൻ	-0.0575
-3.7121 എത്തി	-0.1160
-4.4112 എത്തിക്കാൻ	-0.0577
-4.4112 എത്തിക്കുന്നതിനായിരുന്നു	0.0358
-4.4112 എത്തിക്കുമെന്നുള്ള	-0.0576
-4.4112 എത്തിക്കൂ	0.0358
-4.4112 എത്തിച്ചിരിക്കുന്നു	0.0358
-4.1101 എത്തിച്ചു	-0.1824
-4.4112 എത്തിച്ചേർന്നു	-0.0571
-4.4112 എത്തിച്ച്	-0.0576
-4.4112 എത്തിയതുപോലെ	0.0358
-4.4112 എത്തിയത്	0.0358
-4.4112 എത്തിയില്ലേ	0.0358
-4.4112 എത്തിയെന്ന്	0.0358
-4.4112 എത്തിയേക്കാം	0.0358
-4.4112 എത്തിയ്ത്	0.0358
-4.1101 എത്തില്ലായിരുന്നു	-0.1824
-3.5660 എത്ര	-0.0570
-3.7121 എത്രത്തോളം	-0.0572
-4.4112 എത്രയാ	-0.0576
-4.1101 എത്രയാണ്	0.0365
-4.4112 എത്രയിലാണ്	-0.0577
-3.8090 എത്രെ	-0.1530
-4.1101 എനിക്കതറിയാം	0.0365
-4.1101 എനിക്കതിനെ	-0.0576
-4.4112 എനിക്കതിന്	-0.0576
-4.4112 എനിക്കതിന്റെ	-0.0577
-3.5080 എനിക്കത്	-0.0566
-4.4112 എനിക്കത്ര	0.0358
-4.1101 എനിക്കറിയണം	-0.1824
-3.2350 എനിക്കറിയാം	-0.0752
-3.9340 എനിക്കറിയാമായിരുന്നു	-0.0969
-3.6329 എനിക്കറിയില്ല	-0.0159
-4.4112 എനിക്കറിയില്ലായിരുന്നു	-0.0542
-4.4112 എനിക്കറിയേണ്ടത്	0.0358
-4.1101 എനിക്കവനെ	-0.0576
-4.1101 എനിക്കവളെ	0.0361
-4.4112 എനിക്കവിടെ	-0.0576
-4.4112 എനിക്കാകുമെന്നാണ്	-0.0576
-4.4112 എനിക്കാണുയരം	-0.0575
-4.4112 എനിക്കാണെന്ന്	-0.0575
-4.4112 എനിക്കായി	-0.0577
-4.4112 എനിക്കാവുമ്പോഴൊക്കെ	-0.0514
-4.4112 എനിക്കിതു	-0.0573
-4.4112 എനിക്കിതുവരെ	-0.0559
-3.8090 എനിക്കിത്	-0.0572
-4.4112 എനിക്കിപോൾ	-0.0577
-4.4112 എനിക്കിപ്പം	-0.0575
-4.4112 എനിക്കിപ്പഴേ	-0.0537
-4.1101 എനിക്കിപ്പോള്‍	-0.0524
-4.4112 എനിക്കിപ്പോൾ	-0.0574
-4.4112 എനിക്കിഷ്ടമാണ്	0.0358
-4.4112 എനിക്കിഷ്ടമായി	0.0358
-4.4112 എനിക്കിഷ്ട്ടായി	-0.0570
-4.4112 എനിക്കീ	-0.0577
-3.4569 എനിക്കു	-0.0967
-3.8090 എനിക്കും	0.0364
-4.1101 എനിക്കുമറിയാം	0.0359
-4.4112 എനിക്കുമിത്	-0.0576
-4.4112 എനിക്കുറപ്പാണ്	-0.0572
-4.4112 എനിക്കെത്രെ	-0.0577
-4.1101 എനിക്കെന്താണ്	-0.0573
-3.7121 എനിക്കെന്റെ	-0.1320
-4.1101 എനിക്കെന്‍റെ	-0.0576
-4.4112 എനിക്കെപ്പോളാണ്	-0.0575
-4.4112 എനിക്കൊന്നും	-0.0576
-4.4112 എനിക്കൊന്നേ	-0.0577
-3.4111 എനിക്കൊരു	-0.0566
-2.1963 എനിക്ക്	-0.0158
-3.2070 എന്താ	0.0225
-4.4112 എന്താണതിന്‍റെ	-0.0576
-4.4112 എന്താണതെന്ന്	-0.0574
-4.1101 എന്താണത്	0.0361
-4.4112 എന്താണന്ന്	-0.0576
-4.4112 എന്താണവിടെ	-0.0576
-4.4112 എന്താണാ	-0.0577
-4.1101 എന്താണിതിന്റെ	-0.0576
-4.4112 എന്താണിത്	0.0358
-3.9340 എന്താണിത്ര	-0.0576
-4.4112 എന്താണിപ്പോൾ	-0.0577
-3.8090 എന്താണിവിടെ	-0.0572
-4.4112 എന്താണീ	-0.0577
-4.4112 എന്താണു	0.0358
-4.4112 എന്താണുള്ളത്	0.0358
-4.4112 എന്താണെന്നു	-0.0549
-3.9340 എന്താണെന്ന്	0.0362
-3.0309 എന്താണ്	0.0076
-4.4112 എന്താന്നാൽ	-0.0574
-4.4112 എന്താന്നുവച്ചാൽ	-0.0571
-3.5660 എന്തായാലും	-0.0055
-4.4112 എന്തായി	0.0358
-4.4112 എന്തായിരുന്നു	0.0358
-3.9340 എന്തിനാ	-0.0537
-4.4112 എന്തിനാണവൾ	-0.0569
-4.4112 എന്തിനാണെന്നും	-0.0575
-4.4112 എന്തിനാണെന്ന്	-0.0576
-3.5660 എന്തിനാണ്	-0.0528
-4.4112 എന്തിനു	0.0358
-4.4112 എന്തിനുവേണ്ടി	-0.0569
-4.4112 എന്തിനെയാണെന്ന്	0.0358
-3.5080 എന്തിന്	-0.3166
-3.7121 എന്തു	-0.0572
-4.4112 എന്തും	-0.0575
-4.4112 എന്തുകാര്യം	0.0358
-4.4112 എന്തുകൊണ്ട്	-0.0553
-4.4112 എന്തുകൊണ്ടിത്	-0.0577
-3.5080 എന്തുകൊണ്ട്	-0.0030
-4.4112 എന്തുചെയ്യന്‍	-0.0575
-4.4112 എന്തുചെയ്യും	-0.0569
-4.4112 എന്തുപറയും	0.0358
-4.4112 എന്തുപറയുന്നു	-0.0564
-3.9340 എന്തുപറ്റി	-0.0967
-4.4112 എന്തുപറ്റും	0.0358
-4.4112 എന്തുസംഭവിക്കും	0.0358
-3.2070 എന്തെങ്കിലും	-0.0571
-4.4112 എന്തെങ്കിലുമാവട്ടെ	-0.0577
-4.4112 എന്തെങ്കിലുമൊക്കെ	-0.0575
-4.4112 എന്തെങ്കിലുമൊന്ന്	-0.0577
-4.4112 എന്തെന്നാല്‍	-0.0575
-4.4112 എന്തെല്ലാം	-0.0573
-3.8090 എന്തൊരു	-0.0576
-4.4112 എന്തൊര്	-0.0577
-3.4111 എന്തോ	-0.1161
-3.0494 എന്ത്	-0.0222
-4.1101 എന്ന	0.0359
-4.4112 എന്നതിനാൽ	-0.0577
-4.4112 എന്നതിനെക്കുറിച്ചും	0.0358
-4.4112 എന്നതിലാണ്	-0.0573
-4.1101 എന്നത്	0.0359
-4.4112 എന്നദ്ദേഹം	-0.0576
-4.4112 എന്നപോലെയാണ്	-0.0575
-4.4112 എന്നലറുക	0.0358
-4.4112 എന്നല്ലല്ലോ	0.0358
-4.4112 എന്നല്ലേ	-0.0576
-4.4112 എന്നവരോട്	-0.0576
-3.9340 എന്നാ	0.0362
-4.4112 എന്നാണവളുടെ	-0.0575
-4.4112 എന്നാണു	-0.0576
-4.4112 എന്നാണോ	0.0358
-3.3697 എന്നാണ്	-0.1828
-4.4112 എന്നായിരുന്നു	-0.0564
-4.4112 എന്നാലത്	-0.0577
-4.4112 എന്നാലിതാര്	-0.0577
-3.8090 എന്നാലും	-0.0538
-3.0889 എന്നാല്‍	-0.0024
-4.4112 എന്നാവണ്ടിയിരുന്നു	0.0358
-4.4112 എന്നിട്ടും	-0.0555
-4.4112 എന്നിട്ട്	-0.0555
-4.4112 എന്നു	0.0358
-3.8090 എന്നും	-0.0571
-4.4112 എന്നുമുതലാണ്	-0.0559
-4.1101 എന്നുള്ളതാണ്	-0.1824
-4.4112 എന്നുവിളിച്ചാൽ	-0.0574
-3.0309 എന്നെ	-0.0701
-4.4112 എന്നെങ്കിലും	-0.0537
-4.4112 എന്നെത്തന്നെ	-0.0566
-4.4112 എന്നെപ്പോലെ	-0.0577
-4.4112 എന്നെയല്ല	-0.0577
-4.4112 എന്നെയും	-0.0576
-3.0687 എന്നോട്	-0.0279
-3.9340 എന്നൊക്കെ	-0.0576
-4.4112 എന്നൊന്നില്ലടീ	-0.0576
-4.4112 എന്നൊന്ന്	-0.0570
-4.4112 എന്നോ	0.0358
-4.4112 എന്നോടൊപ്പം	-0.0577
-2.8926 എന്ന്	-0.1035
-4.4112 എന്‍ജിനുകള്‍	-0.0577
-3.8090 എന്‍ജിന്‍	-0.0513
-4.4112 എന്‍ജിന്‍സ്	-0.0514
-2.5360 എന്‍റെ	-0.0027
-4.4112 എന്‍റെകൂടെ	-0.0575
-4.4112 എന്‍റെതാണെന്ന്	-0.0577
-4.4112 എന്‍റെയൊപ്പം	-0.0577
-4.4112 എന്‍റെയൊരു	-0.0577
-4.4112 എപ്പോഴും	0.0358
-4.4112 എപ്പോളുമൊരു	-0.0577
-3.7121 എപ്പോഴും	-0.0388
-4.4112 എപ്പോഴെങ്കിലും	-0.0577
-4.4112 എപ്പോൾ	-0.0576
-4.1101 എയര്‍	-0.0576
-4.4112 എയും	-0.0537
-4.4112 എയർപോർട്ടിൽ	-0.0573
-4.4112 എരിവാണ്	0.0358
-4.4112 എരിവുള്ള	0.0358
-4.4112 എരിവ്	-0.0577
-4.4112 എറുമ്പ്	-0.0576
-4.4112 എലിക്കുഞ്ഞുങ്ങള്‍	-0.0577
-3.5660 എല്ലാ	-0.0576
-3.2070 എല്ലാം	0.0167
-4.4112 എല്ലാത്തിനുമുള്ള	-0.0577
-4.4112 എല്ലാമങ്ങെനെ	-0.0577
-4.4112 എല്ലാമുണ്ട്	0.0358
-4.1101 എല്ലായിടത്തും	-0.0576
-4.4112 എല്ലായിടത്തേക്കും	-0.0577
-4.1101 എല്ലായ്പോഴും	-0.0552
-4.4112 എല്ലായ്പ്പോഴും	0.0358
-4.4112 എല്ലാരും	-0.0577
-3.6329 എല്ലാവരും	-0.0571
-4.4112 എല്ലാവരുമെന്നോട്	-0.0577
-3.8090 എല്ലാവരെയും	-0.0573
-4.4112 എല്ലാവരേയും	-0.0576
-4.4112 എല്ലാവരോടും	-0.0577
-4.4112 എല്ലാവർക്കും	-0.0576
-4.4112 എല്ലാവർക്കുമുള്ള	-0.0577
-4.1101 എല്ലി	-0.2759
-4.4112 എളുപ്പമല്ല	0.0358
-4.4112 എളുപ്പവു	0.0358
-4.4112 എളുപ്പവുമാണ്	-0.0576
-4.4112 എഴുതാനാകും	0.0358
-4.4112 എഴുതി	-0.0577
-4.4112 എഴുതിയിട്ടുണ്ട്	0.0358
-4.4112 എഴുതുകയല്ല	0.0358
-4.4112 എഴുതുമ്പോൾ	0.0358
-4.4112 എഴുന്നേൽക്ക്	0.0358
-4.4112 എവിടുന്നാണ്	-0.0576
-4.4112 എവിടുന്ന്	-0.0575
-3.7121 എവിടെ	-0.1948
-4.1101 എവിടെയാ	-0.0564
-4.4112 എവിടെയാണെന്നാണ്	-0.0577
-3.7121 എവിടെയാണ്	-0.1137
-4.4112 എവിടെയായിരുന്നു	0.0358
-4.1101 എവിടെയും	-0.0576
-4.4112 എവിടെയെങ്കിലും	-0.0577
-4.4112 എവിടേക്കാ	-0.0577
-4.4112 എസ്	-0.0577
-4.1101 എൻജിൻ	-0.2759
-4.4112 ഏക	-0.0574
-3.9340 ഏകത്വം	0.0372
-4.4112 ഏകദേശം	0.0358
-4.4112 ഏതിലൂടെ	-0.0577
-3.9340 ഏതു	-0.1900
-4.4112 ഏതെങ്കിലും	-0.0577
-3.7121 ഏമ്പക്കം	-0.0575
-4.4112 ഏയ്‌	0.0358
-4.4112 ഏറെ	-0.0576
-3.2972 ഏറ്റവും	-0.1445
-4.4112 ഏറ്റു	0.0358
-4.4112 ഏറ്റെടുക്കണം	0.0358
-4.4112 ഏറ്റെടുക്കുക	0.0358
-4.4112 ഏറ്റെടുക്കുകയാണ്	0.0358
-4.4112 ഏറ്റെടുക്കുന്നു	0.0358
-4.4112 ഏറ്റെടുക്കൂ	0.0358
-4.4112 ഏല്‍പ്പിച്ചു	-0.0572
-4.4112 ഏഴിന്	-0.0514
-4.1101 ഏഴു	-0.0575
-4.4112 ഏഴ്	-0.0577
-4.4112 ഏഹ്	0.0358
-4.4112 ഏൻഡുറൻസ്	-0.0576
-4.4112 ഏർപ്പെട്ടകാര്യം	-0.0577
-4.4112 ഏർപ്പെട്ടിരുന്നുവെന്നാണ്	0.0358
-4.1101 ഐ	-0.2759
-3.9340 ഒക്കെ	0.0363
-4.4112 ഒക്കെയാണ്	0.0358
-4.4112 ഒക്സിജെൻ	-0.0577
-4.4112 ഒടുക്കം	-0.0577
-4.4112 ഒട്ടിക്കും	0.0358
-4.4112 ഒത്തിണക്കൂ	0.0358
-4.1101 ഒത്തിരി	-0.0576
-4.4112 ഒന്നാം	-0.0575
-4.4112 ഒന്നാണ്	0.0358
-4.4112 ഒന്നായി	-0.0577
-4.1101 ഒന്നിച്ചിരുന്ന്	-0.0576
-4.4112 ഒന്നിനും	0.0358
-4.4112 ഒന്നിനെ	-0.0577
-4.4112 ഒന്നിരിക്കാമോ	0.0358
-4.4112 ഒന്നിറങ്ങ്	0.0358
-3.8090 ഒന്നു	-0.0574
-3.2350 ഒന്നും	0.0397
-4.1101 ഒന്നുകൂടി	-0.0574
-4.4112 ഒന്നുകൂടെ	-0.0576
-4.4112 ഒന്നുക്കൂടി	-0.0573
-4.4112 ഒന്നുണ്ടാക്കി	-0.0576
-4.1101 ഒന്നുമറിയില്ല	-0.1824
-4.4112 ഒന്നുമറിയില്ലാ	0.0358
-3.9340 ഒന്നുമല്ല	-0.0955
-4.4112 ഒന്നുമിട്ടിട്ടില്ലാ	0.0358
-4.1101 ഒന്നുമില്ല	-0.1824
-4.4112 ഒന്നുമില്ലല്ലോ	0.0358
-4.1101 ഒന്നുമില്ലാ	-0.1824
-4.4112 ഒന്നുമില്ലെന്ന്	0.0358
-4.4112 ഒന്നുമുണ്ടായില്ലല്ലോ	0.0358
-4.4112 ഒന്നൂടെ	-0.0576
-4.4112 ഒന്നെങ്കിലും	-0.0569
-4.4112 ഒന്നോ	-0.0577
-3.2350 ഒന്ന്	-0.0262
-4.4112 ഒപ്പം	-0.0577
-4.4112 ഒപ്പമുണ്ടാകില്ലേ	0.0358
-4.4112 ഒപ്പിച്ചുതരാന്‍	-0.0575
-4.4112 ഒപ്റ്റിക്കല്‍	-0.0577
-4.4112 ഒരധികപ്പറ്റായിരിക്കില്ലെന്നും	0.0358
-4.4112 ഒരനാഥന്‍	-0.0574
-4.4112 ഒരമ്മയും	-0.0577
-4.4112 ഒരാളാണ്	-0.0577
-4.4112 ഒരാളെങ്കിലും	0.0358
-4.1101 ഒരാള്‍	-0.1824
-4.4112 ഒരാവശ്യമായി	-0.0577
-4.1101 ഒരാൾ	0.0359
-3.5660 ഒരിക്കലും	-0.0572
-4.4112 ഒരിക്കല്‍	0.0358
-4.4112 ഒരിങ്ങിയിട്ടില്ല	0.0358
-2.0419 ഒരു	-0.0203
-4.4112 ഒരുക്കങ്ങളും	-0.0576
-4.4112 ഒരുക്കുന്ന	-0.0576
-4.1101 ഒരുതവണ	-0.0573
-4.4112 ഒരുത്തരമുണ്ടെങ്കില്‍	0.0358
-4.4112 ഒരുദിവസം	-0.0576
-4.4112 ഒരുപാടാളുകൾ	-0.0575
-3.3697 ഒരുപാട്	-0.0262
-4.1101 ഒരുമിച്ചായിരുന്നു	-0.1824
-4.4112 ഒരുമിച്ചു	-0.0577
-4.4112 ഒരുവളുടെ	-0.0574
-4.1101 ഒരെണ്ണം	-0.0574
-3.9340 ഒരേ	-0.0576
-3.6329 ഒരേയൊരു	-0.1803
-4.4112 ഒരൊഴിവ്	-0.0577
-4.4112 ഒര്‍മ്മയുണ്ടോ	0.0358
-4.4112 ഒരൽപം	-0.0577
-4.1101 ഒറ്റ	-0.0575
-4.1101 ഒറ്റക്കാണ്	-0.0572
-4.4112 ഒറ്റക്കൈകൊണ്ട്	-0.0574
-3.6329 ഒറ്റക്ക്	0.0366
-4.4112 ഒറ്റപ്പെട്ട	-0.0576
-4.4112 ഒറ്റപ്പെട്ടപോലെ	-0.0576
-4.4112 ഒറ്റയ്കല്ല	0.0358
-3.9340 ഒറ്റയ്ക്	0.0360
-4.4112 ഒറ്റയ്ക്കാണോ	0.0358
-4.4112 ഒറ്റയ്ക്കാവില്ലെന്ന്	0.0358
-4.4112 ഒറ്റയ്ക്കൊരു	-0.0575
-3.8090 ഒലക്സാണ്ടർ	-0.0596
-4.4112 ഒളിക്കാനാ	-0.0577
-4.4112 ഒളിപ്പിക്കുന്ന	-0.0575
-4.1101 ഒഴികെ	0.0360
-3.9340 ഒഴിവാക്കി	-0.2594
-4.4112 ഒഴിവാക്കുക	0.0358
-4.4112 ഒഴിവാണ്	0.0358
-4.4112 ഒഴിവുസമയങ്ങളിൽ	-0.0577
-4.4112 ഒഴുകിനടക്കുകയായിരിക്ക​​ണം	0.0358
-3.9340 ഒഹ്	-0.1862
-4.4112 ഒൻപത്	0.0358
-2.8796 ഓ	0.0086
-3.5660 ഓകെ	-0.0055
-4.4112 ഓകെയല്ലേ	0.0358
-4.1101 ഓക്കെ	-0.0573
-3.2650 ഓക്കേ	-0.1229
-4.1101 ഓക്സിജന്‍	-0.0576
-4.1101 ഓക്സിജന്‍റെ	-0.0576
-4.4112 ഓക്സിജെനും	-0.0577
-4.4112 ഓടിക്കാനും	-0.0576
-4.4112 ഓടിക്കാൻ	-0.0577
-4.4112 ഓടിക്കൊണ്ടിരിക്കുന്നിടത്തോളം	-0.0576
-4.4112 ഓടിച്ചോണ്ടിരിക്കാന്‍	-0.0574
-4.4112 ഓടിച്ചോളാം	0.0358
-4.4112 ഓടിപ്പിക്കാന്‍	0.0358
-4.4112 ഓട്ടോപൈലറ്റിന്	-0.0577
-3.8090 ഓട്ടോമാറ്റണ്‍	0.0367
-4.4112 ഓണാക്കു	0.0358
-4.1101 ഓണ്‍	-0.0576
-4.1101 ഓഫാക്കുകയാണ്	0.0360
-4.4112 ഓഫീസര്‍	-0.0537
-4.4112 ഓഫീസിലേക്ക്	-0.0577
-4.1101 ഓഫീസിൽ	-0.0576
-4.4112 ഓയ്	0.0358
-4.4112 ഓരോ	-0.0577
-3.5080 ഓരോ	0.0360
-4.4112 ഓരോന്നിനുമുള്ള	-0.0576
-4.4112 ഓര്‍ക്കില്ല	0.0358
-4.4112 ഓര്‍ക്കുന്നു	0.0358
-4.4112 ഓര്‍ഗാനിക്സ്	0.0358
-4.4112 ഓര്‍ത്തെടുക്കാനുള്ള	-0.0577
-4.4112 ഓര്‍ത്തോ	0.0358
-4.4112 ഓര്‍ത്ത്	-0.0577
-4.4112 ഓര്‍ബിറ്റിലേയ്ക്	-0.0577
-4.4112 ഓര്‍മ്മകള്‍	0.0358
-4.4112 ഓര്‍മ്മവേണം	0.0358
-4.4112 ഓവർ	0.0358
-4.4112 ഓസെഡിനേയും	0.0358
-4.4112 ഓഹോ	0.0358
-3.2070 ഓഹ്	-0.0138
-4.4112 ഓഹ്നമസ്തേ	0.0358
-4.1101 ഓർക്കുക	0.0360
-4.4112 ഓർഗാനിക്	-0.0576
-4.4112 ഓർമ്മ	-0.0574
-4.4112 ഓർമ്മകൾ	-0.0577
-4.1101 കട	-0.0569
-4.1101 കടകളില്‍	-0.0573
-4.4112 കടക്കാം	0.0358
-4.4112 കടക്കാന്‍	-0.0576
-4.4112 കടക്കാറില്ല	-0.0577
-4.4112 കടക്കേണ്ടതുണ്ടായിരുന്നു	0.0358
-4.4112 കടക്കേണ്ടതുണ്ട്	0.0358
-4.4112 കടക്ക്	0.0358
-4.4112 കടത്തിവിടാനാവുമെന്ന്	-0.0565
-4.4112 കടന്നിട്ടില്ല	0.0358
-4.4112 കടന്നു	-0.0573
-4.4112 കടന്നുപോ	-0.0576
-4.4112 കടന്നുപോകുന്നത്	0.0358
-4.4112 കടന്നുപോയിട്ടില്ല	0.0358
-4.4112 കടന്ന്	0.0358
-4.4112 കടപ്പെട്ടിരിക്കുന്നു	0.0358
-4.4112 കടമ	-0.0577
-4.4112 കടമയാണ്	-0.0573
-4.4112 കടമായിട്ട്	-0.0576
-4.1101 കടമ്പ	0.0359
-4.4112 കടയായിരുന്നു	0.0358
-4.4112 കടയില്‍	-0.0573
-4.4112 കടിച്ച്	-0.0577
-4.4112 കടുത്ത	-0.0577
-4.4112 കടുപ്പക്കാരനാണ്	0.0358
-4.4112 കട്ടെടുത്തു	0.0358
-4.4112 കട്ട്	-0.0577
-4.4112 കഠിന	-0.0577
-4.4112 കഠിനപ്രയത്നം	-0.0573
-4.4112 കഠിനമായി	-0.0577
-4.4112 കഠിനമായിരിക്കുമെന്ന്	-0.0577
-4.4112 കണക്കാക്കാം	0.0358
-4.4112 കണക്കാക്കിയാൽ	0.0358
-4.4112 കണികാതന്ത്രത്തിന്റെ	-0.0573
-4.4112 കണികാതന്ത്രവുമായി	-0.0577
-3.7121 കണ്ട	-0.0556
-4.4112 കണ്ടതാണ്	0.0358
-3.8090 കണ്ടതില്‍	-0.0574
-4.4112 കണ്ടതില്‍വച്ച്	0.0358
-3.9340 കണ്ടത്	-0.2594
-4.4112 കണ്ടത്താൻ	-0.0576
-4.4112 കണ്ടാൽ	-0.0574
-4.1101 കണ്ടിട്ടില്ല	0.0359
-4.4112 കണ്ടിട്ടില്ലെന്നോ	0.0358
-4.4112 കണ്ടിട്ടുണ്ടായിരുന്നില്ല	0.0358
-4.4112 കണ്ടിട്ടുണ്ടോ	0.0358
-3.9340 കണ്ടിട്ടുണ്ട്	-0.2594
-4.4112 കണ്ടിരുന്നില്ലെങ്കിൽ	0.0358
-4.4112 കണ്ടിരുന്നില്ലേ	0.0358
-4.4112 കണ്ടിരുന്നു	0.0358
-4.4112 കണ്ടിരുന്നോ	0.0358
-4.4112 കണ്ടില്ല	0.0358
-4.4112 കണ്ടില്ലല്ലോ	0.0358
-3.7121 കണ്ടില്ലേ	-0.9492
-3.3697 കണ്ടു	-0.7342
-4.4112 കണ്ടുനോക്ക്	0.0358
-4.4112 കണ്ടുപിടിക്കണം	-0.0576
-4.1101 കണ്ടുപിടിക്കാന്‍	-0.1824
-4.1101 കണ്ടുപിടിക്കും	-0.1824
-4.4112 കണ്ടുപിടിക്കേണ്ടത്	0.0358
-4.4112 കണ്ടുപിടിച്ചതല്ല	0.0358
-4.4112 കണ്ടുപിടിച്ചിട്ടുണ്ട്	0.0358
-4.1101 കണ്ടുപിടിച്ചു	-0.1824
-4.4112 കണ്ടുപിടിച്ച്	0.0358
-4.4112 കണ്ടുപിടുത്തക്കാർ	-0.0577
-4.4112 കണ്ടുപിടുത്തവുമായി	-0.0576
-4.4112 കണ്ടുപോകരുത്	0.0358
-4.4112 കണ്ടുമുട്ടി	-0.0576
-4.4112 കണ്ടുമുട്ടിയത്	-0.0577
-4.4112 കണ്ടുമുട്ടുമെന്ന്	0.0358
-4.4112 കണ്ടൂടെ	0.0358
-4.1101 കണ്ടെത്തണം	-0.1824
-4.1101 കണ്ടെത്താനാവില്ല	-0.1824
-4.4112 കണ്ടെത്താനുണ്ട്	0.0358
-3.8090 കണ്ടെത്താന്‍	-0.0550
-3.8090 കണ്ടെത്തി	-0.2785
-4.4112 കണ്ടെത്തിയതാണത്	0.0358
-4.4112 കണ്ടെത്തിയതാണ്	0.0358
-3.9340 കണ്ടെത്തിയത്	-0.2594
-4.4112 കണ്ടെത്തിയിരിക്കുന്നു	0.0358
-4.4112 കണ്ടെത്തിയിരുന്നു	0.0358
-4.4112 കണ്ടെത്തിയെന്ന്	-0.0577
-4.4112 കണ്ടെത്തും	-0.0571
-4.4112 കണ്ടെത്തുക	0.0358
-4.4112 കണ്ടെത്തുകയാണെങ്കിൽ	0.0358
-4.4112 കണ്ടെത്തുന്ന	-0.0573
-4.4112 കണ്ടെത്തുമ്പോള്‍	0.0358
-4.4112 കണ്ടെത്തേണ്ടിയിരിക്കുന്നു	0.0358
-4.4112 കണ്ടെത്തേണ്ടിയിരുന്നു	0.0358
-4.1101 കണ്ടെത്ത്	-0.1824
-3.7121 കണ്ടോ	-0.1933
-4.4112 കണ്ട്രോളുകൾ	-0.0576
-4.4112 കണ്ണിലേക്ക്	-0.0537
-4.4112 കണ്ണില്‍	-0.0542
-4.4112 കണ്ണുകൾ	-0.0577
-4.4112 കത്തിക്കാതെ	-0.0577
-3.8090 കത്തിക്കാന്‍	-0.0572
-4.4112 കത്തിക്കും	0.0358
-4.4112 കത്തിക്കുന്നതിനും	-0.0575
-4.4112 കത്തിക്കുവാ	0.0358
-4.4112 കത്തിച്ചിട്ടില്ല	0.0358
-4.4112 കത്തിച്ചു	-0.0577
-4.4112 കത്തിപ്പോയി	0.0358
-3.9340 കഥ	-0.0968
-4.1101 കഥകള്‍	0.0359
-4.4112 കഥയാണ്	0.0358
-4.4112 കന്തികമോ	-0.0575
-4.4112 കപ്പിയും	0.0358
-4.4112 കപ്പു	-0.0573
-4.4112 കപ്പും	-0.0574
-4.4112 കപ്പോ	-0.0576
-4.1101 കപ്പൽ	-0.0572
-4.4112 കബാറെറ്റ്	0.0358
-4.1101 കമിഴ്തിയാണ്	-0.2759
-4.4112 കമിഴ്തിവെക്കുമായിരുന്നു	0.0358
-4.4112 കമ്പനിക്ക്	-0.0577
-4.4112 കമ്പനിയിൽ	-0.0576
-4.4112 കമ്പനിയുടെ	-0.0577
-4.4112 കമ്പമുണ്ട്	0.0358
-4.4112 കമ്പ്യൂട്ടറിലെത്തിക്കൂ	0.0358
-4.1101 കമ്പ്യൂട്ടറിൽ	-0.0572
-4.4112 കമ്പ്യൂട്ടറുകള്‍	-0.0577
-4.1101 കമ്പ്യൂട്ടർ	-0.0576
-4.4112 കയര്‍	-0.0576
-4.1101 കയറണം	-0.1824
-4.4112 കയറാം	-0.0573
-4.4112 കയറാനും	0.0358
-4.4112 കയറാൻ	-0.0574
-3.8090 കയറി	-0.2785
-4.4112 കയറിയോ	0.0358
-4.4112 കയറുകയും	0.0358
-4.4112 കയറുന്നു	0.0358
-4.4112 കയറുമോ	-0.0576
-4.4112 കയറൂ	0.0358
-4.4112 കയറ്	0.0358
-4.4112 കയറ്റി	-0.0577
-4.4112 കയ്യാങ്കളി	-0.0576
-4.4112 കയ്യിലാണ്	0.0358
-4.4112 കയ്യിലില്ല	0.0358
-4.4112 കയ്യിലുണ്ടായിരുന്ന	-0.0577
-4.4112 കയ്യിലുണ്ടെങ്കില്‍	0.0358
-4.1101 കയ്യിലുണ്ടോ	-0.1824
-4.4112 കയ്യിലുണ്ട്	0.0358
-3.6329 കയ്യില്‍	0.0361
-4.4112 കരകയറ്റിയത്	0.0358
-4.4112 കരഘോഷം	0.0358
-4.4112 കരഞ്ഞു	0.0358
-4.4112 കരയരുത്	0.0358
-4.4112 കരയിലോ	0.0358
-4.4112 കരയില്‍	-0.0576
-4.1101 കരയും	-0.1824
-4.4112 കരയുകയാണോ	0.0358
-4.4112 കരയുകയായിരുന്നു	0.0358
-4.4112 കരയുന്നത്	-0.0576
-4.4112 കരവിരുതുകൊണ്ടോ	0.0358
-4.4112 കരീനക്ക്	-0.0573
-4.4112 കരുണ	-0.0577
-4.4112 കരുതാന്‍	-0.0537
-3.5660 കരുതി	-0.0463
-4.4112 കരുതിയ	0.0358
-3.9340 കരുതിയത്	-0.0968
-4.4112 കരുതിയിരുന്ന	-0.0576
-4.4112 കരുതിയിരുന്നു	-0.0569
-4.4112 കരുതിയില്ലാ	0.0358
-4.4112 കരുതിയോ	0.0358
-4.4112 കരുതുന്ന	-0.0576
-4.4112 കരുതുന്നത്	0.0358
-3.9340 കരുതുന്നു	0.0389
-4.4112 കരുതുന്നുണ്ടോ	0.0358
-4.4112 കര്‍ഷകന്‍	-0.0577
-4.4112 കര്‍ഷകരെ	0.0358
-3.9340 കറക്കം	0.0359
-4.4112 കറക്കവുമായി	-0.0577
-4.4112 കറങ്ങുന്ന	-0.0577
-4.4112 കറന്‍റിന്‍റെ	-0.0573
-4.1101 കലപില	0.0359
-4.4112 കലമാനിനെ	-0.0577
-4.4112 കലാകാരനാണ്	0.0358
-4.1101 കല്യാണം	-0.0575
-4.4112 കല്യാണത്തിനു	-0.0576
-4.4112 കല്യാണത്തിന്‍റെ	-0.0577
-4.4112 കളഞ്ഞു	0.0358
-4.4112 കളപ്പുരയിൽ	-0.0574
-4.4112 കളയും	0.0358
-4.4112 കളയുന്നു	0.0358
-4.4112 കളര്‍	-0.0577
-4.4112 കളറാണ്	0.0358
-4.4112 കളറില്‍	0.0358
-3.9340 കളവ്	0.0410
-4.1101 കളി	-0.0569
-4.4112 കളികാണാന്‍	-0.0576
-4.4112 കളിക്കാം	-0.0575
-4.4112 കളിക്കാറുണ്ടന്ന്	0.0358
-4.4112 കളിക്കാറുണ്ട്	0.0358
-4.4112 കളിക്കാൻ	0.0358
-4.4112 കളിക്കുക	0.0358
-4.4112 കളിക്കുകയാവും	0.0358
-4.4112 കളിക്കുന്നതിന്	0.0358
-4.4112 കളിക്കുന്നത്	0.0358
-4.4112 കളിക്കുന്നുണ്ടല്ലോ	0.0358
-4.4112 കളിക്കുന്നുണ്ട്	-0.0576
-4.4112 കളിക്ക്	0.0358
-4.4112 കളിച്ചതാണ്	0.0358
-4.4112 കളിച്ചു	-0.0577
-4.4112 കളിപ്പാട്ടം	0.0358
-4.4112 കളിപ്പാട്ടക്കട	-0.0576
-4.4112 കള്ളക്കളി	-0.0577
-4.4112 കള്ളത്തരത്തേക്കാള്‍	0.0358
-4.1101 കള്ളനല്ല	-0.1824
-4.4112 കള്ളനും	-0.0577
-4.4112 കള്ളനുമാണ്	0.0358
-4.4112 കള്ളനോട്	0.0358
-4.4112 കള്ളന്മാരുമായി	-0.0577
-3.9340 കള്ളന്‍	-0.0968
-4.4112 കള്ളാ	0.0358
-4.4112 കള്ളീ	-0.0559
-4.4112 കള്ളുകുടിച്ചിട്ടുണ്ടോ	0.0358
-4.4112 കഴിക്കട്ടെ	0.0358
-4.4112 കഴിക്കലും	-0.0577
-4.4112 കഴിക്കാം	0.0358
-4.4112 കഴിക്കാതെ	-0.0577
-4.4112 കഴിക്കാറ്	0.0358
-3.7121 കഴിക്കാൻ	-0.1319
-4.4112 കഴിക്കുന്നത്	0.0358
-4.4112 കഴിക്ക്	-0.0574
-4.4112 കഴിച്ചിട്ടില്ല	0.0358
-4.4112 കഴിച്ചിട്ടില്ലാ	0.0358
-4.4112 കഴിച്ചിട്ടില്ലേ	0.0358
-4.4112 കഴിച്ചിരിക്കണം	-0.0573
-4.4112 കഴിച്ചു	-0.0576
-4.4112 കഴിച്ച്	-0.0577
-3.8090 കഴിഞ്ഞ	-0.0573
-4.4112 കഴിഞ്ഞതിനു	-0.0575
-4.4112 കഴിഞ്ഞതുപോലയല്ലാ	0.0358
-4.4112 കഴിഞ്ഞപ്പോള്‍	-0.0576
-4.4112 കഴിഞ്ഞപ്രാവശ്യം	-0.0577
-4.1101 കഴിഞ്ഞാൽ	-0.0564
-4.1101 കഴിഞ്ഞിട്ട്	0.0363
-4.1101 കഴിഞ്ഞില്ല	-0.1824
-3.6329 കഴിഞ്ഞു	-0.1467
-4.4112 കഴിഞ്ഞുവെന്ന്	0.0358
-4.4112 കഴിഞ്ഞെക്കും	0.0358
-4.1101 കഴിഞ്ഞേനെ	-0.1824
-4.4112 കഴിഞ്ഞോ	0.0358
-4.1101 കഴിഞ്ഞ്	-0.0575
-4.4112 കഴിയാതത്	-0.0576
-3.4111 കഴിയില്ല	-0.9857
-3.5660 കഴിയില്ലാ	-0.7830
-3.5080 കഴിയും	-0.1037
-4.4112 കഴിയുക	0.0358
-4.4112 കഴിയുകയും	-0.0574
-4.4112 കഴിയുകയൊള്ളൂ	0.0358
-4.4112 കഴിയുകായെന്ന്	-0.0566
-4.1101 കഴിയുന്നില്ല	-0.1824
-4.4112 കഴിയുന്നില്ലന്നോ	-0.0577
-4.4112 കഴിയുന്നില്ലാ	0.0358
-4.4112 കഴിയുന്നില്ലേ	0.0358
-4.4112 കഴിയുന്നുണ്ട്	0.0358
-4.4112 കഴിയുമായിരുന്നു	0.0358
-4.4112 കഴിയുമെങ്കിൽ	0.0358
-4.4112 കഴിയുമെന്ന്	-0.0565
-3.9340 കഴിയുമോ	-0.2594
-4.4112 കഴിയുമ്പോൾ	-0.0576
-4.4112 കഴിവുകളുണ്ട്	0.0358
-4.4112 കഴിവ്	-0.0576
-4.4112 കഴുകട്ടെ	0.0358
-4.4112 കഴുത്തിറങ്ങിയ	-0.0576
-4.4112 കവണ	0.0358
-4.4112 കവയത്രിയുടെ	-0.0575
-3.8090 കവിത	-0.1527
-4.4112 കഷണം	-0.0577
-4.4112 കഷ്ടടം	-0.0576
-4.4112 കഷ്ടപ്പെടുന്നതുകാണാന്‍	-0.0549
-4.4112 കഷ്ടപ്പെട്ടു	0.0358
-4.4112 കസിനാണ്	-0.0574
-3.5660 കാണണം	-0.7830
-3.9340 കാണണോ	-0.0967
-4.4112 കാണപ്പെടുന്നു	0.0358
-4.4112 കാണപ്പെട്ടത്	0.0358
-4.4112 കാണരുത്	0.0358
-3.5660 കാണാം	-0.4081
-4.4112 കാണാത്ത	0.0358
-4.4112 കാണാനാഗ്രഹമുണ്ടോ	0.0358
-4.4112 കാണാനാണെങ്കിൽ	-0.0555
-4.4112 കാണാനാണ്	-0.0576
-4.1101 കാണാനും	0.0359
-4.4112 കാണാനുള്ള	-0.0575
-3.8090 കാണാന്‍	0.0365
-4.4112 കാണാമായിരുന്നു	0.0358
-4.4112 കാണാറില്ല	0.0358
-4.4112 കാണാറില്ലേ	0.0358
-3.0309 കാണാൻ	0.0144
-4.4112 കാണാൻനല്ല	-0.0576
-4.1101 കാണികള്‍	-0.0576
-4.4112 കാണിക്കണം	0.0358
-4.4112 കാണിക്കരുത്	0.0358
-4.4112 കാണിക്കാം	0.0358
-4.4112 കാണിക്കാൻ	-0.0542
-4.4112 കാണിക്കുന്നതിനായി	0.0358
-4.4112 കാണിക്കുന്നത്	0.0358
-4.4112 കാണിക്കുന്നു	0.0358
-4.4112 കാണിക്കൂ	0.0358
-3.5080 കാണിച്ചു	-0.0088
-4.4112 കാണിച്ചുകൊടുത്തിട്ടുണ്ട്	0.0358
-4.4112 കാണിച്ചുതരട്ടെ	0.0358
-4.4112 കാണിച്ചുതരാം	0.0358
-4.4112 കാണിച്ചോട്ടെ	0.0358
-4.4112 കാണിച്ച്	0.0358
-4.4112 കാണിപ്പിക്കണം	0.0358
-4.4112 കാണില്ലേ	0.0358
-4.4112 കാണും	0.0358
-4.4112 കാണുകയാണല്ലേ	0.0358
-4.4112 കാണുകയാണ്	0.0358
-4.4112 കാണുന്നതോ	0.0358
-3.9340 കാണുന്നത്	-0.0957
-4.4112 കാണുന്നപോലിരുന്നു	-0.0571
-4.1101 കാണുന്നില്ലല്ലോ	0.0360
-4.1101 കാണുന്നു	0.0359
-4.4112 കാണുന്നുണ്ടോ	0.0358
-4.4112 കാണുന്നുണ്ട്	-0.0555
-4.4112 കാണുമോ	-0.0571
-4.1101 കാണുമ്പോള്‍	0.0359
-4.4112 കാണുമ്പോഴുള്ള	0.0358
-4.4112 കാണൂ	0.0358
-4.4112 കാണ്ടുപിടിക്കും	0.0358
-4.4112 കാത്തിരിക്കാം	0.0358
-4.4112 കാത്തിരിക്കാൻ	-0.0577
-4.1101 കാത്തിരിക്കുക	-0.1824
-4.4112 കാത്തിരിക്കുകയാണെന്ന്	-0.0575
-4.4112 കാത്തിരിക്കുകയാണ്‌	0.0358
-4.4112 കാത്തിരിക്കുന്നത്	0.0358
-3.9340 കാത്തിരിക്കുന്നു	-0.0955
-4.4112 കാത്തിരിക്കുന്നുണ്ടാവും	0.0358
-4.4112 കാത്തിരിക്കേണ്ടി	-0.0574
-4.1101 കാത്തിരുന്നോളും	-0.1824
-4.4112 കാത്തു	-0.0577
-4.1101 കാത്തുനിൽക്കണോ	-0.1824
-4.4112 കാത്തുനിൽക്കുകയാണ്	0.0358
-4.4112 കാത്തുവച്ചിരുന്നതായിരുന്നു	0.0358
-4.4112 കാത്തുസൂക്ഷിക്കണം	0.0358
-4.4112 കാത്തുസൂക്ഷിച്ചതെല്ലാം	-0.0577
-4.4112 കാന്തിക	-0.0577
-3.9340 കാബറെറ്റ്	-0.2594
-4.4112 കാബെററ്റിനെ	-0.0573
-4.4112 കാബെററ്റ്	0.0358
-4.1101 കായം	0.0359
-3.0494 കാരണം	-0.2122
-4.4112 കാരണങ്ങളുണ്ടാകാം	0.0358
-4.4112 കാരണമാകുമെന്ന്	-0.0577
-3.9340 കാരണമാണ്	-0.0966
-4.4112 കാരണമുണ്ടായേക്കാം	0.0358
-4.4112 കാരണമോ	0.0358
-4.4112 കാരണവുമില്ല	0.0358
-3.0132 കാര്യം	0.0065
-4.4112 കാര്യങ്ങളാണവ	0.0358
-4.4112 കാര്യങ്ങളാണ്	0.0358
-4.4112 കാര്യങ്ങളിൽ	-0.0555
-4.4112 കാര്യങ്ങളും	-0.0577
-3.2972 കാര്യങ്ങള്‍	0.0100
-4.4112 കാര്യത്തിലും	-0.0576
-4.4112 കാര്യത്തിലൊഴിച്ച്	-0.0572
-3.5080 കാര്യത്തില്‍	0.0021
-4.4112 കാര്യപെട്ടത്	-0.0576
-4.4112 കാര്യമല്ല	0.0358
-4.4112 കാര്യമാക്കേണ്ടതില്ല	0.0358
-4.4112 കാര്യമാണെന്ന്	-0.0549
-3.8090 കാര്യമാണ്	-0.1645
-4.4112 കാര്യമായിട്ടാണോ	0.0358
-4.4112 കാര്യമായിരുന്നേനെ	-0.0573
-4.4112 കാര്യമില്ല	0.0358
-4.1101 കാര്യമില്ലാ	-0.1824
-4.4112 കാര്യമില്ലായിരുന്നു	0.0358
-4.4112 കാര്യമെല്ലാം	-0.0577
-4.4112 കാര്യമൊന്നുമില്ല	0.0358
-4.1101 കാര്യമോ	-0.1824
-4.4112 കാര്യവുമില്ല	0.0358
-4.1101 കാര്‍	-0.0549
-4.4112 കാര്‍ട്ടനും	-0.0577
-4.4112 കാറിനടുത്തേയ്ക്	-0.0577
-4.4112 കാറിന്‍റെ	-0.0577
-4.4112 കാറിലേക്ക്	-0.0577
-4.4112 കാറോടിക്കാൻ	-0.0573
-4.4112 കാല	-0.0577
-3.5660 കാലം	-0.0160
-4.4112 കാലഘട്ടത്തിനുമപ്പുറം	0.0358
-4.4112 കാലങ്ങളായിട്ട്	-0.0514
-4.4112 കാലത്തിനും	-0.0577
-4.4112 കാലത്തിന്	-0.0576
-4.4112 കാലദേശങ്ങളിലേയ്ക്	-0.0577
-4.1101 കാലമായി	0.0380
-4.4112 കാലമായിരുന്നു	0.0358
-4.4112 കാലാന്തരത്തിനപ്പുറത്തേയ്ക്	-0.0537
-4.1101 കാലാവസ്ഥ	0.0359
-4.4112 കാലിന്	-0.0577
-4.1101 കാലും	-0.0576
-4.4112 കാലുപിടിക്കണോ	0.0358
-4.4112 കാലെടുത്തുവെയ്കുമ്പോള്‍	0.0358
-4.4112 കാഴ്ചയ്കപ്പുറത്തേയ്ക്	0.0358
-4.4112 കാവല്‍	-0.0575
-4.4112 കാഹളം	0.0358
-4.4112 കാൻസറായിരുന്നു	0.0358
-4.4112 കിംവതന്തികള്‍	-0.0577
-4.1101 കിടക്ക	-0.0576
-4.1101 കിടക്കാം	-0.1824
-4.4112 കിടക്കുകയാണ്	0.0358
-4.4112 കിടക്കുന്നോ	0.0358
-4.4112 കിടക്ക്‌	0.0358
-4.4112 കിടന്നാൽ	-0.0574
-4.4112 കിടന്നുറങ്ങിക്കോളു	0.0358
-4.4112 കിടന്നുറങ്ങ്	-0.0577
-4.4112 കിടപ്പു	-0.0576
-4.4112 കിട്ടരുതേ	0.0358
-3.4569 കിട്ടി	-0.9592
-4.4112 കിട്ടിക്കഴിഞ്ഞാല്‍	0.0358
-4.4112 കിട്ടിയ	-0.0577
-4.4112 കിട്ടിയതൊള്ളൂ	0.0358
-4.4112 കിട്ടിയല്ലോ	0.0358
-4.4112 കിട്ടിയാൽ	0.0358
-4.4112 കിട്ടിയിട്ടില്ലാ	0.0358
-4.4112 കിട്ടിയിട്ടുണ്ടന്നാണ്	0.0358
-4.4112 കിട്ടിയെന്ന്	-0.0574
-3.3319 കിട്ടും	-0.7770
-4.4112 കിട്ടുക	0.0358
-4.4112 കിട്ടുകയാണെങ്കിൽ	-0.0576
-4.4112 കിട്ടുകയൊള്ളൂ	0.0358
-4.4112 കിട്ടുന്നതെന്തും	-0.0577
-4.4112 കിട്ടുന്നില്ല	0.0358
-4.4112 കിട്ടുമോ	0.0358
-3.9340 കിപ്പ്	-0.1899
-3.9340 കിലോ	-0.0559
-4.4112 കിളവാ	0.0358
-4.4112 കിഴങ്ങന്‍മാര്‍	0.0358
-4.4112 കിഴങ്ങല്ലാം	-0.0576
-4.4112 കീടമേ	0.0358
-4.4112 കീറുന്നു	-0.0577
-3.8090 കുക്കർ	-0.0592
-4.4112 കുഞ്ഞിനെ	-0.0577
-4.4112 കുഞ്ഞ്	-0.0577
-4.4112 കുടിക്കലുമെല്ലാം	0.0358
-4.4112 കുടിക്കാനും	-0.0577
-4.4112 കുടിക്കാനൊക്കെയാണോ	-0.0577
-4.4112 കുടിക്കാന്‍	-0.0577
-4.4112 കുടിക്കും	0.0358
-4.1101 കുടിക്ക്	-0.1824
-4.4112 കുടിക്കൽ	0.0358
-4.4112 കുടിച്ചത്	0.0358
-4.4112 കുടിച്ചാലോ	0.0358
-4.4112 കുടിച്ചാൽ	-0.0568
-4.4112 കുടിച്ചിട്ടുണ്ടോ	0.0358
-4.4112 കുടിച്ചിരുന്നു	-0.0577
-4.4112 കുടിച്ചിരുന്നോ	0.0358
-4.4112 കുടിച്ച്	0.0358
-4.1101 കുടിമുടി	0.0359
-3.9340 കുടിയനായിരുന്നു	-0.2594
-3.9340 കുടുംബം	0.0359
-4.4112 കുടുംബക്കാരെല്ലാം	-0.0577
-4.4112 കുടുംബങ്ങളെക്കുറിച്ചുമാണ്	-0.0574
-4.4112 കുടുംബങ്ങൾ	-0.0577
-4.4112 കുടുംബത്തിന്റെ	-0.0576
-4.4112 കുടുംബത്തെക്കുറിച്ചു	-0.0575
-4.4112 കുടുംബത്തെക്കുറിച്ചും	0.0358
-4.4112 കുടുംബത്തെയെങ്കിലും	-0.0577
-4.4112 കുടുംബമില്ലാതെ	-0.0572
-4.4112 കുടുംബവുമായി	-0.0577
-4.4112 കുടുങ്ങിക്കിടക്കുകയാണ്	0.0358
-4.4112 കുടുങ്ങിക്കിടന്ന്	0.0358
-4.4112 കുടുങ്ങിയല്ലോ	0.0358
-4.4112 കുട്ടാ	0.0358
-3.2972 കുട്ടി	-0.6315
-4.4112 കുട്ടികളുണ്ടാകില്ല	0.0358
-4.1101 കുട്ടികളുണ്ട്	-0.1824
-3.8090 കുട്ടികളെ	-0.0559
-4.1101 കുട്ടികളേ	-0.1824
-3.7121 കുട്ടികള്‍	-0.0383
-4.4112 കുട്ടികള്‍ക്കായോ	-0.0576
-4.4112 കുട്ടികള്‍ക്കും	-0.0577
-4.4112 കുട്ടിക്കളിയാണെന്ന്	-0.0577
-4.4112 കുട്ടിക്കു	-0.0573
-4.4112 കുട്ടിക്കോ	0.0358
-4.4112 കുട്ടിക്ക്	-0.0576
-4.4112 കുട്ടികൾക്ക്	-0.0577
-4.4112 കുട്ടിച്ചാത്തന്‍	-0.0576
-4.4112 കുട്ടിച്ചെകുത്താനേ	0.0358
-4.4112 കുട്ടിപാവം	-0.0575
-4.4112 കുട്ടിയല്ല	0.0358
-4.4112 കുട്ടിയാണോ	0.0358
-3.9340 കുട്ടിയാണ്	-0.2594
-3.9340 കുട്ടിയായിരുന്നപ്പോള്‍	0.0362
-4.4112 കുട്ടിയായോ	0.0358
-4.4112 കുട്ടിയും	-0.0577
-4.4112 കുട്ടിയുടെ	-0.0577
-4.4112 കുട്ടിയുണ്ട്	-0.0577
-4.4112 കുട്ടിയോ	0.0358
-4.4112 കുത്തിമറിച്ചുകൊണ്ടിരിക്കുകയാണ്	0.0358
-4.4112 കുത്തുകളും	-0.0577
-4.1101 കുത്ത്	0.0359
-4.4112 കുന്തംകൊണ്ട്	-0.0557
-4.4112 കുപെറിനു	-0.0576
-3.5080 കുപെർ	-0.0431
-3.9340 കുപേർ	-0.0553
-4.1101 കുപ്പര്‍	0.0359
-4.4112 കുപ്പി	-0.0576
-4.1101 കുപ്പികൾ	-0.0574
-4.4112 കുപ്പിയില്‍	-0.0573
-4.4112 കുരങ്ങുകളിക്കും	-0.0576
-4.4112 കുരമുളകും	-0.0577
-4.4112 കുരയ്ക്കുന്നു	0.0358
-4.4112 കുര്‍ലിങ്ങ്	-0.0576
-3.9340 കുറക്കണം	-0.2594
-4.1101 കുറച്	-0.0575
-3.9340 കുറച്ചു	-0.1901
-4.4112 കുറച്ചുകൂടി	-0.0576
-4.4112 കുറച്ചുക്കൂടി	0.0358
-4.4112 കുറച്ചുപേരെ	-0.0576
-4.4112 കുറച്ചുപേര്‍ക്കേ	-0.0564
-4.4112 കുറച്ചെടുക്കുക	0.0358
-2.9639 കുറച്ച്	0.0022
-4.4112 കുറച്ച്ക്കൂടി	-0.0577
-4.4112 കുറഞ്ഞത്	-0.0575
-4.4112 കുറഞ്ഞുകൊണ്ടിരിക്കും	0.0358
-4.4112 കുറയ്കുന്നതാണ്	-0.0575
-4.4112 കുറയ്കേണ്ടിവരും	0.0358
-4.4112 കുറയ്ക്കാം	0.0358
-4.4112 കുറയ്ക്കുമോ	0.0358
-4.1101 കുറവാണ്	-0.1824
-4.4112 കുറവുകാരണം	-0.0576
-4.4112 കുറിച്ചല്ല	0.0358
-4.4112 കുറിച്ചാലോചിക്കുന്നത്	-0.0576
-4.4112 കുറിച്ചും	-0.0576
-4.4112 കുറിച്ചുള്ള	-0.0575
-4.4112 കുറിച്ചെങ്കിലും	-0.0577
-4.4112 കുറിച്ചെന്നോട്	-0.0537
-4.4112 കുറിച്ചൊന്ന്	0.0358
-3.8090 കുറിച്ച്	-0.0572
-4.4112 കുറുകെ	-0.0537
-3.8090 കുറെ	-0.0576
-4.4112 കുറെയധികം	-0.0577
-4.1101 കുറേ	-0.0575
-4.4112 കുറേക്കാലമായി	-0.0559
-4.4112 കുറേക്കൂടി	-0.0576
-4.4112 കുറേയധികം	-0.0576
-4.1101 കുഴപ്പം	0.0359
-4.1101 കുഴപ്പത്തില്‍	-0.2759
-3.8090 കുഴപ്പമില്ല	-0.0553
-3.8090 കുഴപ്പമില്ലാ	-0.1823
-4.1101 കുഴപ്പമൊന്നും	-0.2759
-4.1101 കുഴപ്പമൊന്നുമില്ലല്ലോ	-0.0573
-4.4112 കുഴപ്പമൊന്നുമില്ലായെന്ന്	-0.0576
-4.4112 കുഴപ്പമൊന്നുമുണ്ടാവില്ലാ	0.0358
-4.4112 കുഴപ്പവുമില്ല	0.0358
-4.4112 കുഴിമാടങ്ങളിലും	-0.0575
-4.4112 കുസൃതി	-0.0577
-4.4112 കുർത്ത	-0.0554
-4.4112 കൂടാതെ	-0.0554
-4.4112 കൂടാരം	-0.0577
-4.4112 കൂടാരത്തിനടുത്തു	-0.0573
-3.2350 കൂടി	-0.1784
-4.4112 കൂടിപോയെന്നാണ്	-0.0575
-4.4112 കൂടിയാ	0.0358
-4.4112 കൂടിയിട്ടുണ്ട്	-0.0570
-4.4112 കൂടിയെടുക്ക്	0.0358
-4.4112 കൂടിയെന്ന്	0.0358
-4.4112 കൂടുതലാണെന്ന്	-0.0577
-3.9340 കൂടുതലാണ്	-0.2594
-4.4112 കൂടുതലും	-0.0577
-3.3319 കൂടുതല്‍	0.0082
-3.1101 കൂടെ	-0.0091
-4.1101 കൂടെയാണോ	0.0359
-4.4112 കൂടെയാണ്	-0.0514
-4.4112 കൂടെയൊക്കെ	-0.0576
-4.4112 കൂട്	-0.0577
-4.4112 കൂട്ടത്തിൽ	-0.0575
-4.4112 കൂട്ടരേ	0.0358
-4.4112 കൂട്ടല്ലേ	0.0358
-4.1101 കൂട്ടാളി	0.0363
-4.4112 കൂട്ടി	-0.0576
-4.4112 കൂട്ടികിട്ടണം	0.0358
-4.4112 കൂട്ടിയാണോ	-0.0576
-4.4112 കൂട്ടിവയ്ക്കാം	0.0358
-4.4112 കൂട്ടുകാരന്‍	-0.0577
-4.4112 കൂട്ടുകാരേ	0.0358
-4.4112 കൂട്ടുകാർ	-0.0575
-4.4112 കൂട്ടുകൾ	0.0358
-4.4112 കൂട്ടുന്നതിനെ	-0.0577
-4.4112 കൂട്ടൂ	0.0358
-3.4569 കൂപര്‍	-0.1880
-4.1101 കൂപേർ	-0.0543
-3.9340 കൂപ്	-0.0962
-2.7483 കൂപ്പര്‍	-0.2449
-4.4112 കൂപ്പറിനെ	-0.0577
-4.4112 കൂപ്പറിനോട്	-0.0577
-4.4112 കൂപ്പറിന്റേതുമല്ല	0.0358
-3.5660 കൂപ്പ്	-0.1105
-4.4112 കൃത്യമായി	-0.0542
-4.4112 കൃത്യസമയത്ത്	0.0358
-4.4112 കൃത്രിമമായി	-0.0577
-3.7121 കൃഷി	-0.0523
-4.4112 കൃഷിക്കാര്‍	-0.0576
-4.4112 കെട്ടടങ്ങും	0.0358
-4.4112 കെട്ടിക്കൊണ്ടായിരുന്നു	0.0358
-4.4112 കെട്ടിടം	-0.0576
-4.4112 കെട്ടിപ്പടുത്തു	0.0358
-4.4112 കെട്ടിയിട്ടില്ലട്ടോ	0.0358
-4.4112 കെട്ടിറങ്ങാനാണ്	0.0358
-4.4112 കെട്ടുപാടുകള്‍	-0.0576
-4.4112 കൊടുത്തു	0.0358
-4.4112 കൊല്ലാന്‍	-0.0577
-4.1101 കൊള്ളാം	-0.1824
-4.4112 കേക്കുണ്ടാക്കുകയാണോ	0.0358
-4.1101 കേക്ക്	0.0359
-4.4112 കേടാണ്	0.0358
-4.4112 കേടായി	0.0358
-4.4112 കേടായിട്ടില്ല	0.0358
-4.4112 കേടായിപ്പോയിപൊട്ടി	0.0358
-4.4112 കേടാവും	0.0358
-4.1101 കേടുവന്ന	-0.0576
-4.4112 കേട്ടതിന്	-0.0575
-4.4112 കേട്ടത്	-0.0574
-4.4112 കേട്ടല്ലോ	0.0358
-4.4112 കേട്ടാലേ	-0.0576
-4.4112 കേട്ടിട്ടുണ്ട്	0.0358
-4.1101 കേട്ടു	0.0368
-3.5080 കേട്ടോ	-0.9065
-4.4112 കേട്ട്	-0.0575
-4.4112 കേന്ദ്രത്തിൽ	-0.0572
-4.4112 കേബേജ്	-0.0568
-4.4112 കേറി	0.0358
-4.4112 കേറിക്കഴിയുമ്പോള്‍	-0.0573
-4.1101 കേറ്	0.0372
-4.4112 കേള്‍ക്കാന്‍	-0.0577
-3.9340 കേള്‍ക്കാമോ	-0.2594
-4.4112 കേള്‍ക്കുന്നുണ്ടാവില്ല	0.0358
-4.1101 കേള്‍ക്കുന്നുണ്ടോ	-0.1824
-4.1101 കേള്‍ക്കൂ	-0.1824
-4.4112 കേവലം	-0.0575
-3.8090 കേസ്	0.0365
-4.1101 കോളനി	-0.0576
-4.1101 കേൾക്കാൻ	-0.0575
-4.1101 കേൾക്കും	-0.1824
-4.4112 കേൾക്കുന്നില്ല	0.0358
-4.4112 കേൾക്കുന്നുണ്ടോ	0.0358
-3.9340 കേൾക്ക്	-0.2594
-4.4112 കൈ	-0.0537
-4.4112 കൈകളും	-0.0577
-3.9340 കൈകാര്യം	-0.0572
-4.1101 കൈകൊണ്ട്	0.0359
-4.4112 കൈമാറുന്നു	0.0358
-4.4112 കൈമാറ്റം	-0.0574
-4.4112 കൈയ്യിലുണ്ട്	0.0358
-3.7121 കൈയ്യില്‍	-0.0532
-4.4112 കൈയ്യിൽതന്നെ	0.0358
-4.4112 കൈയ്യീന്ന്	-0.0577
-4.4112 കൈവരിച്ചിരിക്കുന്നു	0.0358
-4.4112 കൈവിടരുത്	0.0358
-3.7121 കൊച്ചു	-0.0574
-4.4112 കൊച്ചുകള്ളാ	0.0358
-4.4112 കൊച്ച്	-0.0576
-4.4112 കൊടും	-0.0576
-4.4112 കൊടുക്കണം	0.0358
-4.1101 കൊടുക്കാം	-0.1824
-4.4112 കൊടുക്കാനോ	0.0358
-4.4112 കൊടുക്കാൻ	-0.0576
-4.4112 കൊടുക്കുന്ന	-0.0575
-4.4112 കൊടുക്കുവാൻ	-0.0575
-4.4112 കൊടുക്കൂ	0.0358
-4.4112 കൊടുക്കേണ്ടേ	0.0358
-4.4112 കൊടുക്ക്	0.0358
-4.4112 കൊടുത്തതാണ്	-0.0577
-4.4112 കൊടുത്തില്ലാ	0.0358
-4.4112 കൊടുത്തു	0.0358
-4.4112 കൊടുത്തുവിടുക	0.0358
-4.4112 കൊടുത്തൂക്കൂടാ	0.0358
-4.4112 കൊട്ടാരം	0.0358
-4.4112 കൊണ്ടാണെന്നാണ്	0.0358
-4.4112 കൊണ്ടാണ്	0.0358
-4.4112 കൊണ്ടാവണം	-0.0576
-4.4112 കൊണ്ടിരിക്കുകയാണ്	0.0358
-4.4112 കൊണ്ടിരുന്നത്	0.0358
-3.7121 കൊണ്ടു	-0.0573
-4.4112 കൊണ്ടുപോകാം	-0.0566
-4.1101 കൊണ്ടുപോകും	-0.1824
-4.4112 കൊണ്ടുപോകുമായിരുന്നു	0.0358
-4.4112 കൊണ്ടുപോയി	0.0358
-4.4112 കൊണ്ടുപോവാം	-0.0576
-4.4112 കൊണ്ടുവച്ചതാണ്	0.0358
-4.1101 കൊണ്ടുവന്നത്	-0.1824
-4.4112 കൊണ്ടുവന്നിരിക്കുന്നത്	0.0358
-4.4112 കൊണ്ടുവന്നു	0.0358
-4.1101 കൊണ്ടുവരാം	0.0368
-4.4112 കൊണ്ടുവരാൻ	-0.0576
-4.4112 കൊണ്ടുവരുന്നത്	0.0358
-3.1323 കൊണ്ട്	-0.0322
-4.4112 കൊതി	0.0358
-4.4112 കൊന്നേനെ	0.0358
-4.4112 കൊമേഴ്സിൽ	-0.0577
-4.1101 കൊയ്ത്തുയന്ത്രം	-0.0576
-4.4112 കൊറിയോഗ്രഫി	-0.0576
-4.4112 കൊല്ലങ്ങളായി	-0.0576
-4.4112 കൊല്ലങ്ങളായുള്ള	-0.0577
-4.4112 കൊല്ലങ്ങൾ	-0.0577
-4.4112 കൊല്ലങ്ങൾക്ക്	0.0358
-4.4112 കൊല്ലത്തോളം	0.0358
-4.4112 കൊല്ലാൻ	-0.0577
-4.4112 കൊല്ലുകയെന്നത്	0.0358
-4.4112 കൊള്ളണം	0.0358
-3.7121 കൊള്ളാം	-0.0382
-4.4112 കൊള്ളാമെന്ന്	0.0358
-4.4112 കൊൽക്കത്തയിൽ	-0.0577
-4.4112 കോക്ക്ട്ടൈലിലെ	-0.0577
-4.4112 കോക്ക്ട്ടൈൽ	-0.0577
-4.4112 കോട്ടിട്ടയാളാരാണ്	0.0358
-4.4112 കോഡില്‍	-0.0575
-4.4112 കോഡുകൾ	-0.0571
-4.4112 കോണ്‍ഫറൻസ്	-0.0577
-4.4112 കോണ്‍വെന്‍റിലെ	0.0358
-4.4112 കോപൈലറ്റ്	-0.0553
-4.4112 കോപ്പര്‍	-0.0577
-4.4112 കോഫി	-0.0577
-4.4112 കോമാളി	-0.0569
-4.4112 കോമ്പസ്	-0.0577
-4.1101 കോളനി	0.0359
-4.4112 കോളേജിനെ	-0.0576
-4.4112 കോളേജിന്‍റെ	-0.0575
-4.4112 കോളേജിലാണോ	0.0358
-4.4112 കോളേജിലേക്ക്	-0.0576
-4.4112 കോളേജില്‍	-0.0577
-4.4112 കോളേജിൽ	-0.0576
-4.4112 കോളേജ്	-0.0577
-4.4112 കോവന്‍ട്രിയില്‍	-0.0577
-3.8090 ക്യാമറ	-0.0575
-4.4112 ക്യാമറകളിലൊന്ന്	0.0358
-4.4112 ക്യാമ്പും	-0.0577
-4.4112 ക്യൂ	-0.0576
-4.1101 ക്രമീകരണം	-0.0573
-4.4112 ക്രാബ്	-0.0577
-4.4112 ക്രിസ്റ്റലുകളായി	-0.0573
-4.1101 ക്രിസ്റ്റീന	0.0359
-4.4112 ക്രൂ	-0.0567
-4.4112 ക്രൂരനാണ്	0.0358
-4.4112 ക്രൂരന്‍	0.0358
-4.4112 ക്രോണ്‍	0.0358
-4.1101 ക്രോസ്	0.0360
-4.4112 ക്ലബ്ബിലുണ്ട്	0.0358
-4.4112 ക്ലബ്ബിൽ	-0.0577
-4.4112 ക്ലാസ്സ്‌	-0.0573
-4.4112 ക്ലീനര്‍	-0.0577
-4.4112 ക്ലോക്കുകളും	0.0358
-4.4112 ക്ലോക്കുകളുടെ	-0.0573
-3.9340 ക്ലോക്കുകള്‍	0.0364
-4.4112 ക്ലോക്കുണ്ടാക്കുന്നവരാണല്ലോ	-0.0573
-4.1101 ക്ലോക്ക്	-0.1824
-4.4112 ക്ലോക്ക്ഷോപ്പിലേയും	0.0358
-4.4112 ക്ലോഡിനെ	-0.0576
-3.7121 ക്ലോഡ്	0.0405
-4.4112 ക്ലോറിന്‍	-0.0577
-4.1101 ക്ലോസ്‌	-0.0575
-3.8090 ക്ഷമ	0.0359
-4.4112 ക്ഷമചോദിക്കുന്നു	0.0358
-4.4112 ക്ഷമയോടെ	-0.0576
-3.2070 ക്ഷമിക്കണം	-0.2784
-4.4112 ക്ഷമിക്കാനിപ്പോ	-0.0577
-4.4112 ക്ഷമിക്കുമെന്ന്	-0.0576
-4.4112 ക്ഷമിക്കുമോ	0.0358
-4.4112 ക്ഷമിക്കൂ	0.0358
-4.4112 ക്ഷമിക്ക്	0.0358
-4.4112 ക്ഷാമം	0.0358
-4.4112 ക്ഷീണിതയായിരിക്കുന്നു	-0.0574
-4.4112 ക്ഷീരപഥത്തില്‍	0.0358
-4.4112 കൗണ്ടറിന്‍റെ	-0.0577
-4.4112 കർഷകരെയാണ്	0.0358
-4.4112 കർഷകൻ	0.0358
-3.9340 ഖേദിക്കുന്നു	-0.0891
-3.9340 ഗംഭീരം	-0.0968
-4.4112 ഗന്ധമുണ്ടോ	0.0358
-4.1101 ഗര്‍ഗാന്റ്വ	-0.0576
-4.4112 ഗര്‍ഭപാത്ത്രത്തോടെ	-0.0573
-4.4112 ഗര്‍ഭിണിയായിരുന്നു	0.0358
-4.4112 ഗസ്റ്റ്	-0.0577
-4.4112 ഗാലക്സിയിലെക്ക്	0.0358
-4.4112 ഗാലക്സിയിൽ	-0.0574
-4.4112 ഗിയര്‍	-0.0577
-4.4112 ഗിയറിലെക്കിട്	0.0358
-4.4112 ഗിയറുകള്‍	0.0358
-3.5080 ഗുഡ്	-0.2488
-4.4112 ഗുഡ്ബൈ	0.0358
-4.4112 ഗുപ്ചുപ്	-0.0575
-4.4112 ഗുപ്ത	-0.0577
-4.4112 ഗുരുതരമായി	0.0358
-4.4112 ഗുരുത്വബലം	-0.0573
-3.9340 ഗുരുത്വാകര്‍ഷണ	-0.0969
-3.2350 ഗുരുത്വാകര്‍ഷണം	-0.0817
-4.1101 ഗുരുത്വാകര്‍ഷണത്തിന്	0.0359
-4.4112 ഗുരുത്വാകര്‍ഷണത്തിലേയ്ക്	-0.0576
-4.4112 ഗുരുത്വാകര്‍ഷണത്തില്‍	-0.0574
-4.4112 ഗുരുത്വാകര്‍ഷണത്തെപ്പറ്റി	0.0358
-4.4112 ഗുരുത്വാകര്‍ഷണമാണ്	0.0358
-4.4112 ഗുരുത്വാകർഷണത്തെപ്പറ്റിയുള്ള	0.0358
-4.4112 ഗുരുത്വാകർഷണമായിരുന്നു	0.0358
-4.4112 ഗുളികകൾ	0.0358
-3.9340 ഗുസ്താവ്	-0.0572
-4.4112 ഗോഡ്ഫാദറാകുന്നതില്‍	0.0358
-4.1101 ഗോതമ്പ്	-0.0576
-4.4112 ഗോര്‍ദനില്‍	-0.0575
-4.4112 ഗോര്‍ദന്‍	0.0358
-4.4112 ഗോളം	0.0358
-4.4112 ഗോവ	-0.0574
-4.4112 ഗോവയിലേക്കാവും	-0.0577
-4.4112 ഗോവയിൽ	-0.0577
-4.4112 ഗോൽഗപ്പയെന്നാണ്	-0.0576
-3.7121 ഗോൽഗപ്പാ	-0.0571
-4.4112 ഗ്യാലക്സിയിലേയ്ക്ക്	0.0358
-3.7121 ഗ്രഹം	-0.0338
-4.4112 ഗ്രഹങ്ങളിലും	0.0358
-4.4112 ഗ്രഹങ്ങൾ	0.0358
-4.4112 ഗ്രഹണം	-0.0575
-4.4112 ഗ്രഹണപഥത്തിൽ	-0.0576
-4.4112 ഗ്രഹത്തിനെക്കുറിച്ച്	-0.0573
-4.4112 ഗ്രഹത്തിനെപ്പറ്റിയോര്‍ത്ത്	0.0358
-3.9340 ഗ്രഹത്തിന്റെ	-0.0576
-4.4112 ഗ്രഹത്തിലെ	-0.0574
-4.4112 ഗ്രഹത്തിലെത്തിക്കും	0.0358
-4.1101 ഗ്രഹത്തിലേയ്ക്	-0.0575
-4.4112 ഗ്രഹത്തില്‍	-0.0576
-4.4112 ഗ്രഹത്തിൽ	-0.0577
-3.9340 ഗ്രഹമാണ്	0.0365
-4.4112 ഗ്രഹമില്ല	0.0358
-4.4112 ഗ്രേഡ്	-0.0576
-4.4112 ഗ്ലാസുകൊണ്ടുണ്ടാക്കിയത്	0.0358
-4.4112 ഗ്ലാസ്സും	-0.0577
-4.4112 ഗ്ലാസ്സോ	-0.0577
-4.4112 ഗർഗാഞ്ചുവ	0.0358
-4.4112 ഗർഗാഞ്ചുവക്ക്	-0.0576
-4.4112 ഘടകങ്ങള്‍	0.0358
-4.4112 ഘടികാരങ്ങളിലാണ്	0.0358
-4.4112 ഘടികാരങ്ങള്‍	-0.0574
-4.1101 ഘട്ട	-0.0576
-4.4112 ഘട്ടം	0.0358
-4.4112 ങേ	-0.0576
-4.4112 ചക്കരേ	0.0358
-4.4112 ചക്രവാളത്തിനപ്പുറം	-0.0577
-4.1101 ചക്രവാളത്തിനുമപ്പുറം	-0.1824
-4.4112 ചക്രവാളത്തിലാണോ	0.0358
-4.4112 ചങ്ങാതിയെ	-0.0577
-4.4112 ചന്തമുണ്ട്	0.0358
-4.4112 ചന്ദ്രനിൽ	-0.0577
-4.4112 ചന്ദ്രന്റെ	-0.0577
-4.4112 ചരിഞ്ഞിറങ്ങുന്നു	0.0358
-4.4112 ചരിത്രത്തിലെ	-0.0575
-4.4112 ചരിത്രത്തെ	-0.0577
-4.4112 ചര്‍ച്ച	-0.0575
-4.4112 ചര്‍മ്മപോലെ	-0.0577
-4.1101 ചലച്ചിത്ര	-0.0576
-4.4112 ചലനം	-0.0574
-4.4112 ചലനത്തിനൊപ്പം	0.0358
-4.1101 ചലിക്കുന്ന	-0.0576
-4.4112 ചവിട്ടി	0.0358
-4.4112 ചവിട്ടുന്നത്	0.0358
-4.4112 ചവിട്ടുന്നുണ്ട്	0.0358
-4.1101 ചാമ്പ്	-0.0541
-3.8090 ചായ	0.0363
-4.4112 ചായയൊക്കെകുടിക്കാം	-0.0572
-4.4112 ചായ്ക്കാൻ	-0.0574
-4.4112 ചാരവും	0.0358
-4.4112 ചാര്‍ജുണ്ടോ	-0.0576
-4.4112 ചാവി	0.0358
-4.4112 ചാർജാണ്	0.0358
-4.4112 ചാർജിംഗിലല്ല	-0.0576
-4.4112 ചിക്കൻ	-0.0577
-4.1101 ചിത്രം	0.0359
-4.4112 ചിത്രങ്ങളില്‍	0.0358
-4.4112 ചിത്രങ്ങളുണ്ട്	-0.0575
-3.9340 ചിത്രങ്ങൾ	-0.0565
-4.4112 ചിത്രികരണം	-0.0576
-4.4112 ചിത്രികരണങ്ങളിൽ	-0.0542
-3.9340 ചിന്തിക്കണം	-0.2594
-4.4112 ചിന്തിക്കു	0.0358
-4.4112 ചിന്തിക്കുന്നതിനു	-0.0576
-4.4112 ചിന്തിക്കുന്നതിലും	-0.0576
-4.4112 ചിന്തിക്കുന്നത്	-0.0564
-4.1101 ചിന്തിക്കുന്നു	-0.1824
-4.4112 ചിന്തിക്കുന്നുണ്ടല്ലേ	0.0358
-4.4112 ചിന്തിക്കൂ	0.0358
-4.4112 ചിന്തിക്കേണ്ടതാണ്	0.0358
-4.4112 ചിന്തിച്ചതാണ്	0.0358
-4.1101 ചിന്തിച്ചു	0.0360
-4.4112 ചിന്തിച്ചോ	0.0358
-4.4112 ചിന്തിച്ച്	-0.0577
-3.8090 ചിന്‍റു	-0.0589
-4.4112 ചിന്‍റുനീ	-0.0572
-4.4112 ചിന്‍റുവിനെ	-0.0573
-4.4112 ചിന്‍റുവിനെയും	-0.0573
-4.4112 ചിന്‍റുവിനെയൊക്കെ	-0.0576
-4.4112 ചിന്‍റുവിന്	-0.0575
-4.1101 ചിന്‍റുവും	-0.0536
-4.4112 ചിന്‍റുസുഖമല്ലേ	-0.0576
-4.4112 ചിപ്പിയില്‍	-0.0574
-3.8090 ചിരി	0.0363
-4.4112 ചിരിക്കാന്‍	-0.0577
-4.4112 ചിറകുകള്‍	0.0358
-3.2350 ചില	0.0141
-4.4112 ചിലകാര്യങ്ങള്‍	-0.0576
-3.8090 ചിലതൊക്കെ	0.0362
-3.9340 ചിലത്	-0.0576
-3.7121 ചിലപ്പോള്‍	0.0362
-4.1101 ചിലപ്പോൾ	-0.0551
-4.4112 ചിലരെയൊക്കെ	-0.0575
-4.4112 ചിലവഴിക്കുന്ന	0.0358
-4.4112 ചിലവാക്കണം	0.0358
-4.4112 ചിലവാക്കുകയെ	-0.0577
-4.4112 ചിലസമയങ്ങളിൽ	0.0358
-4.4112 ചില്ലുകൊണ്ട്	-0.0576
-4.4112 ചീട്ടിലൊന്ന്	-0.0577
-4.1101 ചീട്ട്	-0.1824
-4.4112 ചീസാണ്തക്കാളികഴിച്ചോളു	0.0358
-4.4112 ചീസ്പാകം	-0.0576
-3.9340 ചുംബനം	-0.0968
-4.4112 ചുംബനമാണ്	-0.0575
-4.4112 ചുട്ടത്	0.0358
-4.1101 ചുണ്ടോട്ചുണ്ട്	-0.0576
-4.4112 ചുമ	-0.0576
-4.4112 ചുമരില്‍	-0.0555
-4.4112 ചുമർകൊള്ളാം	0.0358
-4.4112 ചുരുങ്ങിയത്	-0.0537
-4.1101 ചുരുട്ട്	-0.0576
-4.4112 ചുരുളും	-0.0576
-4.4112 ചുറ്റികറങ്ങലെല്ലാം	-0.0576
-4.4112 ചുറ്റികറങ്ങിയോ	0.0358
-4.4112 ചുറ്റികാണ്	0.0358
-4.4112 ചുറ്റിവരുകയാണ്	-0.0577
-4.4112 ചുറ്റിസഞ്ചരിക്കുന്നു	0.0358
-3.7121 ചുറ്റും	-0.0523
-4.1101 ചുറ്റുമുള്ള	0.0359
-4.4112 ചുറ്റുമ്പോള്‍	0.0358
-4.4112 ചുറ്റുമ്പോൾ	0.0358
-4.4112 ചുറ്റൽ	-0.0577
-4.4112 ചുഴി	-0.0577
-4.4112 ചുവടുകള്‍	-0.0577
-4.4112 ചുവടുകൾ	-0.0575
-4.4112 ചുവരിലും	-0.0577
-4.4112 ചൂടാവുന്നു	0.0358
-4.4112 ചൂടിലാണ്	0.0358
-4.4112 ചൂട്	-0.0577
-4.4112 ചെക്കാ	0.0358
-3.8090 ചെക്ക്‌	-0.0575
-4.4112 ചെക്കൻമാരും	-0.0564
-4.4112 ചെന്നായ	0.0358
-4.4112 ചെന്നെത്തിയാലോ	0.0358
-4.4112 ചെമ്മീനുകളും	-0.0577
-4.4112 ചെമ്മീന്‍	-0.0577
-4.4112 ചെയറിൽ	-0.0577
-4.4112 ചെയുന്നു	0.0358
-4.4112 ചെയുമ്പോൾ	-0.0575
-4.4112 ചെയ്ത	0.0358
-3.5660 ചെയ്തത്	-0.2860
-4.4112 ചെയ്തല്ലോ	0.0358
-4.4112 ചെയ്താൽ	-0.0514
-4.4112 ചെയ്തിട്ടല്ല	0.0358
-4.4112 ചെയ്തിട്ടില്ലാ	0.0358
-4.4112 ചെയ്തിട്ടുണ്ടെങ്കിൽ	0.0358
-3.8090 ചെയ്തിട്ടുണ്ട്	-0.1643
-4.4112 ചെയ്തിരിക്കുക	0.0358
-3.9340 ചെയ്തിരിക്കുന്നു	-0.0968
-4.4112 ചെയ്തിരിക്കുയാണ്	0.0358
-4.1101 ചെയ്തിരുന്നത്	-0.1824
-4.4112 ചെയ്തിരുന്നില്ല	0.0358
-4.4112 ചെയ്തിരുന്നു	0.0358
-4.1101 ചെയ്തില്ല	-0.1824
-4.1101 ചെയ്തില്ലേ	-0.1824
-3.2070 ചെയ്തു	-0.4113
-4.4112 ചെയ്തുകൂടെ	0.0358
-4.4112 ചെയ്തുകൊണ്ടിരിക്കുന്നതും	0.0358
-4.4112 ചെയ്തുകൊണ്ടിരുന്നത്	0.0358
-4.1101 ചെയ്തേ	0.0359
-3.9340 ചെയ്തോ	-0.0968
-4.1101 ചെയ്തോളാം	-0.1824
-3.5080 ചെയ്ത്	-0.0451
-4.4112 ചെയ്യട്ടെ	0.0358
-3.5080 ചെയ്യണം	-0.9065
-4.4112 ചെയ്യണമെങ്കിൽ	0.0358
-4.4112 ചെയ്യണമെന്നാണ്	0.0358
-4.4112 ചെയ്യണോ	0.0358
-3.9340 ചെയ്യരുത്	-0.0559
-4.4112 ചെയ്യല്ലേ	0.0358
-3.3697 ചെയ്യാം	-0.7416
-4.4112 ചെയ്യാനറിയാം	-0.0573
-3.6329 ചെയ്യാനാണ്	-0.5611
-4.4112 ചെയ്യാനായേക്കും	0.0358
-4.4112 ചെയ്യാനാവില്ല	0.0358
-4.4112 ചെയ്യാനാവും	0.0358
-4.4112 ചെയ്യാനാവുന്നില്ല	0.0358
-4.4112 ചെയ്യാനാവുമോ	0.0358
-4.4112 ചെയ്യാനും	0.0358
-4.4112 ചെയ്യാനുണ്ട്	0.0358
-4.4112 ചെയ്യാനുള്ള	-0.0576
-4.4112 ചെയ്യാനുള്ളത്	0.0358
-3.9340 ചെയ്യാന്‍	-0.0574
-3.4569 ചെയ്യാൻ	-0.0564
-4.4112 ചെയ്യിക്കുകയാണെന്നാ	-0.0575
-4.4112 ചെയ്യിച്ചുകൊണ്ടിരുന്നത്	0.0358
-4.4112 ചെയ്യില്ലേ	0.0358
-3.4569 ചെയ്യും	-0.9641
-4.4112 ചെയ്യുക	0.0358
-4.4112 ചെയ്യുകയാണ്	0.0358
-4.4112 ചെയ്യുകാ	0.0358
-4.4112 ചെയ്യുന്നതുപോലും	0.0358
-4.4112 ചെയ്യുന്നതെന്ന്	-0.0577
-3.1101 ചെയ്യുന്നത്	-0.6574
-3.5080 ചെയ്യുന്നു	-0.2297
-4.4112 ചെയ്യുന്നുണ്ട്	0.0358
-4.1101 ചെയ്യുമോ	-0.1824
-4.4112 ചെയ്യുവാ	0.0358
-4.4112 ചെയ്യൂ	0.0358
-4.4112 ചെയ്യേണ്ട	0.0358
-4.4112 ചെയ്യേണ്ടതെന്നറിയില്ല	-0.0574
-4.4112 ചെയ്യേണ്ടത്	0.0358
-4.1101 ചെയ്യേണ്ടി	-0.0572
-3.6329 ചെയ്യ്‌	-0.3740
-4.1101 ചെയ്‌താൽ	0.0362
-3.3319 ചെറിയ	0.0066
-4.4112 ചെറു	-0.0577
-4.4112 ചെറുക്കനെവിടെയാണെന്ന്	-0.0576
-4.1101 ചെറുക്കാ	0.0370
-4.4112 ചെറുതാണെന്ന്	0.0358
-4.1101 ചെറുതായിട്ട്	-0.1824
-4.4112 ചെറുതായിരുന്നപ്പോള്‍	0.0358
-4.4112 ചെറുതായിരുന്നു	-0.0577
-4.4112 ചെറുത്	-0.0577
-4.4112 ചെറുപ്പക്കാരന്	-0.0577
-4.4112 ചെറുപ്പമല്ലെന്ന്	-0.0577
-4.4112 ചെറുപ്പമാണ്	0.0358
-4.4112 ചെറ്റേ	0.0358
-4.4112 ചെലവഴിക്കാൻ	-0.0576
-4.4112 ചെലവാക്കുന്നതിനോട്	-0.0577
-4.4112 ചെലവും	-0.0564
-4.4112 ചെലവേറിയതാണ്	0.0358
-4.4112 ചെല്ലാന്‍	-0.0575
-4.4112 ചെല്ല്	-0.0576
-4.4112 ചൊവ്വയിലേക്ക്	-0.0576
-3.5660 ചേച്ചി	-0.4082
-4.4112 ചേച്ചികരയുന്നത്	0.0358
-4.4112 ചേച്ചിയാണ്	0.0358
-4.4112 ചേച്ചിയുടെ	-0.0576
-4.4112 ചേച്ചിയോട്	-0.0553
-4.4112 ചേട്ടന്	-0.0577
-4.4112 ചേട്ടന്‍	-0.0577
-4.4112 ചേട്ടാ	-0.0537
-4.4112 ചേമ്പറില്‍	-0.0574
-4.1101 ചേരില്ലാ	-0.1824
-4.4112 ചേരും	0.0358
-4.4112 ചേരുന്നില്ല	0.0358
-4.4112 ചേരുന്നില്ലാ	0.0358
-4.1101 ചേരുന്നുണ്ട്	-0.1824
-4.4112 ചേരുവകൾ	0.0358
-4.4112 ചേര്‍ക്കല്‍	0.0358
-4.4112 ചേര്‍ക്കാനുള്ള	-0.0576
-3.7121 ചേര്‍ക്കാന്‍	-0.2100
-4.4112 ചേര്‍ക്കുന്നു	0.0358
-4.4112 ചേര്‍ത്തുവെച്ചോ	0.0358
-4.4112 ചേര്‍ത്തുവെയ്കുന്നതോരോന്നും	0.0358
-4.4112 ചേര്‍ത്തോ	-0.0577
-4.4112 ചേര്‍ന്നു	-0.0569
-4.4112 ചേർക്കണം	0.0358
-4.4112 ചേർക്കാം	0.0358
-4.4112 ചേർത്തുണ്ടാക്കുന്നതാണ്	0.0358
-4.4112 ചേർന്നിരുന്നു	0.0358
-4.4112 ചേർന്നോളു	0.0358
-4.4112 ചൈനീസാണ്	-0.0576
-3.9340 ചൈനീസ്	0.0363
-4.4112 ചൊല്ലിത്തരട്ടെ	0.0358
-4.4112 ചൊല്ലിയിരുന്നോ	0.0358
-4.4112 ചോദിക്കട്ടേ	0.0358
-4.4112 ചോദിക്കാനാണ്	0.0358
-4.4112 ചോദിക്കും	0.0358
-4.4112 ചോദിക്കുകയാണെങ്കിൽ	0.0358
-4.4112 ചോദിക്കുന്നു	0.0358
-4.4112 ചോദിച്ചിരുന്നു	0.0358
-4.4112 ചോദിച്ചു	-0.0573
-4.4112 ചോദ്യങ്ങൾക്ക്	-0.0576
-4.4112 ചോയ്സ്	-0.0570
-4.4112 ചോള	-0.0576
-4.1101 ചോളം	-0.0576
-4.4112 ചോളവും	-0.0577
-4.4112 ച്ചിത്രം	-0.0577
-3.7121 ചർച്ചിലേക്ക്	-0.0384
-4.4112 ചർച്ചിൽ	-0.0577
-4.4112 ചർച്ച്	0.0358
-4.4112 ചർദ്ധിക്കുന്നു	0.0358
-4.4112 ഛര്‍ദ്ദിക്കാൻ	-0.0576
-4.4112 ജനങ്ങളുടെ	0.0358
-4.4112 ജനങ്ങളെ	-0.0577
-4.4112 ജനങ്ങളോട്	-0.0577
-4.1101 ജനങ്ങള്‍ക്ക്	-0.0537
-4.4112 ജനങ്ങൾക്ക്	-0.0575
-4.4112 ജനത	0.0358
-4.4112 ജനപ്രീതി	-0.0577
-4.4112 ജനറേറ്ററുണ്ട്	0.0358
-4.4112 ജനലിന്‍റെ	-0.0577
-4.1101 ജനസംഖ്യ	-0.0576
-4.4112 ജനാലകൾ	-0.0577
-4.4112 ജനിക്കേണ്ടവനായിരുന്നു	0.0358
-4.1101 ജനിച്ചത്	0.0362
-4.4112 ജനിതക	-0.0577
-4.4112 ജപ്പാനീസ്	-0.0576
-4.4112 ജപ്പാൻ	0.0358
-4.4112 ജയിച്ചു	0.0358
-4.4112 ജയിലിൽ	-0.0577
-4.4112 ജലം	-0.0577
-4.4112 ജലമാണ്	0.0358
-4.4112 ജാഗ്രതയ്കുള്ള	-0.0577
-4.4112 ജാർഗണ്ടിലും	-0.0577
-4.4112 ജിപിസും	-0.0576
-4.4112 ജിലേബി	-0.0574
-4.4112 ജീത്	-0.0576
-4.4112 ജീന്‍	-0.0577
-4.4112 ജീവജാലങ്ങള്‍ക്ക്	-0.0571
-4.4112 ജീവനില്ല	-0.0577
-4.4112 ജീവനോടെ	-0.0576
-4.1101 ജീവന്റെ	-0.0576
-4.4112 ജീവന്‍	-0.0577
-4.4112 ജീവശാസ്ത്ര	-0.0577
-4.4112 ജീവികളാണ്	0.0358
-4.4112 ജീവിക്കണം	0.0358
-4.1101 ജീവിക്കാനുള്ള	-0.0575
-4.4112 ജീവിക്കുക	0.0358
-4.4112 ജീവിക്കുന്നതായിരുന്നു	-0.0575
-4.4112 ജീവിക്കുന്നതെന്ന്	0.0358
-4.4112 ജീവിക്കുന്നുമുണ്ട്	0.0358
-4.4112 ജീവിച്ചിരിക്കുന്നെന്നോ	0.0358
-4.1101 ജീവിച്ചിരിപ്പുണ്ടോ	-0.1824
-4.4112 ജീവിച്ചിരുന്നതിൽ	-0.0575
-4.4112 ജീവിച്ചിരുന്നത്	0.0358
-4.4112 ജീവിച്ചു	0.0358
-3.9340 ജീവിതം	-0.0969
-4.4112 ജീവിതകാലയളവിനും	0.0358
-4.4112 ജീവിതത്തിൽ	-0.0577
-4.4112 ജീവിതത്തെ	-0.0576
-4.4112 ജീവിതത്തെപ്പറ്റി	0.0358
-4.4112 ജീവിതവും	-0.0577
-4.4112 ജീവൻറിക്കി	0.0358
-4.4112 ജീൻസിന്‍റെയും	-0.0577
-4.1101 ജൂള്‍സ്	-0.0576
-4.4112 ജെസ്സി	-0.0576
-4.4112 ജെസ്സിയും	-0.0576
-4.1101 ജെസ്സിയുടെയും	-0.0573
-4.4112 ജേനിനോട്	-0.0577
-4.1101 ജേനും	0.0362
-4.4112 ജേനുമായി	-0.0567
-4.1101 ജേന്‍	-0.0563
-4.4112 ജോടിയല്ലാത്തതാണ്	0.0358
-4.4112 ജോലി	-0.0574
-4.4112 ജൈവകങ്ങളെ	-0.0576
-4.4112 ജോര്‍ജസിനെ	0.0358
-4.4112 ജോര്‍ജസിനെപ്പോലെ	0.0358
-4.4112 ജോര്‍ജസിന്റെ	-0.0573
-3.7121 ജോര്‍ജസ്	-0.0382
-4.4112 ജോര്‍ജിനെ	-0.0554
-3.8090 ജോര്‍ജിന്റെ	-0.0575
-4.4112 ജോര്‍ജും	-0.0575
-3.5660 ജോര്‍ജ്	-0.1673
-3.5660 ജോലി	-0.0570
-4.4112 ജോലിക്കാരിയാണ്	0.0358
-4.4112 ജോലിക്കാർ	-0.0577
-4.4112 ജോലിക്കിവിടെ	0.0358
-4.4112 ജോലിക്ക്	-0.0576
-4.4112 ജോലിയാണ്	0.0358
-3.9340 ജോലിയുണ്ട്	-0.2594
-4.4112 ജോലിയെയൊള്ളൂ	0.0358
-4.4112 ജ്യൂസ്‌	0.0358
-4.4112 ജ്വലനം	0.0358
-4.4112 ജ്വലിക്കണം	0.0358
-4.4112 ജ്വലിക്കുന്നതു	0.0358
-4.4112 ജ്വലിക്കുന്നില്ല	0.0358
-4.4112 ജ്വാലയെ	-0.0577
-4.4112 ഞങ്ങക്കായി	-0.0577
-4.4112 ഞങ്ങടെ	-0.0577
-4.4112 ഞങ്ങളാ	-0.0577
-4.4112 ഞങ്ങളിങ്ങോട്ട്	-0.0576
-4.1101 ഞങ്ങളിതാ	-0.0575
-4.1101 ഞങ്ങളും	-0.0576
-3.4111 ഞങ്ങളുടെ	-0.0566
-4.4112 ഞങ്ങളുണ്ട്	0.0358
-3.5660 ഞങ്ങളെ	-0.0574
-4.1101 ഞങ്ങളെപ്പോളും	0.0359
-4.4112 ഞങ്ങളെല്ലാം	-0.0577
-4.1101 ഞങ്ങളോട്	-0.0572
-4.4112 ഞങ്ങള്ക്ക്	-0.0577
-2.9797 ഞങ്ങള്‍	-0.0262
-4.4112 ഞങ്ങള്‍ക്കുണ്ടായിരുന്നതെല്ലാതും	-0.0577
-4.4112 ഞങ്ങള്‍ക്കുവേണ്ടി	-0.0576
-4.1101 ഞങ്ങള്‍ക്കൊരു	-0.0576
-3.4569 ഞങ്ങള്‍ക്ക്	0.0013
-2.9340 ഞങ്ങൾ	-0.0987
-4.4112 ഞങ്ങൾക്കിവരുടെ	-0.0577
-4.4112 ഞങ്ങൾക്കു	-0.0574
-3.8090 ഞങ്ങൾക്ക്	-0.0525
-4.4112 ഞണ്ടും	0.0358
-4.4112 ഞണ്ട്	-0.0571
-4.4112 ഞനിതിൽനിന്നും	-0.0577
-4.1101 ഞാനങ്ങനെ	-0.0569
-4.4112 ഞാനതറിഞ്ഞു	-0.0571
-4.4112 ഞാനതിനനുസരിച്ച്	-0.0577
-4.1101 ഞാനതിനെ	-0.0576
-4.4112 ഞാനതിപ്പോഴും	-0.0576
-4.1101 ഞാനതില്‍	-0.0567
-4.1101 ഞാനതു	-0.0574
-3.6329 ഞാനത്	0.0365
-4.4112 ഞാനത്തരം	-0.0577
-4.4112 ഞാനദ്ദേഹത്തെ	-0.0576
-4.4112 ഞാനറിഞ്ഞു	0.0358
-4.4112 ഞാനല്ല	0.0358
-4.4112 ഞാനല്ലെന്നു	-0.0573
-4.1101 ഞാനവനെ	-0.0573
-4.4112 ഞാനവനോട്	-0.0576
-4.4112 ഞാനവരോട്	-0.0572
-4.4112 ഞാനവിടുന്ന്	0.0358
-4.4112 ഞാനാ	-0.0577
-3.9340 ഞാനാണ്	-0.0576
-4.4112 ഞാനാദ്യം	-0.0576
-4.1101 ഞാനായിരുന്നു	-0.0563
-4.4112 ഞാനാരാണ്	0.0358
-4.4112 ഞാനിതാ	-0.0576
-3.9340 ഞാനിതിന്റെ	-0.0573
-4.1101 ഞാനിതുവരെ	-0.0574
-3.8090 ഞാനിത്	-0.0542
-4.4112 ഞാനിന്നു	-0.0566
-3.9340 ഞാനിപ്പോള്‍	-0.0572
-4.4112 ഞാനില്ലാതെ	-0.0565
-3.5080 ഞാനിവിടെ	-0.0564
-4.4112 ഞാനിവിടെയുണ്ട്	-0.0576
-4.4112 ഞാനീ	-0.0576
-3.4111 ഞാനും	-0.0843
-4.4112 ഞാനുണ്ടാക്കിയ	-0.0574
-4.4112 ഞാനുണ്ടായി	0.0358
-4.1101 ഞാനുമായി	-0.0537
-4.4112 ഞാനുമായിരിക്കില്ല	-0.0566
-4.1101 ഞാനെങ്ങനെ	-0.0575
-4.4112 ഞാനെങ്ങനെയാ	-0.0577
-4.4112 ഞാനെങ്ങനെയാണ്	-0.0577
-4.4112 ഞാനെങ്ങോട്ടും	-0.0576
-4.4112 ഞാനെടുത്തോളാം	0.0358
-4.4112 ഞാനെത്തി	0.0358
-4.4112 ഞാനെന്താ	-0.0569
-3.7121 ഞാനെന്താണ്	-0.0573
-4.4112 ഞാനെന്തായാലും	-0.0577
-4.4112 ഞാനെന്തു	-0.0575
-4.4112 ഞാനെന്ത്	-0.0576
-4.4112 ഞാനെന്നും	-0.0569
-3.8090 ഞാനെന്റെ	-0.0575
-4.1101 ഞാനെന്‍റെ	-0.0575
-4.4112 ഞാനെപ്പോഴും	-0.0577
-4.4112 ഞാനെല്ലാ	-0.0574
-4.4112 ഞാനേറ്റു	0.0358
-4.4112 ഞാനൊന്നും	-0.0577
-4.4112 ഞാനൊന്ന്	-0.0577
-4.4112 ഞാനൊരിക്കലും	-0.0577
-3.2650 ഞാനൊരു	0.0376
-4.1101 ഞാനോ	-0.1824
-1.8464 ഞാന്‍	-0.0202
-4.4112 ഞെരുങ്ങുകയും	0.0358
-4.4112 ടബാര്‍ഡിനെ	-0.0577
-4.4112 ടബാര്‍ഡിനെക്കൊണ്ട്	-0.0557
-3.8090 ടബാര്‍ഡ്	-0.0536
-3.8090 ടയര്‍	-0.1823
-4.4112 ടവറാണ്	0.0358
-4.4112 ടവറിന്‍റെ	-0.0575
-4.4112 ടവറും	-0.0575
-3.9340 ടവർ	0.0359
-3.7121 ടാക്ക	0.0383
-4.4112 ടാക്കക്ക്	-0.0577
-4.4112 ടാക്കജപ്പാനിൽ	-0.0575
-4.1101 ടാക്സി	0.0359
-4.4112 ടാങ്കുകൾ	-0.0576
-2.8796 ടാര്‍‌സ്	-0.1086
-4.4112 ടിംഫ്രാൻസിൽ	-0.0575
-4.4112 ടികിടാക്കയോചില്ലി	-0.0577
-4.4112 ടിക്കറ്റും	-0.0577
-4.1101 ടിക്കറ്റ്‌	-0.1824
-4.4112 ടിന്നിൽ	-0.0569
-4.4112 ടിവി	-0.0577
-4.4112 ടിഷർട്ടാണ്	-0.0577
-4.4112 ടീം	-0.0577
-4.4112 ടീമാണ്	-0.0575
-4.4112 ടുഡയമൻഷനിൽ	-0.0576
-4.4112 ടുഡയമൻഷൻ	-0.0577
-4.4112 ടുവിൽ	-0.0577
-4.4112 ടൂട്ടോറിയലിൽ	-0.0577
-4.4112 ടൂട്ടോറിയിലാണ്	0.0358
-4.1101 ടെല്ലി	-0.0576
-4.4112 ടെൻഷനായോ	0.0358
-4.1101 ടോം	-0.0573
-4.4112 ടൈപ്പ്	-0.0576
-4.4112 ടോപ്‌	-0.0577
-4.4112 ടോമിനെ	-0.0576
-3.9340 ടോമിന്‍റെ	-0.0576
-4.4112 ടോയ്ബൂത്തിലാണ്	-0.0577
-4.4112 ടോസ്റ്റ്‌	0.0358
-4.4112 ടൌണിലേക്ക്	-0.0577
-4.4112 ട്രക്കിൽ	0.0358
-4.1101 ട്രക്ക്	-0.0514
-4.4112 ട്രയിനില്‍	-0.0577
-4.4112 ട്രാക്കിലൊരു	-0.0575
-4.1101 ട്രാക്കില്‍	-0.2719
-4.4112 ട്രാക്ടര്‍	-0.0576
-4.4112 ട്രാജഡിയാണിത്‌	0.0358
-4.4112 ട്രാജഡിയായിപ്പോയി	0.0358
-4.4112 ട്രാന്‍സ്മിറ്ററുകള്‍	0.0358
-4.4112 ട്രാന്‍സ്മിറ്റിര്‍	-0.0573
-4.4112 ട്രാൻസ്മിഷൻ	-0.0576
-4.4112 ട്രിക്ക്	-0.0574
-4.4112 ട്രെയിനിന്	-0.0576
-3.5080 ട്രെയിന്‍	-0.1527
-4.4112 ട്രെഷര്‍	-0.0577
-4.4112 ഡഗ്ലസ്	-0.0577
-4.4112 ഡയമനുള്ള	-0.0577
-4.4112 ഡയമെൻഷനാണ്	0.0358
-4.4112 ഡയമൻഷനിൽ	0.0358
-4.4112 ഡയമൻഷനു	-0.0577
-3.4569 ഡാഡി	-0.0760
-3.9340 ഡാഡിക്ക്	-0.0535
-4.4112 ഡാഡിയല്ല	-0.0573
-4.4112 ഡാഡിയും	0.0358
-4.4112 ഡാഡിയുടെ	-0.0577
-3.5660 ഡാഡ്	-0.1127
-4.4112 ഡാഡ്‌	-0.0553
-4.4112 ഡാറ്റ	-0.0577
-4.4112 ഡാറ്റാ	-0.0577
-3.8090 ഡാഷ്	-0.1823
-4.4112 ഡാഷ്ഡാഷ്	0.0358
-4.4112 ഡാഷ്ഡാഷ്ഡാഷ്	0.0358
-4.4112 ഡാഷ്ഡോട്ട്	0.0358
-4.4112 ഡാൻസിന്‍റെ	-0.0577
-4.4112 ഡാൻസും	-0.0577
-3.5080 ഡാൻസ്	0.0372
-4.1101 ഡാർലിംഗ്	0.0359
-4.4112 ഡിക്കിയില്‍	-0.0577
-4.4112 ഡിഗ്രി	-0.0576
-4.4112 ഡിഗ്രിയുമുണ്ട്	0.0358
-4.4112 ഡിമെന്‍ഷനില്‍	0.0358
-4.4112 ഡിമെന്‍ഷനുകള്‍ക്കപ്പുറത്തെത്താനാകും	0.0358
-4.1101 ഡിയര്‍	0.0362
-3.8090 ഡൊണാൾഡ്	-0.0498
-4.4112 ഡേവിഡ്	-0.0577
-3.9340 ഡോ	-0.0576
-4.4112 ഡോക്ടർ	-0.0577
-4.4112 ഡോമാന്	-0.0559
-3.9340 ഡോയൽ	0.0388
-4.4112 ഡോറുകൾ	-0.0577
-3.1101 ഡോ	-0.5563
-4.4112 ഡോക്ടര്‍ക്ക്	-0.0576
-4.4112 ഡോക്ടർ	-0.0577
-4.4112 ഡോഗ്	-0.0572
-4.4112 ഡോട്ട്ഡാഷ്ഡോട്ട്ഡോട്ട്	0.0358
-4.4112 ഡോട്ട്ഡോട്ട്	0.0358
-4.4112 ഡോട്ട്ഡോട്ട്ഡാഷ്ഡോട്ട്	0.0358
-4.4112 ഡോണാള്‍ഡ്	-0.0572
-4.4112 ഡോണാൾഡ്	0.0358
-4.4112 ഡോബ്രാന്റ്	-0.0577
-4.4112 ഡോബ്രാൻഡിനെ	-0.0575
-4.1101 ഡോബ്രാൻഡ്‌	0.0360
-4.4112 ഡോമാനിന്റടുത്തേയ്ക്	-0.0576
-4.4112 ഡോമാന്സിന്റെ	-0.0573
-4.4112 ഡോമാന്സിന്റെയും	-0.0577
-4.4112 ഡോമാൻസിന്റെതിനെക്കളും	0.0358
-4.4112 ഡോയലിനോട്	-0.0576
-4.4112 ഡോയലിന്	-0.0577
-3.6329 ഡോയൽ	-0.0228
-4.4112 ഡോളി	-0.0569
-3.8090 ഡ്രസ്സ്‌	-0.0467
-4.4112 ഡ്രാഗണിന്റെ	-0.0576
-4.1101 ഡ്രാമാമൈൻ	-0.0573
-4.4112 ഡ്രൈവിങ്ങല്ല	0.0358
-4.1101 ഡ്രൈവ്	-0.0575
-4.1101 ഡ്രോണ്‍	-0.2754
-4.4112 ഡൽഹി	-0.0576
-4.4112 ഡൽഹിയിലാണ്	0.0358
-4.1101 ഡൽഹിയിലെ	-0.0576
-4.4112 ഡൽഹിയിലേക്ക്	-0.0576
-4.4112 ഡൽഹിയിലോട്ട്	-0.0575
-3.7121 ഡൽഹിയിൽ	-0.2095
-4.4112 തകരുന്നതിനു	0.0358
-4.4112 തകര്ന്നു	-0.0577
-4.4112 തകർച്ച	-0.0576
-4.4112 തകർച്ചയെ	-0.0577
-4.4112 തകർച്ചയെക്കുറിച്ച്‌	-0.0576
-4.4112 തകർത്തു	-0.0569
-4.4112 തകർന്ന	0.0358
-4.4112 തകർന്നു	-0.0576
-4.4112 തടയാനാവില്ല	0.0358
-4.4112 തടയാന്‍	-0.0577
-4.4112 തടയുന്നത്	0.0358
-4.4112 തടയ്	-0.0576
-4.4112 തടസ്സം	-0.0577
-4.4112 തടസ്സപ്പെടുത്തി	0.0358
-4.4112 തടാകത്തിന്‍റെ	0.0358
-4.4112 തടി	-0.0577
-4.4112 തടിച്ച	-0.0537
-4.4112 തടിച്ചത്	-0.0574
-4.4112 തട്ടി	-0.0577
-4.4112 തട്ടിന്‍പുറത്ത്	0.0358
-4.4112 തട്ടിപ്പായിരുന്നു	0.0358
-4.4112 തണുത്ത	-0.0576
-4.1101 തണുത്തതാണ്	-0.1824
-4.4112 തണുത്തുറഞ്ഞ	-0.0577
-4.4112 തണുപ്പുണ്ടോ	0.0358
-4.4112 തണുപ്പൊന്നുമില്ലാ	0.0358
-4.4112 തണുപ്പോ	-0.0577
-4.4112 തണുപ്പ്	-0.0577
-4.4112 തനിയെ	-0.0577
-4.4112 തന്തുക്കള്‍	0.0358
-4.4112 തന്ത്രം	0.0358
-4.4112 തന്നത്	0.0358
-4.1101 തന്നത്താന്‍	-0.0574
-4.4112 തന്നാൽ	-0.0576
-4.4112 തന്നിട്ടുണ്ട്	0.0358
-3.9340 തന്നില്ല	-0.2594
-3.9340 തന്നു	-0.2594
-4.4112 തന്നൂടെ	0.0358
-2.7579 തന്നെ	-0.1927
-3.8090 തന്നെയല്ലേ	-0.1647
-4.4112 തന്നെയാണല്ലോ	0.0358
-4.1101 തന്നെയാണോ	0.0359
-3.9340 തന്നെയാണ്	0.0383
-4.4112 തന്നെയാവും	0.0358
-4.4112 തന്നെയുണ്ടാവും	0.0358
-4.4112 തന്റെ	-0.0577
-4.4112 തന്റേയും	-0.0577
-4.4112 തപ്പിനോക്കിയിരുന്നു	0.0358
-3.6329 തമാശ	-0.0890
-4.1101 തമാശകളറിയാം	0.0369
-4.4112 തമാശക്കാരാണോ	0.0358
-4.4112 തമാശയാണല്ലേ	0.0358
-4.4112 തമാശയായാൽ	-0.0577
-4.4112 തമാശയാവും	0.0358
-4.4112 തമാശിക്കുകയല്ല	0.0358
-3.6329 തമോഗര്‍ത്തം	0.0419
-4.4112 തമോഗര്‍ത്തത്തിനു	-0.0576
-4.4112 തമോഗര്‍ത്തത്തിന്റെ	0.0358
-4.1101 തമോഗര്‍ത്തത്തിലേയ്ക്	-0.0576
-4.4112 തമോഗര്‍ത്തത്തില്‍	-0.0576
-4.4112 തമോഗര്‍ത്തത്തെ	-0.0577
-4.4112 തമോഗര്‍ത്തമാണ്	0.0358
-4.4112 തമ്മിലോ	0.0358
-3.8090 തമ്മിൽ	-0.1522
-4.4112 തയാറാവു	0.0358
-4.4112 തയാറാവുന്നു	0.0358
-4.4112 തയ്യാര്‍	0.0358
-4.4112 തയ്യാറല്ലായിരുന്നു	0.0358
-3.9340 തയ്യാറല്ലേ	-0.2594
-4.4112 തയ്യാറാകൂ	0.0358
-4.4112 തയ്യാറാക്	0.0358
-4.4112 തയ്യാറാക്കുക	0.0358
-4.1101 തയ്യാറാണെന്ന്	-0.1824
-4.1101 തയ്യാറാണോ	-0.1824
-4.4112 തയ്യാറാണ്	0.0358
-4.4112 തയ്യാറായാൽ	-0.0514
-4.4112 തയ്യാറായിട്ടുണ്ട്	0.0358
-4.4112 തയ്യാറായിരിക്കുന്നു	0.0358
-4.4112 തയ്യാറായിരുന്നു	0.0358
-4.4112 തയ്യാറാവു	0.0358
-4.4112 തയ്യാറെടുക്കുകയായിരിക്കും	-0.0574
-4.4112 തയ്യാറെടുക്കുന്നു	0.0358
-4.1101 തയ്യാറെടുത്തോളൂ	-0.1824
-4.4112 തരം	-0.0577
-4.4112 തരംഗദൈര്‍ഘ്യത്തിലും	-0.0577
-4.4112 തരട്ടേ	0.0358
-3.5660 തരാം	-0.7830
-4.4112 തരാനാണ്	-0.0574
-4.4112 തരാമെന്ന്	-0.0577
-3.9340 തരാൻ	0.0362
-4.4112 തരിക	0.0358
-4.1101 തരികയുള്ളൂ	-0.1824
-4.4112 തരികള്‍	0.0358
-4.1101 തരില്ല	-0.1824
-4.4112 തരിശാണ്	0.0358
-4.1101 തരു	-0.1824
-4.1101 തരും	-0.1824
-4.4112 തരുകയാണോ	0.0358
-4.1101 തരുകയാണ്‌	0.0363
-4.4112 തരുന്ന	-0.0576
-4.4112 തരുന്നതിനെപ്പറ്റി	0.0358
-4.1101 തരുന്നു	-0.1824
-4.4112 തരുന്നുണ്ട്	0.0358
-4.4112 തരുമെന്ന്	-0.0549
-4.4112 തരുമോ	0.0358
-3.4569 തരൂ	-0.9479
-4.4112 തരേണ്ട	-0.0576
-4.4112 തരേണ്ട്	0.0358
-4.4112 തറച്ചു	-0.0576
-4.4112 തറയ്ക്കുന്നത്	0.0358
-3.8090 തല	-0.0576
-4.4112 തലച്ചോറിലെ	-0.0577
-4.4112 തലമാണ്	-0.0553
-4.4112 തലമുറ	-0.0576
-4.4112 തലയണ	-0.0576
-4.4112 തലവന്മാരെയും	-0.0573
-4.4112 തലേന്നെന്താണ്	0.0358
-4.4112 തല്‍കിയത്	0.0358
-4.4112 തളിക്കാനുണ്ട്	0.0358
-4.1101 തള്ളി	-0.0576
-3.5080 തവണ	0.0380
-4.4112 തവണയല്ലല്ലോ	-0.0564
-4.4112 തവണയാണ്	-0.0577
-4.4112 തവണയും	-0.0576
-4.1101 തവണവരെ	-0.0576
-3.8090 താ	-0.2785
-3.9340 താക്കോല്‍	-0.0560
-4.4112 താക്കോല്‍ദ്വാരം	0.0358
-4.4112 താക്കോൽ	-0.0564
-4.1101 താങ്കളുടെ	-0.0576
-4.4112 താങ്കളെ	-0.0577
-4.4112 താങ്കളെപ്പറ്റി	0.0358
-4.1101 താങ്കള്‍	0.0359
-3.8090 താങ്കള്‍ക്ക്	-0.0574
-4.4112 താങ്കൾ	-0.0576
-4.4112 താതാപര്യമുണ്ടോ	0.0358
-4.1101 താന്‍	-0.0576
-4.4112 താപകവചമില്ല	0.0358
-4.1101 താമസം	0.0359
-4.4112 താമസിക്കാനാവില്ല	0.0358
-4.4112 താമസിക്കാനാവുന്ന	-0.0537
-4.4112 താമസിക്കാൻ	0.0358
-4.4112 താമസിക്കില്ലാ	0.0358
-4.4112 താമസിക്കുന്നതെന്ന്	0.0358
-3.9340 താമസിക്കുന്നത്	-0.2594
-4.4112 താമസിച്ചോളൂ	0.0358
-4.4112 താരതമ്യം	-0.0575
-4.4112 താരതമ്യേന	-0.0537
-4.4112 താല്പര്യമുണ്ടന്നല്ലാ	0.0358
-4.4112 താല്പര്യമുണ്ടായിരുന്നില്ല	0.0358
-4.4112 താല്‍പര്യമില്ല	0.0358
-3.5660 താഴെ	0.0360
-4.4112 താഴെയിട്ടു	0.0358
-4.4112 താഴെയെത്താൻ	-0.0576
-3.9340 താഴേക്ക്	-0.0575
-4.4112 താഴേയ്ക്	-0.0577
-4.1101 താഴോട്ട്	-0.0574
-4.4112 താഴ്ത്തിയിടണം	0.0358
-4.4112 താഴ്ന്ന്	-0.0577
-4.4112 താവളം	-0.0577
-4.4112 താൽപര്യത്തിലാണ്	0.0358
-4.4112 താൽപര്യമാണല്ലോ	0.0358
-4.4112 തികച്ചും	-0.0576
-4.4112 തികഞ്ഞ	-0.0576
-4.4112 തിട്ടയില്‍	0.0358
-4.4112 തിന്ത	-0.0577
-4.4112 തിയറി	-0.0576
-4.4112 തിര	-0.0575
-4.4112 തിരകളാണ്	0.0358
-4.4112 തിരക്കു	-0.0577
-4.4112 തിരക്ക്	-0.0577
-4.1101 തിരഞ്ഞു	-0.1824
-4.4112 തിരഞ്ഞുകൊണ്ടിരിക്കുകയായിരുന്നു	0.0358
-4.4112 തിരഞ്ഞെടുക്കല്‍	0.0358
-4.4112 തിരഞ്ഞെടുക്കേണ്ടതുണ്ട്	0.0358
-4.1101 തിരഞ്ഞെടുത്തത്	0.0362
-3.8090 തിരഞ്ഞെടുത്തു	-0.0570
-4.4112 തിരഞ്ഞെടുത്തെന്നാണ്	-0.0514
-4.4112 തിരയണമെന്ന്	-0.0577
-4.4112 തിരയയുകയായിരുന്നു	0.0358
-4.4112 തിരയുകയാണോ	0.0358
-4.4112 തിരയുന്നുണ്ടാകും	0.0358
-4.4112 തിരശ്ശീലയുള്ള	-0.0537
-3.5660 തിരികെ	-0.0572
-4.4112 തിരിക്കരുത്	0.0358
-4.4112 തിരിക്കാന്‍	-0.0577
-4.4112 തിരിക്കുന്നതിനുമുമ്പ്	-0.0569
-4.4112 തിരിക്കൽ	0.0358
-4.4112 തിരിചെത്തു	-0.0577
-4.4112 തിരിച്ചറിയുന്നു	-0.0576
-4.4112 തിരിച്ചറിയൂ	0.0358
-3.0494 തിരിച്ചു	-0.1498
-4.4112 തിരിച്ചുപോകുന്നതിനുള്ള	-0.0576
-4.4112 തിരിച്ചുപോണോ	0.0358
-4.4112 തിരിച്ചുപോവണം	0.0358
-4.4112 തിരിച്ചുവന്നില്ലെങ്കില്‍	-0.0577
-4.4112 തിരിച്ചുവന്നു	-0.0542
-4.4112 തിരിച്ചുവരാതിരിക്കുന്നതോ	0.0358
-4.4112 തിരിച്ചുവരാനായി	0.0358
-4.4112 തിരിച്ചുവരാന്‍	-0.0576
-4.4112 തിരിച്ചുവരും	0.0358
-4.4112 തിരിച്ചുവരുമെന്ന്	-0.0576
-4.4112 തിരിച്ചുവരുമ്പോള്‍	0.0358
-4.4112 തിരിച്ചുവേണം	0.0358
-4.4112 തിരിച്ചെത്തു	0.0358
-4.4112 തിരിച്ചെത്തുന്നത്	0.0358
-3.2650 തിരിച്ച്	-0.1055
-4.4112 തിരിഞ്ഞുവെന്ന്	-0.0575
-4.4112 തിരിയുന്ന	-0.0574
-4.4112 തിരുത്തി	-0.0575
-4.4112 തിരുത്തിയതോ	0.0358
-4.1101 തീ	-0.0576
-4.1101 തീയതി	-0.1824
-4.4112 തീയറ്റര്‍	-0.0576
-4.4112 തീയറ്ററും	-0.0577
-4.4112 തീയേറ്റര്‍	-0.0576
-4.4112 തീയേറ്ററില്‍	-0.0549
-4.4112 തീരുന്നതിന്	-0.0577
-4.1101 തീരുമാനം	0.0359
-4.4112 തീരുമാനമാകും	-0.0577
-4.4112 തീരുമാനമായിരുന്നില്ല	0.0358
-4.4112 തീരുമാനവുമായി	-0.0577
-4.4112 തീരുമാനിക്കാം	-0.0576
-4.4112 തീരുമാനിക്കും	0.0358
-4.4112 തീരുമാനിച്ചതാണ്	0.0358
-4.1101 തീരുമാനിച്ചു	-0.1824
-4.1101 തീരെ	-0.0576
-4.1101 തീര്ച്ചയായും	0.0359
-4.4112 തീര്‍ക്കാനായിരുന്നു	0.0358
-4.4112 തീര്‍ക്കാനുണ്ടായിരുന്നു	0.0358
-4.4112 തീര്‍ക്ക്	0.0358
-3.8090 തീര്‍ച്ചയായും	0.0364
-4.4112 തീര്‍ത്തും	-0.0577
-4.4112 തീര്‍ന്നിട്ടില്ല	0.0358
-4.4112 തീര്‍ന്നു	0.0358
-4.4112 തീര്‍ന്നോ	-0.0574
-4.4112 തീവണ്ടി	-0.0577
-4.1101 തീർച്ചയായും	-0.0576
-4.4112 തീർന്നിരിക്കുന്നു	0.0358
-4.4112 തുക	-0.0572
-4.4112 തുടക്കം	-0.0573
-4.4112 തുടക്കത്തില്‍	-0.0572
-4.4112 തുടങ്ങട്ടെ	0.0358
-4.4112 തുടങ്ങണമെന്ന്	0.0358
-4.4112 തുടങ്ങാം	0.0358
-4.4112 തുടങ്ങാനുള്ളതാണ്	0.0358
-3.7121 തുടങ്ങി	-0.1947
-4.4112 തുടങ്ങിക്കോ	0.0358
-4.4112 തുടങ്ങിക്കോളൂ	0.0358
-4.4112 തുടങ്ങിയതല്ല	0.0358
-4.4112 തുടങ്ങിയതില്‍	-0.0576
-3.6329 തുടങ്ങിയത്	-0.5534
-4.4112 തുടങ്ങിയാല്‍	0.0358
-4.4112 തുടങ്ങിയിടത്തുതന്നെ	-0.0577
-4.1101 തുടങ്ങിയിട്ട്	-0.1824
-4.4112 തുടങ്ങിയിരുന്നു	0.0358
-4.4112 തുടങ്ങിയോ	0.0358
-4.4112 തുടങ്ങും	0.0358
-4.4112 തുടങ്ങുന്നതിന്	-0.0575
-4.4112 തുടങ്ങുവാൻ	-0.0575
-4.4112 തുടങ്ങൂ	0.0358
-4.4112 തുടങ്ങേടോ	0.0358
-4.4112 തുടങ്ങേണ്ടത്	0.0358
-4.4112 തുടരാനാണ്	-0.0542
-4.4112 തുടര്‍ന്നാല്‍	0.0358
-4.4112 തുണി	-0.0577
-4.4112 തുണികള്‍	0.0358
-4.4112 തുരുമ്പെടുത്തിരിക്കുന്നു	0.0358
-3.9340 തുറക്കരുത്	-0.0891
-4.1101 തുറക്കാം	-0.1824
-4.4112 തുറക്കാനാവില്ല	0.0358
-4.4112 തുറക്കു	-0.0576
-3.6329 തുറക്ക്	-0.2591
-4.4112 തുറന്നാല്‍	0.0358
-4.4112 തുറന്നു	-0.0575
-4.4112 തുറന്നുകൊണ്ടാണ്	0.0358
-4.4112 തുലയെടാ	0.0358
-4.4112 തൂക്കം	0.0358
-4.4112 തൃപ്തികരമാണ്	0.0358
-4.4112 തെന്നി	-0.0577
-4.4112 തെമ്മാടിക്ക്	-0.0514
-4.4112 തെരയുകയായിരുന്നു	0.0358
-4.4112 തെരുവിന്‍റെ	-0.0557
-4.4112 തെറ്റ	-0.0577
-4.4112 തെറ്റാകാനും	-0.0574
-4.4112 തെറ്റാണെന്നല്ല	0.0358
-4.4112 തെറ്റാണെന്ന്	-0.0575
-3.7121 തെറ്റായ	-0.0574
-4.4112 തെറ്റായി	-0.0577
-4.4112 തെറ്റായിരുന്നു	-0.0573
-4.4112 തെറ്റിദ്ധരിച്ചു	0.0358
-4.4112 തെറ്റിപ്പോയി	0.0358
-4.4112 തെറ്റിയെങ്കില്‍	-0.0567
-4.1101 തെറ്റുകൾ	-0.0576
-4.4112 തെറ്റൊക്കെ	-0.0577
-4.4112 തെറ്റ്	-0.0574
-4.4112 തെളിയിക്കണം	0.0358
-3.9340 തെളിയിക്കാന്‍	0.0359
-4.4112 തെളിയിക്ക്	0.0358
-4.4112 തെളിയിച്ചാലും	-0.0577
-4.4112 തെളിയിച്ചിരുന്നു	0.0358
-4.4112 തെളിവുകള്‍	0.0358
-3.9340 തൊണ്ണൂറു	-0.1902
-4.4112 തേജസ്സുള്ളതാണ്	0.0358
-4.1101 തേനിൽ	-0.0569
-4.4112 തോന്നുന്നില്ല	0.0358
-4.4112 തോന്നുന്നു	0.0358
-4.4112 തൊടൂ	-0.0576
-4.4112 തൊട്ടിട്ടില്ല	0.0358
-4.4112 തൊട്ടുപുറം	-0.0576
-4.4112 തൊട്ടുമുമ്പാണ്	0.0358
-4.4112 തൊപ്പി	-0.0577
-4.4112 തൊപ്പിയാണ്‌	0.0358
-4.4112 തൊലയെടാ	0.0358
-4.4112 തൊഴിലല്ല	-0.0575
-4.4112 തൊഴില്‍	-0.0576
-4.4112 തോട്ടുപുറത്ത്	0.0358
-4.4112 തോന്നല്‍	0.0358
-3.7121 തോന്നി	-0.1948
-4.4112 തോന്നിയതുകൊണ്ടാണ്	0.0358
-4.1101 തോന്നിയത്	0.0372
-4.4112 തോന്നിയപ്പോള്‍	0.0358
-4.4112 തോന്നിയിട്ടില്ല	0.0358
-4.4112 തോന്നിയിരുന്നില്ലാ	0.0358
-3.4111 തോന്നുന്നത്	-0.1563
-4.1101 തോന്നുന്നില്ല	-0.1824
-4.4112 തോന്നുന്നില്ലാ	0.0358
-4.4112 തോന്നുന്നില്ലേ	0.0358
-3.2972 തോന്നുന്നു	-1.1102
-4.4112 തോന്നുന്നുണ്ടാവും	0.0358
-4.1101 തോന്നുന്നുണ്ടോ	-0.1824
-4.4112 തോമോട്രോപ്പിലോ	-0.0577
-4.4112 ത്യാഗം	-0.0573
-4.4112 ത്യാഗമാണ്	-0.0571
-4.4112 ത്രത്തോളം	-0.0576
-4.4112 ത്രസ്ട്ടെർസ്	-0.0576
-4.4112 ത്രസ്റ്റർ	-0.0574
-4.4112 ത്രിമാനഡയമൻഷൻ	-0.0576
-4.4112 ത്രീഡയമൻഷനിൽ	-0.0576
-4.4112 ത്രീഡയമൻഷൻ	-0.0577
-4.4112 ത്വരയാണ്	-0.0569
-4.4112 ദയയുണ്ടായിരുന്നില്ല	0.0358
-3.5080 ദയവായി	-0.0032
-3.9340 ദയവു	-0.3528
-3.5660 ദയവുചെയ്ത്	-0.0159
-4.1101 ദയവ്	-0.2758
-4.4112 ദരിദ്രനായ	-0.0577
-4.4112 ദശകമോ	-0.0577
-4.4112 ദശാബ്ദമായി	-0.0577
-4.4112 ദസ്തേ	-0.0576
-3.9340 ദാ	-0.0571
-4.1101 ദി	-0.0576
-4.4112 ദിനം	-0.0576
-4.4112 ദിപ്പം	-0.0575
-3.1558 ദിവസം	-0.0300
-4.4112 ദിവസങ്ങളില്‍	-0.0571
-4.4112 ദിവസങ്ങളിൽ	-0.0576
-4.1101 ദിവസങ്ങള്‍ക്കകം	-0.0572
-4.1101 ദിവസത്തിനു	-0.2757
-4.4112 ദിവസത്തിൽ	-0.0577
-4.4112 ദിവസത്തെ	-0.0577
-3.7121 ദിൻഗ്രാ	-0.1160
-4.4112 ദീപിനേയും	-0.0577
-4.4112 ദീര്‍ഘകാലത്തേക്കുള്ള	-0.0577
-4.4112 ദുഖിക്കുകയാണ്	0.0358
-4.4112 ദുര്‍ബലമാണ്	0.0358
-3.7121 ദൂരം	-0.0566
-4.4112 ദൂരത്തിനും	-0.0577
-4.1101 ദൂരെ	0.0364
-4.4112 ദൂരെനിന്നും	-0.0576
-4.4112 ദൃശ്യമാകുന്നു	0.0358
-4.4112 ദൌത്യത്തില്‍	-0.0577
-4.4112 ദേ	-0.0577
-4.4112 ദേവതകളേ	0.0358
-4.4112 ദേവതകള്‍	-0.0577
-4.4112 ദേഷ്യം	0.0358
-4.4112 ദേഷ്യത്തിലാണ്	0.0358
-4.4112 ദേഹത്തേക്ക്	-0.0577
-4.1101 ദൈവം	-0.0575
-3.9340 ദൈവമേ	-0.2594
-4.4112 ദൈവമേഞാന്‍	-0.0576
-4.4112 ദോഷക്കരനാണോ	0.0358
-3.8090 ദൌത്യം	-0.0576
-4.4112 ദൌത്യത്തിന്	-0.0576
-4.4112 ദൌത്യത്തിന്ന്	-0.0537
-4.4112 ദ്രവിച്ച	-0.0577
-4.4112 ദ്രവ്യം	0.0358
-3.8090 ദൗത്യം	0.0365
-4.4112 ദൗത്യങ്ങളിലാണ്	-0.0555
-4.4112 ദൗത്യത്തിലൂടെ	-0.0575
-4.4112 ദൗത്യമുണ്ട്	0.0358
-4.4112 ദർശനത്തിന്	-0.0577
-4.4112 ധരിക്കുക	0.0358
-4.4112 ധരിക്കുന്നതെന്ന്	0.0358
-4.4112 ധരിക്കുമായിരുന്നു	0.0358
-4.4112 ധരിച്ചിരിക്കുന്നത്	0.0358
-4.4112 ധരിച്ചിരുന്നത്	0.0358
-4.4112 ധരിച്ചിരുന്നു	0.0358
-4.4112 ധരിച്ചു	0.0358
-4.4112 ധാരണ	-0.0577
-4.1101 ധാരാളം	0.0360
-4.4112 ധീരതയെ	0.0358
-4.4112 ധീരനായ	-0.0537
-4.4112 ധീരന്മാരായ	-0.0577
-4.1101 ധൈര്യം	-0.0576
-4.4112 ധൈര്യമായിരിക്കണം	0.0358
-4.1101 ധൈര്യമായിരിക്കൂ	-0.1824
-4.4112 ധൈര്യശാലിയുമാണ്	0.0358
-4.4112 നക്ഷത്രം	-0.0577
-4.4112 നക്ഷത്രങ്ങളിലും	-0.0577
-4.4112 നക്ഷത്രങ്ങളിലേക്ക്	-0.0575
-4.4112 നക്ഷത്രങ്ങളില്‍	-0.0569
-4.4112 നക്ഷത്രങ്ങൾ	0.0358
-4.4112 നക്ഷത്രങ്ങൾക്ക്	0.0358
-4.4112 നക്ഷത്രാന്തര	-0.0577
-4.4112 നഗര്‍	-0.0571
-4.4112 നഗറിലും	-0.0575
-4.4112 നഗ്നമായ	0.0358
-4.1101 നഗർ	0.0359
-4.4112 നടക്കാണോ	0.0358
-4.4112 നടക്കാറുണ്ട്	0.0358
-4.4112 നടക്കില്ല	-0.0576
-4.4112 നടക്കില്ലല്ലോ	0.0358
-4.1101 നടക്കില്ലാ	-0.1824
-4.1101 നടക്കും	0.0359
-4.4112 നടക്കുന്നതെന്ന്	-0.0577
-3.8090 നടക്കുന്നത്	-0.2785
-4.4112 നടക്കുന്നില്ല	0.0358
-4.4112 നടക്കുമോ	0.0358
-4.4112 നടക്കൂ	0.0358
-4.4112 നടക്കേണ്ടതായിരുന്നു	0.0358
-4.4112 നടക്ക്	0.0358
-4.4112 നടത്താനാവില്ല	0.0358
-4.4112 നടത്താനും	0.0358
-4.4112 നടത്താന്‍	-0.0577
-4.4112 നടത്തിയ	0.0358
-4.4112 നടത്തിയത്	0.0358
-3.9340 നടത്തിയിട്ടുണ്ട്	-0.2594
-4.4112 നടത്തും	0.0358
-4.4112 നടത്തുകയും	0.0358
-4.4112 നടത്തുന്ന	-0.0577
-4.4112 നടന്ന	-0.0577
-4.4112 നടന്നതിൽ	-0.0576
-4.4112 നടന്നില്ലെങ്ങിൽ	-0.0573
-4.4112 നടന്നില്ലെന്ന്	-0.0514
-3.7121 നടന്നു	0.0363
-4.4112 നടാമായിരുന്നു	0.0358
-4.4112 നടിയായിരുന്നു	0.0358
-4.4112 നടുക്കമായിരുന്നു	0.0358
-4.4112 നടുവിലാണ്	0.0358
-4.4112 നദി	-0.0576
-4.4112 നനഞ്ഞ	-0.0577
-3.3697 നന്ദി	-0.1800
-4.4112 നന്ദിയുണ്ട്	0.0358
-4.4112 നന്ദിറോഷേ	0.0358
-3.3697 നന്നായി	0.0042
-4.4112 നന്നായിട്ടില്ലേ	0.0358
-4.1101 നന്നായിട്ടുണ്ട്	0.0380
-4.4112 നന്നായിരിക്കണം	0.0358
-4.4112 നന്നായിരിക്കും	0.0358
-3.9340 നന്നായിരിക്കുന്നു	-0.0925
-4.4112 നന്നായിരിക്കുന്നോ	0.0358
-3.9340 നന്നായിരുന്നു	-0.2594
-4.4112 നന്നായ്	0.0358
-4.1101 നന്ന്	-0.0576
-3.6329 നമസ്ക്കാരം	-0.0251
-4.4112 നമസ്ക്കാരംനമസ്ക്കാരം	0.0358
-4.4112 നമുക്കതിനു	-0.0576
-3.9340 നമുക്കതിനെ	-0.0576
-3.8090 നമുക്കത്	-0.0574
-4.4112 നമുക്കധികം	-0.0576
-4.4112 നമുക്കറിയാവുന്ന	-0.0577
-4.4112 നമുക്കാവില്ല	-0.0576
-4.4112 നമുക്കിതിനുള്ള	-0.0576
-4.4112 നമുക്കിതുവരെ	-0.0577
-3.8090 നമുക്കിത്	-0.0575
-4.4112 നമുക്കിത്തിരി	-0.0576
-4.4112 നമുക്കിനി	-0.0576
-4.4112 നമുക്കിനിയും	-0.0577
-4.4112 നമുക്കിവനെ	-0.0577
-3.9340 നമുക്കിവിടെ	-0.0575
-4.4112 നമുക്കു	-0.0577
-3.9340 നമുക്കെന്തെങ്കിലും	-0.0576
-4.4112 നമുക്കെല്ലാവര്‍ക്കും	-0.0573
-4.4112 നമുക്കൊരു	-0.0537
-4.4112 നമുക്കൊരുമിച്ച്	-0.0575
-2.6049 നമുക്ക്	-0.0060
-4.4112 നമ്പര്‍	-0.0573
-4.4112 നമ്മളതിനെ	-0.0576
-4.1101 നമ്മളത്	-0.0576
-4.4112 നമ്മളറിയൂ	0.0358
-4.1101 നമ്മളാണ്	-0.0576
-4.4112 നമ്മളാരാണെന്ന്	-0.0577
-4.4112 നമ്മളിത്	-0.0577
-4.4112 നമ്മളില്‍	-0.0575
-3.8090 നമ്മളിവിടെ	-0.0575
-4.4112 നമ്മളിൽ	-0.0567
-3.0889 നമ്മളെ	0.0220
-4.4112 നമ്മളെക്കൊണ്ട്	0.0358
-4.4112 നമ്മളെങ്ങോട്ടാ	-0.0577
-4.4112 നമ്മളെങ്ങോട്ടാണ്	-0.0576
-4.4112 നമ്മളെപോലെയുള്ള	-0.0577
-4.4112 നമ്മളെപ്പോലെ	-0.0576
-4.4112 നമ്മളെയെല്ലാം	-0.0577
-4.4112 നമ്മളൊന്നും	-0.0577
-2.7209 നമ്മള്‍	0.0356
-4.4112 നമ്മള്‍ക്ക്	-0.0577
-4.1101 നമ്മിൽ	-0.0573
-4.4112 നമ്മുക്കിവിടെന്ന്	-0.0576
-4.4112 നമ്മുക്കുള്ള	-0.0576
-3.7121 നമ്മുക്ക്	-0.1319
-2.7299 നമ്മുടെ	-0.0113
-4.4112 നമ്മുടെത്	-0.0577
-4.1101 നമ്മുടേത്	-0.0574
-3.8090 നമ്മെ	-0.0574
-4.4112 നമ്മോട്	-0.0576
-3.0309 നമ്മൾ	0.0312
-4.1101 നമ്മൾക്ക്	-0.0575
-4.1101 നയിക്കുന്നത്	-0.1824
-4.1101 നയിച്ചത്	0.0363
-4.4112 നയിച്ചവർ	0.0358
-4.4112 നല്കിയിരിക്കുന്നത്	0.0358
-2.6477 നല്ല	0.0189
-4.4112 നല്ലതല്ലേ	0.0358
-4.4112 നല്ലതാണെങ്കിൽ	-0.0577
-4.4112 നല്ലതാണെന്ന്	-0.0577
-3.9340 നല്ലതാണ്	-0.0955
-4.1101 നല്ലതും	-0.0576
-4.4112 നല്ലതുപോലെ	0.0358
-4.1101 നല്ലതെന്ന്	-0.1824
-3.4111 നല്ലത്	-0.3509
-4.4112 നല്ലവനെന്ന്	0.0358
-4.4112 നല്ലവരാണ്	0.0358
-3.8090 നല്ലൊരു	-0.0572
-4.4112 നല്‍കരുത്	-0.0576
-4.1101 നല്‍കി	-0.1824
-4.4112 നല്‍കിയതിന്	-0.0577
-4.4112 നല്‍കുന്നതാണ്	0.0358
-4.4112 നല്‍കൂ	0.0358
-4.4112 നശിക്കും	0.0358
-4.4112 നശിച്ച	-0.0576
-4.4112 നശിച്ചിരിക്കുന്നു	0.0358
-3.9340 നശിച്ചു	0.0365
-4.4112 നശിച്ചുപോയി	0.0358
-4.4112 നശിപ്പിക്കല്‍	0.0358
-4.4112 നശിപ്പിക്കാന്‍	-0.0577
-4.4112 നശിപ്പിക്കേണ്ടിവന്നു	0.0358
-4.1101 നശിപ്പിച്ചു	0.0359
-4.4112 നശിപ്പിച്ച്	-0.0577
-4.4112 നഷ്ടപ്പെടാന്‍	0.0358
-4.4112 നഷ്ടപ്പെടുത്തി	0.0358
-4.4112 നഷ്ടപ്പെടുന്നു	0.0358
-4.4112 നഷ്ടപ്പെട്ടാല്‍	0.0358
-4.4112 നഷ്ടപ്പെട്ടിരുന്നു	-0.0571
-4.4112 നഷ്ടപ്പെട്ടു	0.0358
-4.4112 നഷ്ടമാകും	0.0358
-4.4112 നഷ്ടമാകുന്നു	0.0358
-4.4112 നഷ്ടമായി	0.0358
-4.4112 നഷ്ട്ടപ്പെട്ട	-0.0576
-4.4112 നഷ്ട്ടമായി	0.0358
-4.4112 നഷ്ട്ടമായില്ല	0.0358
